//Model path = ./model_dir/dnn_MNIST_200-200_0.0_0001/checkpoint_120.tar
//Classification accuracy = 98.06999969482422%

levels = 3;

n = [784, 200, 200, 10];

W = [
-0.004688996,-0.03372177,0.06855976,0.0017082733,-0.07615386,0.015767884,-0.053723518,-0.024228187,0.04437433,-0.051165782,-0.06147316,0.037260287,0.00042636206,-0.057995707,0.025652291,-0.044381082,0.07172546,0.0012629882,-0.070515245,0.036181316,0.043526802,-0.05491006,-0.06594062,-0.08499915,-0.0021629555,-0.02466094,-0.065429844,-0.030813705,-0.06966045,0.030711304,0.014743237,-0.07252876,0.08071157,0.056134086,-0.012968632,-0.058021042,0.05000401,-0.02734909,0.028697593,0.02750158,-0.07464914,0.04947548,0.040901594,-0.05317283,0.0098444875,-0.08899525,-0.087752625,0.024864258,0.005964836,0.02572899,-0.0744938,0.012116875,0.029999359,0.032784496,0.076973625,0.013495517,-0.06628062,-0.05560939,0.039842,0.031101475,0.0014270124,0.046730578,-0.041982897,-0.095389195,0.097824775,0.030003931,-0.03144295,0.051590238,-0.020102004,0.09714301,-0.01811291,-0.03066166,0.024530731,-0.06618788,0.040979907,-0.015760835,-0.008611865,-0.0008476478,-0.0478411,0.030279044,0.059720032,-0.018891424,0.04230271,0.012260031,-0.0015676196,0.02647824,0.0011728702,0.018272443,0.029581424,-0.059394654,-0.07427011,0.04093417,-0.12376858,0.050451055,0.035019197,-0.07427525,0.08355106,0.014961817,-0.028536418,0.0369594,-0.004006051,0.024738273,0.01802056,-0.07642685,-0.034769267,-0.014190661,0.044304326,-0.003760247,-0.0122698285,-0.024669662,0.01128269,-0.02628719,-0.07261215,-0.01698828,-0.046414927,-0.025961338,0.02341399,0.039004613,-0.012135649,-0.02039484,-0.010320543,0.10980294,0.011654657,0.0029790173,-0.023197794,0.017561255,-0.07945979,-0.015818778,-0.024954863,-0.070470214,-0.038533702,-0.042839535,-0.02380742,-0.029061364,0.029043313,-0.01638442,-0.003843144,-0.003349141,0.016318617,-0.020704005,0.028910821,-0.018861499,0.05139211,0.021405729,-0.08884509,-0.03621805,0.014618811,-0.050465606,0.06301674,-0.050095774,-0.028307958,-0.03273987,-0.03702313,-0.057443254,-0.065776356,-0.030976586,-0.07824833,-0.07112828,-0.00911305,0.003891008,-0.07789408,0.009681385,0.0684809,0.02931292,-0.052716136,0.038925275,-0.036124192,0.008156541,-0.0666714,-0.011320837,0.024139939,0.018953046,0.019486478,-0.00039833935,0.032656148,0.09036449,0.044653624,-0.050233003,-0.13873148,-0.03123076,-0.008837398,-0.11425078,-0.07188253,-0.12193783,-0.06352287,-0.050530955,-0.051874883,-0.03931611,-0.031253956,-0.047769785,-0.03729199,0.027942918,0.016267447,-0.01162335,0.04170321,-0.108741716,0.044864677,0.033812054,0.007068585,0.090849385,-0.04092938,0.019664444,-0.017085064,0.03057759,-0.06949944,-0.12506817,-0.040479816,-0.05517468,0.0036062172,0.05019492,-0.014082394,-0.046888176,-0.027538437,-0.10331191,-0.03093371,0.064727806,0.009832808,0.023002883,-0.13240306,-0.08581834,-0.015564348,0.034980375,-0.038288716,0.051834058,0.064671814,0.0063761286,0.029322362,0.00059321854,0.08324124,-0.019872785,-0.08380257,0.022511786,0.086452566,0.0591096,-0.013080211,-0.03354341,-0.07100378,0.043576147,0.060209583,0.102139615,-0.019894162,0.03767173,-0.009532354,-0.058864098,0.0775978,-0.070966065,0.0030533,-0.010733033,0.0010358217,-0.06709954,0.0051215254,0.018301172,-0.054490026,0.033109915,-0.10688606,-0.055274766,0.030362813,0.007727797,0.075641684,0.029098898,-0.028598797,-0.038674105,0.058428474,-0.08266939,0.07428324,-0.033256292,0.005864047,0.017177045,0.060800567,-0.014817597,-0.07166473,-0.056977272,0.061598837,0.05608313,-0.020787016,0.04263178,-0.010524381,-0.027661813,-0.076141,0.05422116,0.079769574,-0.035435673,-0.034917895,0.0033670275,-0.011561116,0.051688,0.02499697,-0.071993954,-0.018204115,-0.061996512,0.0074056974,0.076922104,0.012230414,-0.047366783,0.02777766,0.06814098,-0.07784728,0.0031745834,-0.09955395,-0.017792162,0.07340872,0.009692444,0.0036124417,0.05017758,-0.08370279,0.07525548,0.02787481,0.015953228,-0.015548202,0.06920455,-0.049032245,0.04092153,0.043923788,0.010879163,-0.04969279,0.056245886,0.037919905,0.06021737,0.06955982,0.051188942,-0.000921364,-0.009038999,0.028577298,0.06260811,-0.016025793,0.040564094,-0.024715744,0.0639384,0.020171411,0.016443107,0.037611056,0.002096117,0.12553115,-0.0103889005,-0.014910884,-0.019831225,-0.035628,-0.059326384,0.05465612,-0.023052126,0.05858301,0.0690406,0.003436303,-0.06886947,-0.11928971,-0.05153848,0.0845605,-0.04730684,-0.010143203,-0.046184435,-0.04712021,-0.11235256,-0.12158268,0.07886351,0.07266808,-0.02531994,0.011144793,-0.03182192,0.0022228444,0.04941531,0.118574694,0.036908034,-0.0009794862,-0.010898843,-0.008595605,0.037677307,0.03788121,-0.08528184,-0.0030865828,-0.0030338953,0.06560676,-0.010075265,0.117410585,0.092033766,0.0997767,0.10629595,0.06192753,0.10970123,-0.019698944,-0.067370154,-0.0035369913,0.044510543,0.022563057,-0.0108805075,-0.012763381,-0.032001782,0.0144551,-0.010199015,-0.051411927,0.057943363,0.07536213,0.042732727,0.06745187,-0.057370882,0.045153756,0.04849618,0.039366625,-0.0021119704,0.048152782,0.067802176,-0.047729198,-0.03752358,0.00391131,0.15775396,0.15226182,-0.0186629,-0.015252122,0.025585989,-0.02365043,0.058136508,-0.0031643524,0.049042497,-0.06158449,0.027209036,0.02021598,0.05226242,-0.0385516,0.070389494,0.08743449,-0.07114027,-0.003303242,0.0491433,-0.06268737,-0.069754496,0.032779023,0.048663806,-0.01754474,-0.042987723,0.085749835,0.07412754,-0.049304858,0.026975311,0.110658474,0.070970535,0.11441342,0.027443774,0.013792131,0.0077018365,-0.05080548,0.065826245,0.12517712,0.025539868,0.123577915,0.051075496,-0.009933229,-0.07286137,0.0011035708,-0.05489787,0.052488547,-0.08338081,-0.009058555,-0.06336952,0.046796896,-0.0005978392,-0.018099014,0.08882897,-0.0021919003,-0.068951614,0.011775567,-0.00066461164,-0.004252681,0.06199819,0.010751114,0.009741137,-0.14406563,0.054266874,0.06252659,0.011286437,0.06473752,0.04641397,0.03817654,0.0793252,-0.014068636,0.016161509,0.10895195,-0.08236604,-0.020728948,-0.13235033,0.08077783,0.019923663,-0.01175899,0.017062834,-0.04402494,-0.03935045,-0.022567723,-0.051370338,-0.003128706,0.012853467,0.058388066,0.051994264,0.03939718,-0.01281621,0.0072090724,-0.028500695,0.021884223,-0.07656541,-0.059090193,-0.035802606,0.00907551,-0.04578195,-0.02994402,-0.04578882,-0.038923293,-0.014608279,0.032673232,0.070823476,0.023300696,-0.04812362,-0.06981514,0.010804407,-0.002056564,-0.096003145,0.0298624,0.0214268,-0.007869761,0.006918795,0.05194253,-0.035206474,-0.051833685,-0.008649492,0.058381226,-0.07097106,-0.14455058,-0.012527575,-0.07837646,-0.0056637255,-0.013910107,0.02372855,-0.018095689,-0.015705232,-0.03160747,0.071023464,0.0153197115,-0.0458955,-0.01525489,0.028233068,-0.036545556,0.041280534,-0.02520372,-0.009871075,0.061108503,0.043936692,-0.02713689,-0.09346084,0.1034768,0.021783592,0.017687615,-0.09743737,0.0857084,0.017966736,-0.006112076,-0.04088277,-0.040291898,0.046002198,0.055899344,-0.012949939,-0.023964865,0.0177891,-0.020344507,0.00089141837,0.08276917,0.036734518,-0.03997353,-0.09024935,-0.01545212,-0.03232931,0.06637825,-0.031447418,0.02936417,0.03838599,0.025661673,0.03646575,0.072752,0.022913475,-0.025240483,-0.020734362,0.07749288,0.0061686905,-0.006638249,-0.014391391,-0.08350385,0.04927013,0.06979103,-0.01805458,-0.10253896,0.019963868,0.030542454,0.0070110173,-0.04859439,0.033567563,0.0067566126,-0.01981603,-0.040077154,-0.08398744,0.015622837,-0.03938323,-0.0069178296,-0.012031811,-0.016865086,-0.089844786,-0.00064760906,-0.09868294,-0.038594093,0.011719562,-0.010046316,-0.04408767,-0.06988995,-0.01384554,-0.022095904,-0.038804974,-0.061166156,0.014723051,0.004672486,-0.024827985,-0.013806881,-0.07616571,-0.07321114,0.0022169482,-0.037251793,-0.020448336,-0.004934842,-0.0692029,0.0020817355,-0.09042759,-0.086261,-0.0191565,0.0043932903,-0.05336796,-0.0513069,0.10552977,-0.05243094,-0.036712676,-0.043967318,-0.0071044285,-0.065848805,0.022756977,-0.05191405,-0.016887842,0.02250377,-0.08844194,-0.07555023,-0.053423155,-0.00050011324,0.012852087,0.01129121,0.012529858,0.06718238,-0.027175382,-0.09863962,-0.0034238228,0.017023135,0.0065628043,-0.0340122,-0.0940489,0.12216374,-0.051486243,-0.021734755,0.019590328,-0.13700932,0.111549206,0.0030640054,0.003934188,0.055248328,0.06623349,-0.07215963,-0.0046564424,-0.006744088,-0.027220393,0.033756796,-0.034769274,0.026112625,-0.005932874,0.013714284,0.015102532,0.032802917,-0.055337608,-0.032174133,-0.042201977,-0.08630932,-0.13829151,-0.024097757,-0.065351345,0.07977644,0.0095877,0.02436926,0.013917887,0.06368456,-0.077682406,-0.044840958,0.027194701,-0.030120598,-0.039111365,0.046543073,0.0368909,0.081484355,0.053730898,0.04679456,-0.012895838,-0.029143913,-0.012367316,-0.023190182,0.016752945,-0.015425277,-0.120537326,-0.074365675,-0.021018125,-0.022975316,0.0030518586,0.00412129,-0.06177514,-0.05912901,-0.0059711947,-0.0707779,-0.04333399,-0.03299677,-0.020604428,0.07189032,-0.036689866,-0.045754183,0.023335338,-0.097892895,0.020208275,0.025498984,0.0112372,0.08378829,0.07039205,-0.046792995,0.0066297054,0.024135627,-0.025532046,0.038807433,-0.0370369,-0.020797271,-0.026451746,-0.017170375,0.013753231,-0.026478028,-0.060502015,0.07414821,-0.029805468,0.09854488,-0.014867117,-0.05993277,0.012502611,0.0027416886,-0.00897591,0.09527662,0.14127512,0.012063092,-0.020050976,-0.023085397,-0.029021578,0.033777844,-0.015444336,0.07125008,-0.07664148,0.033586774,-0.024484824,-2.3453986e-05,-0.010684538,-0.08530097,-0.043886513,-0.058567982,-0.029353108,0.05844187,-0.01553286,-0.03471769,-0.005252652,0.047036495,-0.02928491,-0.017050816,-0.012937193,0.007083733,0.041162185,-0.06748826,0.04152039,0.051652018,0.044065304,0.03277292,0.09957014,0.038000666,0.0065659033,0.0119038345,-0.048737656
,-0.023274355,-0.027363775,0.01000451,-0.0008303807,-0.04578867,-0.011072323,-0.0024723604,-0.00623936,0.010925823,-0.013930809,-0.0057101655,0.060074974,0.04627704,0.077057056,-0.029102787,0.0716732,-0.056981366,0.014741175,0.03565971,-0.0024510776,0.076128475,0.017666722,-0.0026366971,0.05489058,0.03970277,-0.026241854,0.016097873,-0.023512866,0.024373002,-0.00907935,0.08847064,-0.0596516,-0.027140947,-0.044875335,0.075968795,0.08221217,0.03188637,0.09305138,0.018569369,-0.05093238,0.0186246,0.0020715487,0.046310026,-0.02264181,-0.020775134,-0.006537634,-0.018884338,0.02140982,-0.111884005,-0.0079053035,-0.050313942,-0.013975117,0.014243549,-0.026176233,0.047872283,-0.06410958,-0.056158148,0.056038987,-0.059319012,-0.045123722,-0.0025500096,-0.014339758,0.082310565,0.014532281,-0.07739754,-0.006715862,-0.01575718,-0.027007792,-0.011191479,-0.030188002,-0.02947707,-0.12101995,-0.03129604,-0.07334945,-0.03783315,-0.04921522,0.037433177,-0.039331406,0.031411707,-0.00698854,0.02911778,-0.04815386,0.08302008,-0.055141386,0.03707549,-0.045912415,-0.0007276124,0.029764296,0.0691955,0.110596836,-0.026489405,-0.0026204623,-0.0067477073,0.044180594,0.055014573,0.0022753414,-0.04240767,0.041310266,0.037631247,-0.025069164,-0.061520938,-0.04291227,0.003559319,-0.023306342,0.029243724,-0.003386589,0.011301213,-0.042539127,-0.0255648,0.057846427,0.041463163,0.028684838,-0.0076107862,-0.0663405,0.02345799,-0.079366535,0.015930673,-0.00043897083,0.0012909261,-0.016981235,-0.01311183,0.026888007,-0.102727644,-0.03462778,0.03425236,-0.088555425,0.0963906,-0.024492467,-0.036012787,0.050637152,0.00019746443,0.04374605,-0.011163103,-0.0036905273,-0.038160518,0.056574386,-0.017770471,-0.08365441,0.12666067,-0.04043871,-0.082914755,-0.07237883,0.0010269725,0.011432275,-0.10920542,-0.10473649,-0.0105446,-0.048019506,0.025065083,-0.0473635,-0.040159598,-0.001062448,-0.071432516,0.037557006,0.03375159,0.022734879,-0.08790393,0.036693472,-0.045478683,0.024378967,-0.16412707,-0.054915838,-0.00055276434,-0.026647108,-0.055621594,0.064157344,0.024767483,0.057205763,-0.032090075,-0.065842524,0.053310674,0.080534875,0.034982357,0.04386339,-0.07798026,-0.0042283377,-0.06920447,-0.006770458,0.015348091,0.075409286,0.0110324,0.030509375,0.1393422,0.065670446,0.008680644,-0.04268446,-0.0033893315,-0.062424086,-0.07094759,0.08913554,0.07287108,-0.07726539,-0.08120595,-0.015054774,0.016236471,-0.01731241,-0.06734202,-0.14292316,-0.011934175,0.03589593,0.04306756,-0.049642976,-0.017039144,-0.021565868,-0.024108453,-0.027504828,-0.05003588,0.035189137,-0.0153823765,0.07347062,0.050908845,-0.019078307,-0.057544846,0.038186394,-0.03266041,-0.122102335,-0.07054588,-0.07541951,0.017874246,-0.03658201,0.018328395,-0.052853897,0.024575165,0.02665589,0.05165791,-0.047552727,-0.076335475,0.03591394,-0.085771665,-0.09346519,-0.022628244,-0.01229848,0.016456904,0.025556391,-0.05091849,0.08938864,0.015264348,0.05194958,0.16018723,-0.0045151394,0.075661145,0.13587719,0.08689022,0.06908169,0.0098875435,0.06571454,0.012445875,-0.01804688,0.11670948,0.036241915,0.018061621,-0.05087818,0.078296475,-0.029510096,0.0035462203,-0.08476318,-0.05618794,-0.024476305,-0.07222534,0.099017665,-0.044857476,0.013687495,0.11452813,0.07519127,0.031941384,0.19260314,0.0028316253,-0.0037488844,0.027291644,0.030142123,0.073427394,0.14498773,0.052863844,0.045884434,-0.05036788,0.023571696,0.10322582,0.04133843,0.026907118,-0.010233441,-0.025060136,-0.034355074,0.079042196,0.08461182,-0.072712265,-0.010647131,0.019482154,-0.026141092,-0.022316271,0.020355048,0.07902665,-0.05520335,-0.005268181,0.061790083,0.099295415,0.13156356,0.14144301,0.090426825,0.050329994,0.011270976,0.17117098,0.04485624,0.063602105,0.08348269,0.06197982,0.023835713,0.016357925,-0.008442417,0.0011931048,0.0619841,-0.11368668,0.07167538,-0.017702473,0.04350494,0.105869174,0.06741512,-0.068555176,-0.038526922,-0.0002118693,0.06811785,0.03216566,0.037526507,0.06844716,-0.038664613,-0.022288226,-7.79899e-05,0.037209816,0.04612677,0.107227094,0.045960303,-0.025436688,0.16809487,0.07630385,-0.027430197,0.06898113,-0.056484096,-0.06319683,-0.05927609,-0.020912917,0.03557412,-0.08107823,-0.053914372,0.06644301,0.016946724,-0.013121619,0.071801186,0.069969326,0.0010282587,0.050556358,0.06517118,0.05672782,-0.051028453,0.032707218,-0.07235701,0.08391278,0.03005818,0.04015578,-0.060946614,-0.0035938844,0.10277949,-0.088446066,0.0036150052,-0.12527464,-0.038418632,0.010744487,0.027736798,-0.031968515,-0.007652022,-0.03912863,-0.076738186,0.03874785,0.070260674,-0.045639336,0.029361602,0.03350678,0.16264309,0.10362893,-0.021581667,-0.030193195,-0.0071959356,-0.028678307,0.028818702,0.056081995,0.023032846,-0.032838345,-0.016844198,0.060553674,0.09770229,-0.029055879,-0.031016767,0.08117827,0.059858333,-0.027671836,-0.016255816,-0.031910717,-0.063066624,-0.06759016,0.1019737,0.0990167,0.02897722,0.03333395,0.012328703,0.116663255,-0.034499705,0.08117485,-0.09962759,-0.109732375,-0.0319999,-0.0063832984,0.05934726,-0.028908707,-0.080939196,-0.07220434,-0.048987284,-0.018662447,0.08938688,0.1420214,0.05750784,0.10171772,-0.0486893,0.012404421,0.034258027,0.009183032,0.0379872,0.017922098,0.023630822,0.12776312,0.06949753,-0.06384287,-0.02585916,0.021682031,0.01875326,0.04837267,-0.0042535514,-0.10317468,-0.015491232,0.007914486,0.06777396,-0.15019415,-0.039235547,0.13173664,-0.017536933,0.005365474,0.04587748,0.10414267,0.0036865827,-0.015251041,-0.06677918,-0.064899564,-0.020674264,-0.0506607,-0.036622036,0.020984393,0.04433391,-0.006230196,0.08299834,-0.05152348,-0.053743392,0.06456354,0.018907225,0.08937837,-0.15952268,-0.05123229,0.045544766,0.061235454,0.026867371,-0.084110364,-0.1207657,0.033828404,-0.053057704,-0.0122814905,0.015179744,-0.003201268,0.02079002,-0.031630084,-0.03395711,0.019274559,-0.030379511,0.0098656835,-0.024615992,0.049071025,0.07062108,-0.043141775,0.025970912,0.08941198,0.029427206,0.087888114,0.036227383,0.0675743,-0.0743872,-0.018824397,-0.04468333,0.013821771,-0.16625139,-0.119232744,-0.09599884,0.002251468,-0.06430131,-0.03523282,-0.014304996,-0.025616838,-0.021525163,-0.012469904,0.03352174,0.0051415986,0.011922822,0.031636514,-0.07334648,0.002678855,0.04062795,0.014424379,-0.016988602,0.074197486,0.055268183,0.061252095,0.039424293,0.05147358,-0.059713494,-0.029771157,-0.00030822767,-0.08832895,-0.006157182,-0.0150942085,-0.14665331,-0.09252262,0.002206995,0.024109846,-0.079745784,-0.0047947313,-0.088103175,0.048162,0.0043606926,0.012724851,-0.01005711,0.06740544,-0.0501589,-0.027237613,-0.09147659,0.020108245,0.0021553847,0.041162044,-0.0039563295,0.045137875,0.0020728994,-0.06417049,0.02005084,-0.0052742576,0.017110057,-0.0018958948,-0.013255539,-0.0006292406,-0.091307595,0.0074102734,0.016331524,0.020813445,-0.016700117,0.06229087,-0.09555965,0.008468158,-0.016224165,0.01972306,-0.050263207,-0.009876522,-0.12295477,0.05570643,0.0151249245,-0.0015664862,0.021378687,0.05053868,0.08607712,0.04619301,-0.061353274,0.039956868,0.026193986,-0.01319985,0.012490647,-0.096358165,0.0067975083,-0.026864415,-0.07754025,-0.0065651853,0.06270209,-0.012765209,-0.028002156,0.055688906,0.04145172,0.07564259,-0.038869258,0.05195961,-0.0172456,0.033965286,-0.041934054,0.025635894,0.07844341,0.049561545,0.0080317985,0.041188657,-0.02308309,-0.055100817,-0.047378674,-0.06974623,-0.017932698,-0.068529435,0.0651448,-0.093403436,-0.0963427,-0.035966843,0.032199353,0.065669104,-0.18641657,-0.0048745866,0.044934906,0.09614898,-0.041523557,-0.090725884,-0.06322309,0.031529114,-0.0074835597,0.0055425656,-0.020360235,-0.08475462,0.1136774,0.02550408,0.089586884,0.10121144,0.0357333,0.0038395016,-0.025094513,-0.030927122,-0.08036431,-0.0037535164,0.023551598,-0.12077913,-0.024245664,-0.004254995,0.037934422,-0.15842181,-0.034505084,-0.038267054,-0.008688943,0.038150094,0.006356018,-0.061741456,-0.022370607,0.05237301,0.053931415,-0.10952865,-0.022009097,-0.029725373,0.06641573,0.012204845,-0.023304071,0.122482054,0.08722614,0.070540965,-0.004411987,-0.03667033,-0.029044317,-0.028428562,-0.15325812,0.08046762,0.07669924,0.08057644,-0.013097596,-0.029326007,-0.057296433,0.01128604,0.017634824,0.039677422,-0.018575456,0.03097452,-0.04043927,-0.013324806,0.08271432,-0.043878946,-0.045734547,0.022028264,-0.047029156,0.022016488,-0.075802445,0.017710809,0.019620415,0.047450613,-0.074633844,0.01555684,-0.06215461,0.120552905,-0.1406128,-0.050495226,-0.051384833,-0.08030714,-0.07843322,-0.09654026,0.033293214,-0.038443767,-0.009038197,-0.039150767,-0.05341197,0.058538083,0.050453942,0.07912676,0.04108323,0.06326854,0.012768492,0.03092741,-0.103784986,-0.051524412,-0.09248658,-0.10338433,-0.07776723,-0.03445888,0.015941257,-0.0074107763,0.009273856,-0.042932466,-0.058468953,0.07235299,-0.018907305,0.0020475704,-0.036803152,0.10652235,-0.0020677515,0.03391168,0.019209385,0.030778732,-0.002462018,0.030728092,0.04652457,0.0629503,0.026324343,0.08758641,-0.072039425,-0.05458285,0.015584756,0.010252809,-0.03103585,-0.013418009,0.06967911,-0.015159276,0.04443137,0.088246845,-0.03568798,-0.0006320853,-0.0004413331,0.0018305235,-0.087488905,-0.07291438,0.13556342,0.014929604,0.06382406,0.05956128,0.02768443,-0.020534836,0.018040791,0.03273483,0.055666737,-0.007154835,-0.05029373,0.020115951,0.067179486,-0.059096977,-0.01562645,0.017503103,0.013255002,0.029536432,0.0075491117,-0.077597044,-0.0077742767,-0.023953386,0.04121174,4.8993636e-05,-0.003105004,0.07121297,0.0006525481,0.029311135,-0.14644842,-0.043275855,-0.051217113,0.007856266,0.024136536,-0.0011175247,-0.05280811,0.022649901,0.00041916236
,0.04670881,0.07296204,-0.0025662363,0.06900666,-0.004588181,0.06074792,0.09117146,-0.02228107,-0.075024374,-0.02267502,-0.049051575,-0.03381267,0.03402398,-0.057552174,-0.1053874,-0.06336602,0.06469966,-0.02836486,-0.059054,-0.09143481,-0.075396664,0.0023568284,-0.02942727,-0.06750101,-0.005596129,0.06446198,-0.016884113,0.00021432762,0.032563437,0.03604196,0.016877111,0.06582389,0.017479368,0.047307845,-0.083270155,0.0020045782,-0.028686889,-0.08341665,-0.061849922,-0.02507455,0.032694902,0.02793144,0.035227105,-0.026056942,0.12925808,0.009835384,0.027908182,-0.056540642,-0.0047296924,-0.017648475,-0.04628637,-0.030362036,-0.015652403,0.015058417,-0.021829758,-0.0005036325,0.045957666,-0.103092,0.004105634,0.05807682,-0.013927688,0.0040818057,-0.015805691,-0.018308565,0.055645812,0.020659635,0.03193725,0.052732922,-0.014354377,0.040199187,-0.08474586,0.01274788,0.0389602,0.07753217,-0.0064243833,-0.057114065,-0.062261187,0.080096625,0.0108549185,-0.043503836,-0.06891323,0.065937854,0.054146208,-0.015923405,0.0351876,0.09747959,0.120310046,0.00737016,0.026047956,0.0068192664,0.06502616,0.06324501,5.6271606e-06,0.03006936,-0.03372947,0.020363396,0.024149513,0.0493504,-0.004625327,0.038889162,0.012934372,-0.079578385,0.036849607,0.045716103,-0.05192728,0.010780463,-0.043399177,0.0050943564,-0.16668336,-0.038068317,-0.0066703157,-0.027716815,-0.014457385,0.09138238,-0.083918974,-0.060558274,-0.0224113,0.0699859,0.036984432,0.022427922,-0.003993641,-0.06063648,0.04777766,0.008425798,-0.087385386,0.010330582,0.043724358,0.055375595,-0.03827784,0.042679194,0.06834608,-0.07375887,-0.02101198,-0.0064189415,0.022122985,0.07533644,-0.051321764,-0.028136663,0.020570308,0.03784755,0.021760609,0.021839077,0.114650495,0.011907646,-0.046510685,0.07862165,-0.017701382,0.027615134,-0.028426614,0.050385073,-0.03388709,-0.011152231,0.04407973,-0.099776305,0.024965076,-0.03925103,0.053522542,0.04737282,0.09576344,-0.043248728,0.01294733,0.06316525,0.026365379,0.07356236,0.017331295,-0.07336127,-0.0012991929,-0.043454617,0.006980516,-0.023499517,-0.0029468627,-0.025192166,0.038599376,-0.00042150498,0.0046043075,0.01494802,-0.007754594,0.0602528,-0.043546706,0.012496069,0.026760973,0.13830838,0.14125705,0.08153883,0.19276747,0.17735453,0.071754634,0.027470438,0.056459244,0.10760769,0.07237165,0.11198064,0.022282697,0.029469823,0.035235364,-0.011936461,-0.009593829,-0.036932565,0.033320084,0.031285107,-0.04351212,0.00070181565,-0.017619168,-0.017902816,-0.0014591106,0.051523853,0.06599629,0.13798442,-0.0018253241,0.115153395,0.12926301,0.03298233,-0.01687441,0.09898603,0.047729995,0.07219298,-0.0432642,-0.016182853,0.07664161,-0.025069267,-0.15012465,-0.023390697,0.07065563,-0.02011863,-0.034438748,-0.19681384,0.024425559,0.05378903,-0.023800295,0.04176788,0.044267368,0.03704173,0.14097822,0.06222582,0.08780423,0.09484667,0.051171124,-0.008140519,0.07649249,-0.0061802804,-0.045324434,0.014339634,0.12603658,-0.011725423,-0.021361655,0.0024779157,-0.033765,-0.00041967115,0.08863039,-0.011922811,-0.06968242,-0.05320315,-0.012333716,0.12246455,0.005988827,-0.12566967,0.09872155,-0.02852057,0.08083656,0.043668263,0.0034024392,0.014844033,0.008444942,0.004463881,0.07164577,-0.08514149,-0.08839704,-0.052301027,0.052748527,-0.024371576,-0.06448519,-0.0032626884,-0.023290232,0.035447855,0.053697646,-0.13131945,0.010323704,0.03538921,0.0024684747,0.00091310916,0.014619682,-0.021642068,0.044951174,0.011025323,-0.058359724,-0.041168597,0.09424763,-0.027162535,-0.014207797,0.011334332,-0.13836825,-0.21188486,-0.048946444,-0.12632157,-0.081112094,0.08094625,0.014447988,-0.02543245,-0.005155589,-0.16249846,-0.05452039,-0.02759034,-0.047842193,-0.05722077,-0.042928156,-0.01901863,-0.019490842,0.010129801,-0.009648288,-0.100652434,0.050814264,-0.01704953,-0.024434531,-0.034315173,-0.05635474,0.07354847,-0.04379892,-0.094007745,-0.01662397,-0.031663682,-0.028917996,0.042315975,-0.047987152,-0.066668354,0.0077698003,0.07985195,0.038163755,-0.028892145,-0.044528067,-0.0029214195,-0.06386263,0.044142183,-0.08420147,0.0014622663,-0.06631957,-0.09246279,-0.0009451967,0.021484252,0.040901665,0.059368014,0.11967508,0.028701209,-0.04968383,-0.0042553865,0.11488023,0.10194503,0.049169354,-0.031467356,-0.039101433,0.011665476,-0.044332996,-0.04067428,-0.13799828,-0.024597932,-0.0028514378,-0.00829945,-0.072839685,-0.061800588,0.001511669,0.006032,0.054647103,0.021030432,-0.12712024,-0.0555068,0.01526928,-0.076204516,0.0069126645,0.025565205,-0.045487553,0.034948308,0.020060146,-0.044195436,-0.07728984,-0.02650995,-0.015979346,-0.03972171,0.024980836,-0.015194211,0.00672587,-0.019041032,-0.044743553,-0.033533227,-0.022565156,-0.010945123,0.009350778,-0.0112969475,0.0056890594,-0.019516606,-0.07096661,-0.07323756,-0.007082999,0.011895247,-0.025136955,-0.02617329,-0.09179005,-0.022832835,0.063439324,-0.12290131,0.086449265,0.016445667,0.037124697,-0.015272858,0.016795127,-0.07029313,0.043862987,-0.04995184,-0.020335132,0.017305758,-0.07900171,-0.034537412,-0.051635128,0.014215713,0.034646742,0.03937524,0.072532564,0.06381692,0.043743115,0.035398267,0.044598714,-0.06916464,-0.11682464,-0.088788934,-0.039810453,-0.05206869,0.029386764,-0.002061056,-0.015121322,0.016715402,-0.14959058,-0.029336713,-0.009407041,-0.09794747,0.061955616,-0.0025685593,-0.05292299,-0.07758578,-0.031656288,-0.012834128,0.01682038,0.065048024,0.025041768,0.035751954,-0.029633151,0.061915953,0.12545703,-0.0079673175,0.020159667,-0.039199796,-0.02749305,-0.07576382,-0.057545014,-0.03889525,-0.02162969,-0.049322214,-0.06791848,-0.12568371,-0.1669298,-0.040121093,-0.06497929,0.07009311,-0.05285007,0.050310455,-0.059021536,0.09842805,0.08211109,0.036931314,-0.027814645,0.0076952064,0.029209182,0.031662945,0.029787628,-0.06528909,0.0036037937,-0.059592582,0.014260894,0.0699855,-0.0062915753,-0.001796566,0.037891258,0.0074686566,-0.0469331,-0.0016717594,0.045068383,-0.0018033972,-0.1127726,-0.1667316,-0.06745196,-0.09908885,-0.07955836,-0.033277657,-0.017418725,0.02888237,0.039441235,0.03921068,-0.07594512,-0.043883417,0.06047703,0.12390963,-0.0069598057,0.021186903,-0.060346212,-0.02771391,-0.039711326,-0.04049331,-0.069216534,-0.038885504,0.015658183,0.043008998,-0.0075352886,-0.03357357,-0.012964316,-0.08803092,-0.039794486,-0.038841933,0.04590285,-0.055835962,-0.1364573,-0.09008895,0.0040662964,0.029328888,0.13408227,0.058379453,-0.092426516,0.022385899,-0.04066036,-0.07019932,-0.13067126,-0.101315215,0.01439079,0.04078269,-0.0657345,0.003629058,0.06600229,-0.019508582,0.04307726,-0.013223065,0.09196656,0.0629594,-0.02692174,0.09923892,-0.05822202,0.13663144,-0.0076987604,0.021852368,0.09149048,0.048739415,0.05304459,0.07312755,-0.006596356,-0.037550494,-0.044367287,-0.050035268,0.12031482,0.019819876,0.013018484,-0.023504319,0.09539377,0.026563108,-0.036823552,-0.09171087,-0.06650177,0.010713513,-0.03024737,0.01474799,0.029369924,-0.021419061,0.013216621,-0.08363495,0.13468038,0.082588084,0.06462807,0.118566245,0.07579712,0.14435409,0.06713508,0.09711019,-0.036026154,0.1070725,-0.05290718,-0.021939985,0.03182134,0.005681403,0.0213319,-0.027798614,-0.022290321,0.06309927,-0.0826123,0.00766363,-0.006573677,0.010496034,0.023452252,0.006237768,-0.020592267,0.020818619,0.08083907,-0.055304404,0.066886336,0.0649607,0.11643684,0.11845592,0.16981035,0.07082158,0.05971902,-0.0017224385,-0.019610628,-0.042545743,-0.042321604,0.049818985,0.06187858,0.0013122126,0.012890552,0.0662404,0.09781084,0.030054782,0.0631948,0.008817047,-0.014344664,-0.013995163,-0.040957,0.04334401,-0.015007149,-0.07840147,0.105424635,-0.01604372,0.15125692,0.002342702,0.042311877,-0.00041088162,0.09111085,-0.13624544,-0.051007405,0.0052772686,0.08103443,-0.027046122,0.0056806887,-0.11768199,0.074193746,0.05376992,0.044240046,0.049854282,-0.0636235,-0.05436259,-0.06445165,-0.032949533,0.06591887,0.098321,0.053232744,0.033477098,0.003429148,0.042116746,0.029302754,0.046015028,0.040739752,-0.047345374,0.095516086,0.0385047,-0.05334548,-0.08931094,-0.03224808,-0.033050887,0.01938541,-0.036185104,-0.0045719696,0.041276958,-0.014378983,0.045466196,0.0016032829,0.009775062,0.05903828,-0.0031240033,-0.11454786,0.017299667,0.029131908,-0.010093666,0.054357,0.05662899,-0.07844933,0.08754534,0.057910156,0.009778446,0.05234975,0.06653042,-0.035663676,-0.0109939715,-0.057297483,0.0018362774,-0.05674638,-0.00668658,-0.030117875,-0.072425604,-0.04736006,-0.013586781,-0.03524345,0.013822716,0.060651522,-0.0342373,0.05758861,-0.09467857,-0.029533602,-0.013213319,0.018528195,0.0006693917,-0.01399502,-0.045684386,0.018374803,0.069842264,0.07802884,0.027547937,0.006988168,0.017818347,0.064586915,0.063240305,-0.009266933,-0.03215771,-0.03665953,0.13243794,0.017494898,0.10700907,0.07717768,0.03647784,-0.010847485,0.12370987,0.043075953,-0.035789784,-0.09484625,-0.065332144,-0.069849245,-0.023353435,-0.056339137,0.0040526893,0.0035029368,0.011209615,-0.025318617,0.021696286,0.056066494,-0.066933975,0.07616386,0.07585026,-0.01248113,0.049210396,0.03141615,0.004526166,-0.036197204,-0.09459889,0.06987715,0.07876759,-0.027874991,-0.0049257893,0.045799695,-0.0053504463,0.055520814,-0.05104803,0.011075299,-0.03951642,-0.03846513,0.0078076315,-0.104438566,0.069272436,0.038547285,-0.0012605152,0.035270307,0.0507699,0.08833088,-0.015883742,0.04054345,-0.09307226,0.0020102097,-0.04261988,0.024600768,-0.03373672,-0.04280854,0.061292496,-0.04415399,0.053730827,-0.076855816,0.052339125,0.034104705,0.04179477,-0.03461237,0.07561625,0.011874012,0.011417085,0.0021611524,-0.00087393663
,-0.07022446,0.11373968,0.09774753,0.038611207,0.0728723,0.03283052,-0.16933464,-0.11128049,-0.011271631,0.01423871,-0.08995562,0.0099448655,0.109882034,0.073798254,0.060596526,-0.039625216,-0.0726206,-0.06144102,0.049303524,-0.048302475,0.0052482933,0.058229893,-0.020488575,0.03856793,0.01779015,0.011484636,-0.041626796,0.06929177,0.074105404,0.025619209,-0.0003367502,0.0013013455,0.015117009,0.11346971,-0.0482332,0.12250203,0.057666253,-0.08086345,-0.040289402,-0.00040085116,-0.060188133,-0.050170694,0.015102164,-0.012878258,0.025522849,0.03644546,0.055243313,-0.01901528,0.07692908,-0.089538805,0.013722819,0.002072954,-0.0058925673,-0.09476532,0.002474551,-0.030371802,0.122764185,0.0039683883,0.04342695,0.0109878555,-0.08045955,-0.00813307,-0.09255195,-0.06644277,0.039730407,-0.0851247,-0.08427025,0.063225344,-0.028342126,-0.084345296,0.12356728,-0.049594726,-0.033993833,-0.051917758,0.04748247,-0.053059563,-0.10222029,-0.043007337,-0.009457138,-0.021405121,-0.031006914,0.04188482,0.006951994,0.014202772,0.059388313,-0.002896954,-0.06734809,0.028122729,-0.057824317,-0.017281711,-0.036456004,-0.099859565,-0.008927634,-0.0011228868,-0.056081172,-0.030192982,0.053432602,0.0063080555,-0.058869623,-0.04145338,0.088401645,0.036496505,-0.0043584947,-0.0745114,0.106130406,0.025209986,0.037009057,-0.023252761,0.07230943,-0.00024198224,-0.040679846,-0.032124646,0.0711549,0.013597268,0.058777012,-0.020032411,-0.016089313,-0.08988066,-0.0040619,0.038226794,-0.048425347,0.042583343,-0.07351075,0.023653168,0.007963705,-0.08807916,0.08671967,-0.037979987,-0.0059986715,-0.025340656,0.016548693,0.062457435,-0.01780605,-0.05323861,0.04248131,-0.0046411105,0.02756503,0.10596517,0.031298816,-0.04709697,-0.037798416,-0.010944908,0.007796196,0.057511266,0.083907165,-0.008153743,-0.032425128,-0.04931691,0.08527002,0.020470722,-0.17272294,0.10152032,-0.085309654,-0.046307668,0.023602195,0.011211323,0.003149061,-0.0891491,0.051480867,-0.06345353,0.036145434,0.051725123,-0.08887763,0.098123364,0.019198062,-0.036741257,-0.017971316,0.07125818,0.0058387336,-0.080668405,0.008894119,-0.059009258,-0.02319442,-0.043019954,0.09708039,-0.049420424,-0.0452984,-0.04453196,-0.095604435,0.016690465,-0.008105376,-0.039532084,0.09214987,-0.019499855,-0.0202733,0.0002661114,0.072044894,-0.039973017,0.035905465,0.076804146,-0.015092635,0.014931779,-0.05472957,0.012525359,-0.0047231945,0.08465143,-0.113635264,-0.021413602,0.021671137,0.010401869,-0.09094461,-0.10176373,0.03940792,0.06498376,0.039004155,0.06263424,-0.020154852,-0.045267817,0.100435555,-0.06822567,-0.010312656,-0.04761404,0.086968474,-0.0419062,0.021919487,0.036733877,-0.09138375,-0.083628684,-0.00060982484,-0.03291041,0.023164151,0.0005140245,-0.0038743387,0.009590899,0.03857905,0.038168445,0.03708039,0.010296183,0.021970637,-0.05052646,0.036135577,-0.08406515,0.014077586,0.040973537,-0.02924001,0.019438654,0.030382896,-0.058831472,0.10438185,0.027096644,0.010073464,-0.006981907,-0.027667625,-0.070053905,0.025523756,0.011941974,-0.0009423837,-0.025118055,-0.028146032,-0.056705236,0.0009598044,-0.057637915,-0.031173399,-0.12577516,-0.036310554,0.022226756,0.054006968,0.00012326411,-0.04107864,0.034446668,0.014544419,0.043357983,-0.035012517,-0.013825062,0.018134188,-0.033087093,-0.0055385795,-0.011697673,-0.05038781,-0.021941569,-0.032866996,0.049031943,0.0076147253,-0.054235525,0.01711714,0.01734661,0.014424026,0.056211155,-0.008948073,-0.030438822,0.08317812,-0.026547251,0.06698593,0.0056389067,-0.094577745,-0.03769272,-0.04488457,-0.010794921,-0.0748869,-0.022317246,-0.042141095,-0.004730835,-0.012253602,-0.05597742,0.027338844,0.01697809,0.03718537,-0.055501252,-0.017142436,0.008838187,-0.0030051144,-0.05848807,-0.02810022,-0.103370294,-0.009050143,0.052417822,-0.039837904,0.050577547,0.043869395,-0.014505134,0.005510468,0.020880293,0.038107123,0.025729105,0.009816836,-0.1430303,-0.037210677,0.028682912,-0.028010298,-0.04752543,-0.10682489,-0.035696957,0.023055756,-0.085069254,-0.078127354,0.0053372867,0.02013942,-0.08676085,-0.016939247,-0.030107444,-0.003662736,0.023883967,0.010130136,0.033494517,-0.00288662,-0.012316262,0.023174899,-0.04544241,-0.05172658,0.020652566,-0.07757342,-0.006457357,-0.06743708,-0.09597581,-0.03028716,-0.092098095,0.021682661,0.03412396,0.023678038,-0.07331868,-0.042582393,0.08608196,0.00595854,-0.08045166,0.07558286,-0.00024712458,0.040901773,0.032325216,-0.022023587,0.015632434,-0.14364523,-0.0503307,-0.010454105,0.05796989,-0.041400667,0.0094742635,0.062144857,0.007456079,0.0136678405,0.026697218,-0.029546166,-0.05387074,-0.047146615,-0.069388434,0.027488843,-0.03616276,-0.08351396,0.03362929,0.009652308,-0.032547247,-0.07315718,-0.010579356,0.07483239,-0.07918725,-0.0684175,-0.019526383,0.079543635,0.05148889,0.06141316,-0.0038659496,0.00040200978,0.087755114,-0.07145494,-0.048423916,0.0080329,0.059966322,0.031892285,0.014419033,0.040806297,0.008227369,0.08623486,-0.00754926,-0.02538425,-0.0036387707,-0.0028297952,-0.0044610314,-0.004548804,-0.034346934,0.07431298,-0.018090544,-0.03838741,0.10839561,-0.03358792,-0.0013811721,-0.0010693059,-0.055360675,0.034815677,0.0366502,-0.02023041,-0.08811215,-0.05432883,-0.018820005,-0.008649015,0.039681606,-0.011526133,0.09543971,-0.059943482,-0.006316074,0.054320656,0.028259194,0.094158135,0.039282084,0.021558432,-0.0064689373,-0.05458541,-0.046244074,-0.081550464,-0.017234946,0.03541068,0.050667454,0.08798044,0.021899575,-0.038578734,0.021417929,0.020731337,-0.01728968,0.048359748,0.027847623,-0.0026888903,-0.023151523,-0.02878149,-0.0072336136,0.021032026,0.037578423,-0.08340811,0.030543594,0.033381224,0.035730027,0.011348833,-0.015770834,0.03007743,0.028055184,-0.045928553,-0.10560929,-0.018630425,-0.032892115,-0.026782354,0.036839657,0.039330043,-0.008451202,0.06304256,0.04099134,0.042847097,-0.0012990934,-0.0829183,-0.066073544,-0.06204405,-0.0011842544,0.06768879,0.07596771,-0.07319428,-0.051669244,-0.060701866,-0.006016947,0.012843206,-0.14490937,0.018253677,-0.12232273,0.035268,0.01015172,0.027057027,-0.021044217,-0.09978755,-0.025825782,-0.005603961,0.018976681,0.070379324,-0.045172155,0.061060738,0.033630643,-0.056229595,-0.018627819,-0.04649327,0.04828277,-0.10807616,-0.09028803,-0.028766533,-0.009325673,-0.0021851587,0.037329085,0.05459307,0.040851284,-0.07943616,-0.041203428,-0.027363589,0.020962091,0.047376845,3.6337908e-05,0.079100996,0.06615646,0.018049426,0.025149131,0.046861302,0.06862208,0.0014133323,0.046915613,-0.004019829,-0.0029444543,-0.050958358,0.058518376,-0.16080798,-0.07446981,0.04149968,-0.0060643433,0.032462947,-0.062259667,-0.020127129,-0.081247985,-0.023971364,0.05126287,0.07264004,-0.049514275,0.007351357,0.072936594,-0.14492835,0.08663541,-0.010875491,-0.060411748,0.06720875,-0.018145194,-0.10046247,0.011610985,-0.0348989,0.023751596,0.01141674,0.0065768817,-0.068677165,0.05398384,0.029064016,0.09131012,-0.12811334,0.054791458,-0.013501399,-0.09175556,0.023516567,0.006346597,-0.013345062,0.059097458,-0.0012921654,0.10433219,0.039921418,-0.04670943,-0.018314566,0.049482185,-0.10256818,-0.061686784,0.029246561,-0.08463825,-0.0522653,-0.017465888,-0.025735851,-0.018149434,-0.0011151837,-0.06648781,-0.054229148,-0.020612141,-0.02660852,-0.0073102834,0.0020568836,-0.07259706,0.01954702,0.036772035,0.016761696,0.04740777,0.10253807,-0.03631204,-0.02112509,-0.104569145,0.09730907,-0.1419018,-0.04948087,0.08476102,0.0048875343,-0.07871359,0.012944645,-0.031052168,0.033932034,-0.010136713,0.03311283,-0.009386037,0.023983186,0.012388317,-0.040465966,0.024995208,-0.039776996,5.9576363e-05,-0.032560486,-0.027142363,-0.07135048,-0.094124556,-0.09651098,-0.06750621,0.0041811313,0.052375272,0.012928138,-0.017318103,-0.028163852,-0.043056015,-0.0675214,0.03788275,-0.01008119,0.008652386,0.046121016,-0.0013302908,-0.0055287704,0.013177445,-0.036589224,-0.019284094,-0.05054238,-0.0025734142,-0.07910251,-0.0023275851,0.049030934,0.0726009,-0.031970713,-0.005288547,-0.0025955215,0.064580955,-0.10934449,0.07369931,-0.0025807861,0.0870234,-0.07275858,-0.038174536,0.00051177153,0.11412679,0.040916488,-0.025388045,-0.15292722,-0.04441645,0.007818162,0.063542925,-0.03631874,0.006112858,-0.07474315,-0.01666126,0.06507051,-0.00044437044,-0.02300852,-0.0004181147,-0.0072584804,-0.027230898,0.002746592,-0.03348081,0.027922226,0.1214696,-0.014712786,-0.042821642,0.025361752,0.07069415,0.045079745,-0.12048053,0.0016777774,0.07619281,0.07361539,-0.08684219,-0.09544069,-0.046380077,0.015888402,0.06402799,0.11059503,0.08224805,-0.057246268,0.015027753,-0.022175666,0.008353851,-0.010478839,-0.0314815,0.05004485,-0.03937091,-0.005782732,0.046535578,0.012709521,-0.12512022,-0.034478154,-0.0693544,0.032106493,0.014608822,-0.0023307432,0.02085136,-0.028820407,-0.04301714,0.077451475,0.086154975,-0.0563379,0.051722474,-0.08987035,0.018599538,0.055805024,0.040712085,-0.09924456,-0.03290187,0.027946249,0.0412295,0.025650427,-0.032728903,-0.040594924,0.02802675,0.017267609,-0.045116585,0.0077212704,0.012103979,-0.036262147,0.0075867856,-0.0053534335,-0.022793619,0.03481841,-0.101210594,-0.013036217,-0.0672921,-0.08445422,0.059830006,0.047585443,-0.07766933,-0.08413293,-0.04190845,-0.032572612,0.026587678,-0.083170235,-0.0046529486,-0.106380895,-0.04512258,0.08338282,-0.02598949,0.025365103,0.038231194,0.11818864,0.045047417,0.06868586,0.0062030675,-0.02935232,0.03181414,-0.018957142,0.0076514496,0.015406738,0.041359995,0.032315575,0.09976121,0.10395774,0.011763351,0.010836542,-0.03970435,-0.060722023,-0.00078948954,-0.0032183705,-0.004609992,0.030134706,0.06401807,0.0627215,0.000106419524,0.009241465,0.00705742,-0.13397238,0.020974413
,0.06156729,-0.07982084,0.10359764,-0.0015289761,-0.00064147206,-0.01755422,-0.03490482,0.02731019,0.086311825,-0.116143264,0.0660775,0.06741753,-0.059401486,0.121098764,0.040010776,-0.09698052,0.020338578,-0.07959687,0.046810325,-0.07200469,0.009097615,0.0042316727,0.10761556,-0.019854257,-0.027929202,0.0061232178,0.036974452,-0.009053888,0.0064888503,-0.039261926,-0.07275973,0.057598315,-0.059446324,-0.051812578,0.022822674,-0.06192324,0.017862348,0.038840134,-0.07623245,-0.013877452,0.11298888,0.020365927,0.044899087,0.06656901,-0.048530165,-0.066428296,-0.06736371,0.021185283,0.004883712,-0.050472915,-0.0115727205,0.070340656,-0.052002776,-0.032874975,-0.09469276,0.012156926,0.05750156,0.0039119744,-0.056624677,0.008305818,-0.06535729,0.0009923786,0.017748216,0.047007732,0.015874917,0.011235943,0.016727164,-0.00051426457,0.0057022427,-0.067817114,-0.022176463,0.029405782,0.042137217,0.08327573,0.09504426,0.05750848,-0.0813247,-0.056035586,-0.0833771,0.03216019,-0.040259782,-0.010666909,-0.019372474,0.027722215,0.07662744,0.06360294,0.007670737,-0.052023385,0.007147274,-0.028352423,-0.09806794,-0.002818261,-0.0207659,0.08484014,0.014829628,-0.00029957466,0.06489797,0.06955078,0.091901325,0.08537271,0.006447867,-0.0126846945,0.042614948,0.004084189,0.0019014333,0.07903661,-0.033224054,0.059993,-0.064395994,-0.09893873,0.06423062,0.0052672666,0.024844162,0.023023363,-0.0032638523,0.049816456,0.08958105,0.028537527,-0.0054474603,0.04102257,-0.020065116,-0.0076327375,0.06370483,0.06309862,0.101886354,0.014794713,-0.025255768,0.061050296,0.009617671,-0.020912658,0.07417757,-0.108597614,0.016048698,-0.008577662,0.05118611,-0.07553656,0.02609703,-0.06242052,0.036162432,0.09915353,-0.027119914,0.010705396,0.010518047,0.03983509,-0.006360022,-0.0035954975,0.044651188,0.06405161,0.12374009,-0.042328846,0.107635744,0.06689339,-0.09853234,0.09519281,0.045853283,-0.040310204,0.051304083,0.08789516,0.033876527,0.035042834,0.0022774665,-0.05020267,-0.04304905,-0.115407266,-0.049403634,0.0040073507,-0.017427327,-0.023516303,0.044298396,-0.019167332,0.001967138,-0.02170798,-0.021139443,0.028550642,0.011687967,0.038708963,0.06376318,0.032639496,0.0676983,-0.062139023,-0.0056645437,1.8869374e-05,-0.010649323,-0.055516955,0.024737094,-0.020514775,0.085037634,0.11525939,0.01778983,0.041690566,-0.0067098415,-0.13770345,-0.035204083,0.011909602,0.06264096,-0.02259768,0.05110817,-0.0555845,0.047567993,-0.0001628724,-0.0980432,0.006863808,0.05587204,0.051078457,0.0084818965,-0.055073336,-0.052148804,-0.025049241,-0.072068244,-0.044425417,0.04538274,0.031933326,-0.01717351,0.01827528,-0.12197275,0.019446217,0.0005462262,0.06295793,-0.07757501,-0.08677076,-0.006374832,-0.03343386,0.07825388,-0.056856643,0.016649172,-0.021019896,-0.0007915982,0.039868984,0.036476996,0.02528579,-0.020893263,0.008502352,0.06500034,-0.08804851,0.007280025,-0.026068173,-0.037566334,-0.08874539,-0.06066393,-0.005821178,0.0611207,0.03949747,-0.0011614605,-0.14236484,-0.004852746,-0.03837107,0.04410952,-0.015567813,-0.05905773,0.040867943,-0.0071117515,0.11430662,-0.07889366,-0.014812168,-0.07565243,0.007148005,0.012626973,0.015351604,0.026274214,0.10107064,-0.03269976,-0.026551925,-0.021580514,-0.021925794,0.10933723,-0.04821696,-0.03761442,-0.06563803,-0.079857446,-0.028716449,-0.023833754,0.010703821,0.021071823,0.04732817,-0.08599549,-0.05498611,0.020322645,0.11219248,0.023624206,0.08267634,0.0733487,0.041727513,0.0631282,-0.02535048,-0.029408373,-0.02864836,-0.022439947,0.021079335,0.13881773,0.046219792,-0.054551184,-0.09637231,0.038396463,0.03682006,-0.03201861,-0.067134075,0.031465415,0.0053932094,-0.016711608,-0.03252803,0.018646918,-0.0217788,-0.0070815394,-0.12483993,0.06323206,0.070773974,0.05516282,-0.05673901,0.027868466,0.034998152,-0.03068171,0.00451545,0.089557245,0.0136828795,0.035332095,-0.035656597,-0.053445436,-0.049949836,0.0077716485,-0.004080154,-0.017648876,-0.10509353,-0.11671488,-0.10095209,-0.0036452846,0.107125565,0.07350109,0.022365944,0.06047026,-0.015577805,-0.009920731,-0.04411116,-0.062215738,-0.04711805,-0.10424507,-0.011376171,0.037799735,-0.04675696,0.09472992,0.015690623,-0.037013438,0.06807286,-0.0030520428,-0.036305144,-0.04655337,0.046317898,0.012673405,-0.03519339,0.06546693,0.06060689,-0.04869617,-0.090452746,-0.045622878,0.06426934,0.06471578,0.053863257,0.028063226,0.14270613,0.089996755,0.0144362105,0.0038878117,0.008572727,-0.022320833,-0.018370181,0.0046426454,0.0031496817,-0.011724106,-0.08165258,0.09334919,0.0026999724,-0.040976424,0.1271786,0.050969046,0.025853662,0.036883444,-0.009962964,0.020924408,-0.08200748,-0.053877328,0.08354152,0.015100639,-0.011561292,0.087099925,0.029370198,0.017746225,0.069998845,0.09072453,0.07203603,0.03000109,-0.009397445,-0.04021419,-0.0753788,-0.05097156,0.072853535,0.06295377,0.040363595,-0.026738215,-0.16485144,0.0059700045,0.06869386,-0.03028069,-0.07778985,-0.06944349,0.014057879,0.12616363,0.043082524,0.015658494,-0.05867516,-0.007038626,0.010572608,0.106368005,0.07534386,-0.023337755,0.1014933,0.06847163,0.03223647,0.000676056,-0.023944141,0.13684613,0.040552374,0.07969434,0.067567624,-0.0445655,-0.046919834,0.012060582,-0.012936592,0.14133905,-0.03252345,-0.03192579,-0.061591014,-0.02317172,0.079398066,-0.032417208,-0.0702509,0.08565074,-0.095954925,-0.041980617,0.04476597,0.042172957,0.104760684,0.05132957,0.10218385,0.051750835,0.018123066,-0.049451664,0.06232964,-0.026365362,-0.055231337,0.04870417,0.0028823037,-0.066061795,0.029912062,-0.010407646,0.08945959,-0.02074911,-0.12481276,-0.109146066,-0.08065862,-0.113606445,-0.094315216,-0.09557543,-0.117957376,-0.11886989,-0.037139934,0.052329212,-0.009945097,0.13871692,0.10118262,0.00553846,0.07392334,-0.030712498,-0.10874135,0.003516842,0.03437261,-0.047782313,0.0059891697,0.061395984,-0.065200716,-0.033049047,-0.10539842,-0.014985604,-0.030515492,-0.07896933,-0.07226075,-0.10519375,-0.09381896,0.010974893,-0.05299659,-0.08577655,-0.10647209,-0.0070705283,-0.0014390883,-0.008420635,-0.012790264,0.051694814,0.13818057,0.051906943,0.013207523,-0.042883743,-0.01674452,0.0032629317,-0.12803045,0.017089523,0.07572288,-0.016337879,-0.036921795,-0.062298223,0.101895906,0.042846363,0.0033080345,0.072874025,-0.028510349,0.014378371,-0.030230055,-0.041481897,-0.13182458,-0.15635972,-0.16012667,-0.010944498,0.0042549176,0.07526024,0.12610418,0.048222117,0.013003436,-0.020125119,-0.029477788,0.07196863,-0.012680114,-0.05542249,-0.0241814,0.03784789,-0.026408318,-0.015291283,-0.016279452,0.0915587,0.0035885088,0.029433575,-0.036576573,0.051756922,-0.09008183,0.022279123,-0.06209158,0.0077210465,0.03472359,0.062755734,-0.085000716,0.0015771233,0.08777432,0.11206772,0.07662788,0.13079037,0.029023673,0.012018121,0.06967317,0.06621069,-0.115872264,0.070994444,0.05999812,0.0062473495,-0.0076493984,-0.039179154,0.045616288,0.0688433,0.096214466,0.0072555305,0.06689424,0.006251719,-0.0076115066,-0.003623014,0.043373022,0.048110507,-0.02044976,0.019596176,0.026424825,0.099043295,0.15420392,0.14398597,0.017660243,0.09835392,-0.04358537,0.024394698,-0.029407656,0.043931883,-0.023777572,0.015423766,-0.02232238,0.034184832,-0.01341363,-0.06610494,0.018967586,0.08683805,-0.01782798,-0.03166995,-0.024513394,0.04898862,0.100704856,0.11599408,0.04545908,-0.0022822465,0.026453823,0.047013108,-0.021181403,0.08822329,6.810597e-05,-0.03545373,-0.0003441421,0.04014188,0.066742934,-0.0003277305,-0.05677398,-0.003565483,0.026410561,0.072538614,0.061115015,-0.029614937,-0.023104899,0.03692711,-0.0024039233,0.06685283,-0.013335567,-0.07450957,0.068629615,-0.07279833,-0.020787144,0.042341165,0.05195854,-0.0664487,0.040422168,0.026193922,0.060504444,0.0063379267,0.008270681,0.06799517,0.021112703,0.008992828,0.03447971,-0.004944149,0.03632638,-0.037842747,0.036754053,0.048442435,-0.010908079,-0.07239419,-0.011354442,-0.04744003,-0.0104447985,-0.051973116,-0.043008227,-0.021119153,-0.036520306,-0.05810611,0.029703753,-0.026340147,0.01683008,0.02015578,0.10540105,-0.026857201,-0.06520745,0.047837917,0.16387302,0.026549028,-0.033476412,0.050010674,-0.033351723,-0.03417994,-0.08872069,0.056320954,0.05241246,-0.0649531,0.014777345,-0.054638788,0.016379558,-0.008385295,-0.05885877,0.0574532,-0.0071765585,-0.06265796,0.012674801,0.0018807512,0.09599374,-0.02522418,0.0039071315,0.062133893,-0.04938838,0.026357705,-0.0008039108,0.04593013,0.049118284,0.079375945,-0.021755122,0.063849136,-0.02302147,0.07132062,-0.023293005,-0.0022816015,-0.020739412,-0.0062202816,-0.048202578,-0.05843445,-0.0331724,0.009186448,0.013417523,0.06663858,-0.09598813,0.028352866,0.06608224,0.035573184,0.051177617,0.027038956,0.00014848162,0.02696732,0.013834533,0.04271311,0.068991214,-0.087439805,-0.015521361,-0.081978016,0.010385993,0.03991821,0.015262593,0.022304492,-0.018241756,-0.020069158,0.057253618,0.03211346,0.026592499,0.02844022,-0.0071500083,-0.008612314,-0.004180194,0.022138532,0.015026283,0.023664469,0.023505747,-0.027603442,0.031286024,-0.07816426,-0.028562905,0.03392552,-0.02384329,-0.010742704,0.065245725,-0.094725534,0.07247668,0.048166916,-0.03221489,-0.020685041,0.011866392,-0.013068504,0.06496444,0.012996876,-0.00739082,-0.027593931,0.10272929,0.0021522492,-0.10325418,-0.025236001,-0.0133293085,0.028972972,0.089580946,0.06373858,0.029814005,-0.022126343,-0.074679665,-0.009036638,0.011134532,0.060617097,0.015235025,0.026548931,0.007977643,-0.005200187,-0.010146754,-0.050934006,-0.011374983,0.033759248,0.008466707,-0.018573277,0.017978583,0.029472636,-0.013466362,0.0074873795,-0.07297983,0.050887004,0.053971194
,-0.07542716,-0.111143164,-0.046876457,-0.03247129,-0.0035964376,0.006820841,-0.012734151,-0.016049843,-0.09087913,-0.0027356676,-0.04496932,-0.00929607,-0.047946833,0.015458682,-0.09576536,-0.05074499,0.07685265,0.0062096287,-0.18342263,-0.06864875,0.027521925,0.0029512167,-0.0015417478,0.032915574,0.0033106068,-0.043711487,0.06392174,0.04036072,-0.057223108,0.044675827,-0.018856844,0.058727354,-0.022537263,-0.10205693,-0.20583436,-0.02506692,-0.016934374,-0.0028998856,-0.046830498,-0.0019434581,0.011943242,0.003219102,0.01046204,0.05081689,0.019649561,-0.07267718,0.020996613,-0.020795593,-0.019433454,-0.03643039,-0.03645516,0.0008356039,-0.020781778,-0.03038493,0.016654205,-0.03117058,-0.010204438,-0.043277707,-0.032804877,0.06639074,0.038497057,0.033586495,-0.011290386,-0.05367404,-0.074697085,0.062409967,-0.06065087,-0.06361246,-0.024761492,-0.08031194,0.02452656,0.0251439,-0.01723342,-0.013593501,0.03887219,-0.0476968,-0.038541973,-0.05363369,0.039932895,-0.06418802,0.0037382655,0.025832085,-0.11501272,0.07266496,-0.045410085,0.05823247,0.005226333,0.093851835,-0.017542116,0.033287298,0.08018074,0.077788204,0.010103641,-0.014627046,-0.03995614,-0.09339022,-0.1049519,-0.033322558,-0.0053572766,-0.036593597,0.04681061,-0.057372894,-0.013625516,0.026951797,-0.005129952,0.0365307,0.03083086,-0.09294121,0.04751572,0.0004240533,-0.013679936,0.05016544,-0.04278635,0.03986754,-0.04915968,-0.078834854,0.011747684,-0.02498354,-0.002006186,0.052263435,0.072777145,-0.002429513,0.010918889,-0.022956608,-0.0049102507,-0.04356446,0.033785615,0.029216394,0.018947857,0.14175501,0.12688437,-0.018936265,0.07923235,0.016968364,0.013198926,0.025416374,0.083809815,0.0076222736,0.0016366303,-0.06585139,0.052251387,0.0048057297,0.04143728,-0.015476167,-0.024615722,-0.042891014,0.048345845,0.030243138,-0.016484134,0.0103497235,0.09057401,0.091451466,0.12600048,0.08644094,0.0058042346,0.06090709,0.016818441,0.0881607,0.035290282,0.004883841,0.0006952275,-0.0028571782,0.01088097,-0.028852604,0.11239211,-0.03099292,-0.02536837,0.058316316,-0.014093798,-0.01907927,0.055930056,-0.084327,-0.021701273,0.030111754,0.010767281,0.123683624,0.027874006,0.024939766,0.10246485,0.022561368,0.033247862,0.10885697,0.18344305,0.09538235,0.09716587,0.072451584,0.01899185,-0.0020203767,-0.037886597,-0.012462241,-0.041780286,0.05058192,0.05645991,0.06572575,0.04415967,0.036815297,-0.011018965,-0.047922336,-0.058961134,-0.021336306,-0.040185504,0.010865906,0.06423174,0.017572597,0.07314991,0.09691331,0.0929142,0.0974251,0.070303135,0.13912764,0.14857002,0.23096827,0.12979858,0.023538698,0.11165828,0.039401777,0.079689406,0.0064776028,0.06496608,-0.0048660706,0.0069590197,-0.04404737,0.0907794,-0.0036631143,0.0063923895,0.011317,0.03220084,0.033464637,-0.02552813,-0.013559175,-0.053614184,-0.050022557,-0.016517254,0.013366231,0.07857039,-0.0025885098,0.013224437,0.10632262,0.069666706,0.031863663,0.03142789,-0.039590366,0.08637392,0.13352339,0.027167922,0.0061766985,0.0072612185,0.047663208,-0.001353728,0.08089917,0.0498549,-0.06258294,-0.0063266694,0.082430564,-0.06738681,-0.052050985,-0.08714612,0.04096703,-0.034715943,-0.05579343,0.082461745,0.018421141,0.008258156,-0.038517904,0.04285351,0.0032805307,-0.016987663,-0.029550156,-0.031105962,-0.03528249,-0.047752023,-0.046870157,-0.076208286,0.041285247,0.02911009,0.018324384,0.055363193,-0.035913423,-0.04365182,-0.0029196776,-0.008864647,0.03128203,0.017444575,0.039777055,0.0017230426,-0.026736973,-0.012062358,0.091887936,0.08185811,-0.0180357,0.11169284,0.066301145,-0.02036869,-0.03276371,-0.108225495,-0.043126103,-0.06690697,-0.14718576,-0.031019727,-0.020469934,-0.020712582,-0.0057372726,0.036765486,0.062341068,-0.0006456435,0.0128807975,-0.031671114,0.07240431,0.100748606,0.0065372875,0.044878185,-0.021184186,0.04887887,-0.08070439,0.05865509,-0.13586384,-0.065138385,-0.08682973,-0.012861107,0.047102742,-0.055819105,-0.004234491,-0.050177038,-0.10332446,-0.10832688,-0.08903383,0.036263783,-0.034131106,-0.090069056,-0.03621114,-0.019552665,-0.05192743,0.033634722,-0.02910928,0.023310095,0.010373151,-0.054356504,-0.07610024,-0.065671794,-0.013700545,0.061250217,-0.059075546,0.05277737,-0.025269696,0.087313175,0.05422824,-0.043747958,0.14075477,-0.14981648,-0.03884191,-0.12299319,-0.13679871,-0.13792081,-0.018840898,0.057068676,-0.004905579,-0.021843158,-0.07913967,-0.031078845,-0.07776271,-0.05148004,-0.02861541,0.047019407,0.021084163,-0.040950887,0.09324079,-0.08150944,0.004742336,-0.034311797,-0.032565035,0.015081447,0.027459841,-0.013085712,0.024420068,-0.06997265,-0.073239386,-0.0916685,-0.13361825,0.03010969,0.0075570107,0.05666125,-0.017619083,-0.004142263,0.0065714084,0.07405082,0.049060144,-0.042109467,-0.032548875,-0.051935256,-0.009202534,-0.084500805,0.05605337,-0.005284996,0.01618227,-0.005972552,-0.009510626,-0.0010042662,-0.089644894,-0.022132901,-0.07239598,-0.02227825,-0.09442687,-0.10069926,-0.13385718,-0.025557049,-0.045928612,0.025513906,0.049187433,-0.08968724,-0.09737418,-0.033144016,-0.031265736,-0.056237526,0.005888441,-0.1210172,-0.0019806358,-0.045196682,0.10681641,-0.022119734,0.036866456,-0.031408325,0.032522924,0.009210096,-0.045861837,-0.03310395,-0.11594698,-0.03257676,0.021940788,0.08357562,0.022371775,-0.074157715,0.024933731,0.07281651,-0.0746023,0.08136428,-0.00078241614,-0.0356152,-0.11809413,-0.074344195,-0.010018151,0.010089638,0.056903195,-0.017369986,-0.02998157,-0.03534588,0.01867361,0.0016672394,0.03881672,-0.024615047,-0.015283561,0.032058887,-0.034570016,-0.05296928,-0.016411567,-0.059926614,-0.07983715,-0.038277738,-0.07148689,-0.19559851,-0.011794773,0.06639276,0.08293978,0.010286082,-0.10519275,-0.09850836,-0.11936226,-0.010548823,-0.008894488,0.06454383,0.08370271,-0.0041355696,0.0063412446,-0.0857152,0.0060793413,0.02861267,0.018249318,-0.087257594,-0.0008382333,-0.0049682534,-0.0062295957,-0.04936052,-0.017551566,-0.05053453,0.08724136,-0.081315376,-0.039794397,-0.055106774,-0.07323782,-0.0067722364,0.04490271,-0.014398029,-0.16285536,-0.02918453,-0.0040869974,-0.019777076,-0.030798491,0.00014148609,-0.099013396,-0.049972232,0.00645179,-0.01726659,-0.008169995,0.10128008,0.0045814137,-0.041556276,-0.05040728,0.021153126,0.065686256,-0.06251355,-0.117600806,0.04414785,-0.014082074,-0.0452448,0.052911595,-0.027389012,-0.07243121,-0.06646831,-0.120560214,-0.14761545,-0.11647293,-0.09099535,-0.035172645,0.0009289732,-0.026784593,0.06285043,0.06011194,-0.00491485,-0.10516234,0.022597548,-0.002804673,-0.10264569,-0.051627822,-0.048848107,0.02507463,-0.012843803,0.011605398,-0.03720564,0.019110406,0.023247847,0.017325157,0.018543683,-0.07066531,-0.051740147,-0.08010069,-0.031450327,-0.050780762,-0.10884433,-0.12978613,0.029321747,-0.023913438,-0.008629647,-0.03075888,0.050503798,-0.031910438,-0.05608136,0.042301793,0.0073211095,-0.00016193664,-0.055504996,0.040218987,-0.07627127,0.009196422,-0.050370175,0.110109486,-0.03654824,0.11647538,0.11938064,0.048506316,0.051730055,-0.010110455,0.020605408,-0.06739747,0.005588006,-0.016436828,-0.038378473,0.054569438,0.14513859,0.03345371,0.08240921,0.05123887,0.1341257,-0.0069973622,-0.022795564,-0.03456193,0.058096267,0.026957966,-0.034198347,0.015931971,0.00013028934,-0.0071140258,0.056993518,0.110032424,-0.0503406,0.14158306,-0.008786635,0.051736303,-0.008153623,0.09617661,0.0344364,0.050900433,0.15071973,0.105667956,0.23032904,0.14129311,0.1325161,0.082606874,0.08829943,0.07580075,0.086777106,0.057519346,0.012815052,0.029296497,0.0350949,0.028796798,0.07482687,0.022680208,-0.11916688,0.013520689,-0.004383421,0.08065498,0.0752849,0.1388661,-0.093648545,0.041789714,0.08976716,0.0461433,0.043857165,0.05791482,0.11442569,0.13180217,0.16427235,0.100050986,0.18810783,0.075189546,0.0691415,-0.014841093,0.025209853,0.0021539242,0.06322908,0.06494552,0.13176043,0.001316989,0.025965082,-0.0114311045,-0.013291936,0.051322706,0.01434695,-0.007493365,0.06304567,0.061009157,0.12338975,-0.03809661,0.00034830326,0.11392223,0.03109163,0.18849407,0.2026482,0.1581197,0.10350541,0.07476453,0.048929323,0.037259612,0.08964365,0.04538582,0.03075041,0.056070697,0.081699155,0.005015385,-0.0006927204,-0.040521268,-0.02723319,0.034963615,0.033863038,0.05985067,-0.0078206705,0.034460567,-0.043343388,0.021481289,-0.03384464,0.0146253705,0.07517699,0.113700666,0.07729949,0.05513959,0.13887449,0.06679967,0.074543335,0.022367202,-0.011443612,0.101722665,0.07552612,-0.0051898737,0.15137437,-0.01011882,0.06740153,-0.009755057,0.009892654,-0.009738976,-0.1168538,-0.011580843,0.01796882,0.10135131,-0.07960682,0.07353641,-0.045327187,0.036481194,-0.037399624,0.015335574,-0.079253696,0.107310474,-0.0815349,0.03720798,0.035936393,0.067419305,0.056906894,0.010174861,0.06186594,0.04708482,-0.018218886,0.014966686,0.14192618,-0.02834168,0.14257734,-0.046087734,0.0030072513,0.007909064,-0.031921986,-0.09379416,-0.047122672,0.012298925,0.053323023,0.009369124,-0.053339247,-0.031784773,0.044477127,-0.014020318,-0.057792757,0.02209541,0.053905647,0.0061056404,-0.010614556,0.12181037,-0.0039909035,-0.056475926,0.012118825,0.0003573594,0.098008856,0.022569917,-0.032397963,0.026388591,-0.022980042,-0.026681758,-0.064084046,-0.05380186,0.008083635,0.08292906,-0.05751002,0.004834854,-0.0953464,-0.03822414,0.0224038,0.057752952,-0.00037225918,-0.008219099,0.11316617,0.06280742,0.050098877,0.050880183,-0.0055939313,0.049142946,-0.058710594,0.013611515,-0.04130827,0.04547823,0.041549224,-0.018486947,0.030967856,-0.045952737,0.086764075,-0.042029254,0.037787404,-0.08042347,0.07058895,-0.16448262
,0.08291809,-0.022650018,0.059775077,0.0155952405,-0.070762865,-0.0064713047,-0.032816384,0.0017278566,0.018885748,-0.054932877,0.09578948,-0.020357674,0.05544898,-0.06943749,0.029787108,0.0057971487,-0.04100436,0.020364303,0.0057609254,0.053095546,0.0019649384,0.05289028,-0.037812848,0.004423127,0.007948985,0.034468923,0.049867995,0.0074255145,0.023982167,0.013991508,-0.032545686,0.04161501,-0.049414158,0.028136767,-0.09027788,0.05282154,-0.00705098,0.0035019193,0.03934192,0.02599098,-0.09610287,-0.015066078,-0.0068759155,-0.010209011,-0.0345741,0.026719566,-0.02163085,-0.032991633,0.021008888,0.0024421555,0.12890564,0.033236027,0.10198862,-0.007068705,-0.060087208,-0.003312994,-0.058702126,0.057997297,-0.015317442,0.07777239,-0.034111004,-0.057353526,0.050663773,-0.018107424,0.019075466,-0.04542966,-0.037435737,-0.075779475,0.0139670735,-0.051433977,-0.05702829,0.029784882,-0.0104942825,-0.050404944,0.012081771,-0.008960428,0.07406235,-0.008689358,0.018745622,-0.07753955,-0.026937978,0.011430029,-0.021120785,-0.059965093,0.11288707,0.003992401,-0.06308621,0.05462185,0.042327497,0.010383272,-0.046422873,0.012078987,-0.0038309514,0.06955903,-0.065462805,-0.091656946,0.0076699136,-0.020659551,-0.057491004,0.041378893,-0.030691504,-0.058999434,0.076731026,0.01271999,-0.0026012766,-0.037522815,-0.06263621,-0.052106474,0.01712036,0.059542604,-0.038839955,0.046110198,-0.01662731,-0.03120671,-0.09534132,-0.053619057,0.017441636,-0.08032013,0.09053101,0.001988739,-0.007996082,0.032489933,-0.027575057,0.0952431,-0.061901502,-0.06590464,-0.03336802,-0.07713729,0.025426503,0.056066107,0.05033166,-0.058768533,-0.012567208,-0.032326046,0.003170094,-0.009203136,0.035491664,0.04407986,0.041860692,0.027030397,0.03478039,-0.02807314,-0.0005532928,-0.004974725,0.010481769,-0.0014637491,-0.040217575,-0.0027412367,-0.026459131,0.054619193,-0.014832519,-0.008041434,0.033759203,-0.023678562,-0.14085104,0.12503852,-0.11175356,0.008047131,0.021790994,0.0072757117,0.034977444,-0.03493091,0.08917912,0.050796468,0.045061555,-0.061912514,0.015658272,-0.084132664,-0.012805197,0.04201762,0.048024096,0.065812014,-0.028048258,0.06318503,-0.018935967,0.07310562,-0.017856792,-0.016951796,-0.04688936,-0.00020052918,-0.07436913,0.047257006,-0.04143578,-0.08771281,-0.106509045,0.034506805,0.017076291,0.03954445,0.06696747,-0.0052537303,0.024889883,0.061549675,0.006678577,-0.07120422,-0.07674892,0.0053234217,-0.057615858,0.022431629,-0.011083026,0.055853475,-0.01175443,-0.036789443,-0.0176983,0.06696767,0.047388207,-0.022401886,0.031829268,0.034081962,0.007020636,0.03936005,-0.0057034125,0.020164954,0.03548427,0.0807658,0.064104505,0.068949424,0.034861997,0.0859362,0.054946944,0.056614287,-0.035432056,-0.10935118,-0.010786315,-0.0023864943,-0.06411582,-0.040862516,-0.008201225,0.018389063,0.004256194,-0.0016761915,-0.016937133,0.0074547282,0.07355529,-0.010771521,0.038734775,0.029758163,0.13383925,0.07827042,0.025891121,0.078871176,0.1338541,0.08853752,0.13810693,0.12644906,0.06055156,0.08739876,0.08142879,0.055157423,0.057508375,0.014049653,0.0704395,0.011554243,0.066110246,-0.10060621,0.017630043,-0.03839463,0.03479963,0.04001025,0.045242086,-0.061179653,0.0657829,-0.08194575,0.050580077,0.113123216,-0.024020093,0.056196302,0.07722502,0.08750539,0.03412459,0.041882873,-0.0067333477,0.05804513,0.109480746,0.049004227,0.033888742,0.086044095,0.028386768,-0.003971701,0.06363037,-0.013373063,0.008638206,0.08554323,-0.023255942,0.06482761,0.03772004,0.035682324,0.061916452,-0.049678743,0.08574675,0.12181669,-0.009376027,0.0558378,0.016063415,0.05340555,-0.0038874303,-0.03140292,0.017428806,0.007720375,0.03578756,0.039243616,0.03973744,-0.049889542,0.09661814,-0.01514395,0.0038281488,-0.004629552,-0.0086764265,0.036855653,0.059660777,0.018282674,0.07278894,-0.026459072,0.05701761,0.078136235,0.11074315,-0.06053348,0.0517449,0.0241905,0.099921666,-0.034298357,0.0242659,0.008541216,-0.06293885,-0.067521684,-0.053780824,-0.049801026,-0.0021459507,0.013322925,-0.03539736,-0.006168018,0.009040939,0.08333478,0.06790589,0.014194563,0.0054622707,-0.080171615,-0.005134089,0.021871936,0.017684769,0.01093822,0.04960708,0.034576513,-0.06385206,0.013657543,0.06837269,0.024390332,0.1652115,0.019544663,-0.1171972,-0.010133828,0.06120763,0.049887456,0.07481294,0.01189052,-0.02236516,0.10766407,0.098683454,-0.051482446,0.036825784,0.122590534,-0.06342503,-0.04587065,0.00995448,-0.029678063,0.031191481,0.05259422,0.09566095,0.11437323,0.011507683,0.10920571,-0.05037335,0.09777524,0.08506702,0.10331923,-0.05096862,-0.059809092,-0.10293408,-0.11406472,-0.006421842,-0.068131596,0.06342223,0.03348356,-0.123704225,0.027050206,0.0073519875,-0.0117154205,0.070863724,-0.052548934,-0.043816872,0.0030389305,0.06630463,-0.02297336,-0.082560375,0.045085967,0.06716356,-0.012109529,0.09094295,0.04551724,0.00933985,0.01066257,0.027553381,-0.009407421,0.08350375,-0.033779368,0.02307529,-0.023905406,-0.017390653,0.08639443,-0.0012807165,0.005099268,-0.10193799,-0.043049857,0.101776,0.013406988,-0.03987915,4.3474418e-05,-0.04763985,0.00746865,-0.039770193,9.449143e-06,-0.012935692,0.07624403,0.029646508,-0.022627626,0.0533915,-0.09830579,0.047410853,0.12295072,0.016097838,0.0044391486,0.061629035,-0.106658496,0.0125905555,-0.032420147,-0.10777514,0.040315647,-0.11106204,0.00908889,0.12451522,0.05743196,-0.0070550796,0.007280274,-0.011438271,0.009936985,-0.074835345,-0.035472907,-0.0075919153,0.062744066,0.037622865,-0.02161898,0.0607374,-0.068652,0.05485794,-0.022458008,0.04146091,0.07789076,0.14855456,0.040403407,0.09807523,0.032934565,0.013167,0.016040772,-0.060798176,-0.027876819,-0.12988426,0.0519123,-0.068074554,-0.020488804,-0.066617295,-0.03260225,0.06794069,-0.09004382,-0.026105586,-0.03372747,-0.08290312,-0.011229862,-0.003774901,0.0068730707,0.052096304,-0.0736945,0.07585492,0.041749716,-0.04150287,0.046015393,-0.010398396,0.09547684,0.12349934,0.07845586,0.10641415,0.0067703086,-0.015467175,-0.098675355,0.033932593,0.053074747,-0.05925911,-0.037436582,-0.003375585,-0.026828958,0.034234047,0.086988136,-0.03478978,-0.0027326264,0.055818677,0.00996304,0.04444006,-0.0031125303,-0.026340485,-0.09073213,0.0016755415,-0.04539088,-0.046981905,0.009307738,0.052481703,0.0588653,-0.03998536,0.18644214,0.041630678,0.004236769,-0.05182013,-0.034152716,-0.06149812,-0.03928617,0.0459769,-0.033500765,0.08890236,0.056037344,0.0015643876,-0.09564034,-0.043478858,0.012751194,-0.031467922,-0.02839239,-0.035788797,0.011789195,-0.041881815,0.08496601,0.0027262447,-0.053123523,-0.058422536,0.002651084,-0.043925814,0.021462342,-0.09651279,-0.047200356,0.030154845,-0.10133352,-0.026732353,-0.13904396,0.0055535585,0.00695378,-0.023183912,0.0343731,-0.029878996,0.028524432,0.004187449,-0.11471215,0.028241675,0.0040928856,0.00033424667,-0.07189065,0.0057166126,0.04890615,0.004074582,-0.05399514,-0.041483603,-0.0361754,0.031579796,-0.07669656,0.06649349,-0.0027297707,-0.00037687167,-0.068410456,0.063060574,-0.081708066,-0.019374263,-0.025331493,0.0071468577,-0.01867412,-0.05125576,-0.10723951,0.041098263,-0.019621853,-0.059226383,-0.018706895,-0.01385278,-0.0042025973,0.033340715,0.004746642,0.06296821,0.016168945,0.02881707,-0.075338006,-0.09173733,0.004490344,-0.052234396,-0.04582826,-0.06327053,0.02944843,-0.008012596,0.11526444,-0.0055021048,0.0065970863,-0.03981824,0.023185218,-0.03474199,0.035896197,0.03511888,0.12526722,0.016287595,-0.045306463,-0.04154242,-0.010242012,0.072963685,0.064696215,0.018551577,0.08460794,-0.0177413,-0.10128289,-0.07020653,0.004233416,-0.100606136,0.026239745,-0.039126046,0.027620165,-0.100231744,-0.0156806,0.011680341,0.065450296,0.043007888,-0.006512466,0.009471311,0.03169059,-0.0072830217,0.10535652,0.007221106,-0.020763565,-0.009713407,0.035325162,0.11057444,0.012960418,-0.009359392,-0.063530274,0.06355499,0.102738,-0.073784806,-0.020187171,0.028717369,-0.047538865,-0.031735487,0.116407655,0.04424701,-0.029513285,-0.0025209708,-0.14683633,0.0040543023,0.06005661,0.090584114,0.04710466,0.13258274,0.073428996,0.043235533,0.0595655,0.014735056,-0.016728574,0.031363696,-0.02142676,-0.014769033,-0.038127072,0.019490916,0.027035326,0.04735247,0.04803858,-0.009138869,0.032944374,-0.0010107211,0.051726613,0.025066737,0.101132765,-0.06460479,-0.02666413,-0.041929476,0.09959929,0.0037884435,0.083540685,0.063202105,0.05259144,-0.008269655,-0.004847906,0.03983338,-0.03261367,-0.042929318,0.005354691,-0.0076028565,-0.005856451,-0.02630574,0.008902308,0.024984086,0.13130438,0.034036443,0.05065442,0.08962866,0.0026565653,0.016391989,0.011627026,-0.035450313,-0.044477556,-0.011117292,-0.035700593,-0.007239439,-0.07983443,0.025425302,-0.025499435,-0.009579888,0.056927785,-0.037793837,-0.08561174,0.09753706,0.031063164,0.107622966,0.073038645,-0.014240107,-0.0061663655,0.047938745,-0.070363164,-0.052749258,-0.069340475,0.033778053,0.02347112,-0.063748576,0.06666686,-0.056447595,0.049244393,0.06047091,-0.031927526,0.025184771,0.045372754,-0.019271128,0.0003767527,0.002504715,-0.01492219,0.00019586657,0.030616568,0.09772025,0.106301606,0.044992194,0.12742674,0.074297115,-0.019683247,0.01709056,0.04673839,0.029981552,0.07925317,-0.058302667,0.024101866,-0.011724217,-0.0073802774,-0.100733094,-0.075981095,0.017801523,-0.071306534,0.0033924314,-0.005024024,0.04716155,0.015557528,-0.05815935,-0.04180879,-0.01415143,-0.051151376,-0.053118285,0.011259717,-0.0041124597,0.009660749,-0.006796837,0.044372287,0.08342764,-0.012838998,0.10577796,0.06158471,-0.056204446,-0.07009134,0.045954403,-0.024461104,-0.053565297,-0.04997904
,0.020420024,0.039054736,-0.10271907,-0.044697598,0.04416907,-0.10197124,-0.054538123,-0.048947997,-0.010578882,-0.16633059,0.04231273,-0.04476407,-0.0765694,0.040599085,-0.056937538,-0.038258344,0.039760996,-9.922086e-05,-0.05839567,0.046601966,-0.047406506,-0.059695907,0.04772015,-0.068010874,0.035020944,0.06413166,-0.008436876,0.08561326,0.01743099,-0.01683769,-0.026235621,-0.009267024,0.097221516,0.08799425,-0.009818365,-0.0059171906,0.017437633,-0.06941381,-0.037290834,-0.027744215,-0.044243395,-0.03353828,-0.004843383,0.104433484,-0.013857304,0.13736965,-0.01916606,0.03091533,-0.09414545,0.0072764778,-0.01797201,0.059812494,0.01746842,-0.009360497,0.028599096,-0.1124972,-0.015778555,0.026874043,-0.050957542,-0.021439672,-0.008626844,0.089663066,-0.03236742,-0.0055451025,0.013428056,0.02160966,0.026263596,0.06682215,0.011004139,-0.04739127,0.043129545,0.015212152,-0.03605294,0.025848716,0.006175961,0.01709014,0.02201918,-0.023431176,0.044182163,-0.00780667,0.056234274,0.10294595,0.03638523,0.05164507,0.021618301,-0.059436243,0.023710944,-0.061901793,-0.007185027,0.07159674,0.0024386619,-0.02844177,-0.03757856,0.016526299,0.049249444,-0.10572318,0.0012685916,0.0015202826,-0.017673807,-0.04793636,-0.018059375,0.023109257,-0.04514263,0.078884415,0.025992835,0.004411216,0.020414915,-0.037526987,-0.04262299,-0.02827902,-0.035873894,-0.056031954,-0.020236373,-0.0051187687,-0.020443715,0.019641912,0.06354782,0.03283477,-0.06638589,0.028394504,0.033230618,0.0747613,0.03127475,0.007992404,-0.06443133,-0.027820524,-0.091436125,-0.13189408,-0.04964722,0.07626795,0.043258216,0.052620023,0.03968437,-0.12832011,-0.07276412,0.02370926,-0.02394494,0.056583393,0.08722603,0.048673928,-0.015789617,0.0048516323,0.03678342,-0.03223231,0.022561153,-0.000285534,0.025381852,0.015959261,-0.031822767,-0.012183146,0.016469294,-0.061910205,-0.06677169,-0.111125946,-0.11100099,-0.09381773,0.025917033,-0.005174471,-0.0909978,0.021147845,0.035063304,-0.16469309,0.015004327,0.026291607,-0.059611753,0.012022835,0.025097031,0.012968606,0.06252735,0.03290272,-0.04412185,-0.013024358,-0.02919762,-0.031954188,-0.055556253,0.074823774,-0.027137673,0.046183523,-0.034762766,-0.031271,-0.01578496,0.043914653,0.039978985,-0.02369412,-0.025551133,0.049680345,0.050959796,-0.038354162,0.002351682,0.011110215,-0.057729695,-0.089495726,-0.06771235,-0.00447722,-0.0077911005,-0.0015336488,-0.0008290679,0.061497115,0.11022516,0.048176378,0.017798781,-0.007961572,-0.036078993,-0.06020642,-0.07268897,-0.045274604,-0.023077166,0.025724825,0.017051138,0.06399924,0.010563792,-0.016419243,0.094804145,0.05075527,0.019040668,0.037523687,-0.057365924,-0.058660667,-0.072519496,-0.06801381,0.0040431,0.042785138,0.094151706,-0.068542734,-0.025298346,0.070449695,0.013465566,-0.016808283,0.046136566,0.057254713,-0.03916574,-0.030412024,-0.044492494,-0.04343365,0.0325371,0.0863969,0.011864703,0.012055084,-0.0028580378,-0.06222477,0.049296927,0.1293723,0.046400677,0.006450838,0.06470437,0.036206577,-0.042061158,-0.041533276,-0.06924111,-0.0828457,-0.014634871,-0.05800932,0.031033015,0.052437652,0.04168873,0.043621346,-0.06426148,-0.0065171327,0.07104165,-0.020962719,0.11398621,0.05613526,0.08200903,0.045206327,-0.041244227,0.002784252,-0.009409901,-0.00091962516,0.010414356,-0.005052196,-0.066854656,0.031582676,-0.0064861733,0.09115878,0.027997736,-0.05454606,-0.016063053,-0.108947806,0.027044527,0.0075171865,0.08830986,-0.017109618,-0.07307665,0.0059167766,-0.095841005,0.0066350284,-0.03501073,-0.0013971386,0.029230993,-0.060513414,-0.09138868,-0.10762129,-0.1153853,-0.043902446,-0.07547861,-0.052107055,-0.010573922,0.06989756,-0.077502385,0.013250027,-0.015726006,-0.0034630175,0.09464991,0.015254022,0.027914915,0.0013763981,-0.03190378,-0.029376835,0.022175264,0.03205426,0.10681864,-0.059536226,0.058472797,-0.12390988,0.026167784,-0.037636608,-0.033679835,-0.1329338,-0.059909876,-0.07174551,-0.08283321,-0.08652305,0.066958964,0.043216,0.028638147,-0.008599475,0.056913164,0.046331964,-0.020164566,0.08455181,0.050030258,0.02825642,-0.06823193,-0.035133053,-0.011622792,0.035855196,0.021606911,0.010671372,0.06502968,-0.088676386,-0.08163382,-0.068992935,-0.0729847,-0.11107958,0.0031714307,-0.067695916,-0.01201213,-0.054812644,-0.066650584,-0.046121757,0.09143722,0.11450191,0.07980288,0.016864246,0.024117142,-0.011809723,0.014849584,0.05219004,0.08276724,-0.016350176,0.02307221,0.062277455,-0.013674807,0.03782549,0.06377788,-0.04410708,0.02094608,-0.08135384,0.029356306,0.029622393,-0.09355481,-0.0026428262,-0.062343203,-0.09023933,-0.023462024,0.027771426,0.06951077,0.03529661,0.08836883,0.081141435,0.08483096,0.08075428,0.109206006,0.032937657,-0.0473702,-0.041961104,-0.0102849975,-0.07600113,0.022261867,0.0977166,0.08527125,0.05330112,0.039221916,0.025727801,-0.0014418936,0.0043357247,0.057829473,-0.054808542,0.0018436647,-0.004840794,0.11005296,0.06629331,-0.001967676,0.026349807,0.09298525,0.0417423,0.101774156,0.04853112,-0.007398398,0.086029954,0.08118196,0.03089682,0.0030622128,0.07167413,-0.06348112,0.034882106,0.04263378,-0.08850621,-0.013882186,-0.043236166,-0.09457581,-0.07624649,0.058423355,0.056727,-0.07141907,0.0785857,0.0032054102,-0.0471622,0.033968817,0.06844289,0.10852744,0.22121777,0.13927811,0.085104026,0.12390009,0.09315266,0.014596569,0.023577088,0.0395799,0.073460005,0.06962967,0.03437373,0.019337848,0.06890616,0.025782147,-0.06752147,0.024784178,-0.023743639,-0.011952606,-0.060992986,0.027952597,-0.002796526,0.008370394,0.08573987,0.051585432,0.0034445734,-0.0023458034,0.017381985,0.039274935,0.08035121,0.05663035,0.09193554,0.09034126,0.037607607,0.11367442,0.031153133,0.08042341,-0.0043431693,-0.063649714,-0.024131702,0.014757959,-0.018487955,-0.015153889,-0.04946485,0.014937423,0.08988538,-0.037372466,-0.04459646,-0.05649061,0.032688685,0.06645497,0.014815363,0.09604049,0.008042049,0.06673918,-0.09889671,-0.11214247,-0.04441125,0.03281745,-0.012730646,0.060376775,0.09154799,0.0949594,0.0034113117,-0.12050062,-0.030895222,-0.08128427,-0.033865973,-0.004489627,0.043174323,0.055050433,-0.009109245,0.005184582,0.034754116,-0.06567097,-0.009509046,0.0021619645,0.055727895,-0.053837854,0.024086593,-0.08383772,-0.025127696,-0.18009841,-0.066113204,-0.03561946,-0.199987,-0.2009032,-0.08942897,-0.061694793,-0.078960985,-0.047460932,0.051301762,-0.06984484,-0.020919459,0.0081772925,-0.021832645,-0.04011488,-0.010190252,-0.00018744971,0.090480864,0.07408811,-0.060629323,0.06340662,0.07852081,-0.00789159,-0.09530457,0.0023122015,-0.06857146,-0.07732768,0.03905981,-0.10295195,-0.029940497,-0.10236715,-0.040002808,-0.032323584,-0.034006838,-0.08510633,-0.028944453,-0.052174047,-0.07711966,-0.0807246,-0.03233561,0.044920046,0.025989752,0.0059492732,0.034045435,0.05191841,0.06558378,0.10679582,0.025100041,-0.036611468,-0.070441335,0.0380755,0.04717845,0.08263564,0.007468015,0.023132944,0.0153233055,-0.043494835,-0.003618868,0.019950526,0.025111461,0.0092472145,-0.13201214,-0.034652494,-0.014913742,0.009696248,-0.022614783,-0.0319707,-0.07231785,-0.047280986,0.008182047,0.0017213462,0.01683818,0.00092223653,0.11047267,0.045521963,0.0048482027,0.015619882,-0.027182588,0.009203935,-0.035386965,-0.026774209,0.014833681,-0.048902128,0.037450317,-0.040583514,-0.11573597,0.032049492,0.030320257,-0.0017461042,-0.012141567,-0.029247371,-0.049201325,0.10591726,0.0396217,-0.057436842,-0.070999496,-0.089510806,0.08759198,-0.035481032,-0.07680655,0.004132539,0.00646207,0.020311745,-0.04891681,0.029613273,0.049894255,0.0030693004,0.003494063,0.033890527,0.088993855,0.09900721,0.008843669,0.016487211,-0.0056661265,0.10588616,-0.04983804,-0.1087031,0.0019148749,0.040128782,-0.10144328,0.04853842,-0.0014394128,-0.020543316,0.0125958985,0.12761447,-0.11314024,-0.027424164,-0.0057880115,-0.08824662,0.018938843,0.010464165,-0.09182565,0.04958363,-0.021940265,-0.022667978,0.024679516,0.008837252,0.08187222,0.049530502,0.13514332,0.07153298,0.016674343,-0.08206974,0.025929106,0.07571394,0.047750924,0.06892435,-0.10718392,0.022626951,0.018360432,0.002478824,0.0077915015,0.009744561,-0.031591408,-0.06818694,0.024435472,-0.07942012,0.09265371,0.0015869244,-0.048400316,-0.027823618,-0.020846989,0.020523738,-0.13312536,0.08393326,-0.019117596,0.10517493,0.068656676,0.048883326,0.07620919,0.049008824,0.031961855,-0.10932373,-0.074020974,-0.02512864,-0.053464524,-0.03987419,0.024485158,0.029016769,0.035195332,-0.053643372,-0.032434512,0.06961969,-0.019025585,0.05318039,-0.10390804,0.0036548546,-0.014912869,-0.0656102,-0.015057837,0.05319785,-0.03081373,0.0975241,-0.023368884,0.03301971,-0.005692376,0.0066839806,-0.01633397,0.019394405,-0.015192533,-0.0170767,-0.106332555,-0.028168784,-0.0007425872,-0.01964145,0.01133421,-0.03040255,-0.046292827,-0.011307042,-0.003428095,0.030123323,-0.012354003,0.023104526,0.050354507,0.008989888,-0.071407214,0.04109108,-0.040283587,0.042535905,0.034078687,-0.032752767,-0.01942079,0.027764652,-0.031448554,0.1041699,-0.00965771,0.08097427,-0.010235838,0.03790133,-0.04367222,0.08460634,0.046165325,0.07485796,-0.11742913,0.026706714,0.08913496,-0.017049007,0.06350432,0.094820395,0.07976676,0.044248108,0.01822333,-0.07883852,-0.0099416,-0.024966046,-0.040721368,-0.04354097,-0.026418349,-0.021608006,-0.06241071,-0.052409362,-0.10523309,0.008148903,0.028255358,0.035563786,0.027281119,-0.10164612,-0.07421662,0.051229015,0.011214156,0.09702431,0.0142514,-0.08866925,0.0010624647,-0.014355057,0.049608316,0.06753301,0.027689738,-0.023404192,0.022262532,0.00056517223,-0.0070530334
,0.015021056,0.015409629,-0.06508998,0.011276169,-0.023179445,-0.030577788,-0.059070013,-0.0039647985,0.049835682,-0.1254032,-0.049764022,-0.07376729,-0.09266764,0.014829574,0.06275976,-0.027090365,-0.029345222,-0.0028722668,-0.047831193,0.09351764,-0.0043810857,-0.0045180293,-0.022796055,0.082687326,0.010679173,-0.07027562,-0.008450359,-0.018041337,0.033285283,-0.0442322,-0.014822512,0.004740748,0.046247315,0.00065235887,-0.06085679,-0.0783412,0.07438988,0.017507978,-0.044529166,-0.03428167,-0.033457994,-0.0012471589,-0.10278486,-0.02567872,-0.019959787,0.044130825,-0.08415286,-0.028633434,0.025847198,0.030979872,0.04206061,0.0075744395,-0.044391457,-0.06534875,0.06922674,-0.052314125,-0.01563825,-0.04007838,-0.020078177,-0.051206376,-0.07026979,-0.09224581,0.01521168,0.011502516,-0.002777601,-0.010244446,0.001755545,-0.054122437,-0.030892488,0.020260928,-0.06967334,0.06137036,0.05517317,0.05457507,-0.022101322,-0.04212462,0.06381069,0.0019961984,-0.010940471,-0.0041082124,-0.0026644499,-0.018002395,-0.08315494,-0.09050193,0.021417335,0.014898335,-0.08560731,0.064180605,-0.0066092443,0.070132546,-0.022301486,0.005519899,0.08961381,-0.05083177,0.025931437,0.07831114,-0.016326116,0.04491992,-0.032581754,0.061830927,-0.008941819,0.03101077,-0.09652068,-0.07803491,0.016258758,0.050411426,-0.07705823,0.049121704,0.016370418,0.008219457,0.031122597,0.054417517,-0.015336949,-0.048769426,0.0693366,0.007869309,0.08079821,0.0023214896,-0.023273934,0.01374894,0.018862989,-0.08126232,0.103520274,-0.031852778,-0.054736797,0.10082607,-0.09228539,-0.02337661,0.008567431,-0.012223319,-0.018424826,0.015605912,0.0047464715,0.12602514,-0.020422898,0.0956547,-0.054898452,-0.10993655,0.098520756,0.04370686,0.0990766,-0.059894614,0.0010348754,-0.053479593,0.059433434,0.0297184,-0.021336352,-0.0073679597,0.013342121,0.0089512365,-0.039432082,0.045627005,-0.035558827,0.053417236,-0.100428045,0.029791616,0.0017310741,-0.07010441,-0.08138163,0.0040615844,0.10883163,0.043117,0.035101257,0.041340552,-0.019442264,-0.027881399,0.0752218,0.015034842,-0.03895745,0.06198174,0.039123736,-0.056866165,-0.027874699,-0.06679256,0.14151926,-0.0488155,-0.08508271,-0.006863348,0.05002181,-0.020597922,0.02733897,-0.019688271,-0.06784274,-0.027757814,-0.07440392,-0.015014889,0.016121017,-0.116004996,0.126737,0.13539928,0.08435234,0.06435996,0.03907933,-0.010035023,-0.086618364,0.068823695,0.1047726,0.108982295,0.044959776,-0.03289326,0.028512597,-0.0018344347,-0.04581539,0.06565759,-0.044505715,-0.021438718,0.09017912,0.12442935,-0.03343355,-0.024457272,-0.029230347,-0.08104879,-0.09516762,-0.17950818,-0.006910188,-0.11417906,-0.014348059,-0.022499474,0.006682308,-0.025744552,0.020867271,0.040491857,0.05393884,0.03815372,0.01596128,0.045273695,-0.017502096,0.009024913,-0.026292685,-0.06544311,-0.06287614,0.03499558,-0.030337065,-0.0008847269,-0.08601343,-0.07141822,0.14702635,0.033826713,-0.030295808,-0.099557735,-0.042595964,-0.09349488,0.071855485,-0.04179046,0.1476737,-0.022940442,0.07334591,-0.008294293,0.07610992,0.07240955,0.07641023,0.0040907506,0.06985941,0.018503673,0.07196362,0.04607503,-0.011756823,-0.015930217,-0.043428928,-0.03635125,-0.00020888439,0.04467044,-0.017453782,0.060075242,0.061120406,0.06377304,-0.028705161,-0.08463608,-0.033210505,0.0643976,0.040360153,0.08833957,0.018976884,0.043734957,0.05820038,0.048346005,-0.11223157,0.060864393,0.006200795,-0.058395404,-0.05003542,0.058226556,0.041372146,-0.0078107547,0.07625997,0.032903183,-0.023553316,0.009162981,-0.03142602,-0.072008654,0.026830059,-0.0051213703,-0.0011591428,-0.01668744,-0.13514435,-0.10059603,-0.063283905,-0.09197569,-0.03411184,-0.068534456,0.04360597,0.07876644,-0.037713546,0.08830402,0.00613646,-0.05604718,-0.02467912,-0.008717406,-0.02462399,-0.027780151,0.08448863,0.0057695704,-0.046741296,0.01715127,0.07039627,0.020579228,0.050390445,-0.022296345,-0.009793417,0.0117698815,-0.01143148,-0.14673486,-0.11871483,-0.10354956,-0.06337248,-0.0041976506,-0.02709412,0.044210397,-0.022506598,-0.006732418,0.03486245,0.04746312,0.016502298,0.07702143,0.05577466,-0.026684359,-0.073278494,-0.014133136,0.0615787,0.0658634,-0.009874339,-0.013045532,0.09771262,-0.03363029,0.0084275445,-0.12798238,-0.053892113,0.021192374,-0.020008408,-0.04772293,-0.078235224,0.014401909,-0.046725564,0.029938284,-0.031180011,0.0054066726,0.08423948,0.045183443,0.012246566,-0.06653503,-0.014939146,0.002764364,-0.09116628,0.045987494,-0.081155956,0.071479365,-0.15436101,-0.0196591,-0.047794458,-0.043682933,-0.051249236,0.08756304,0.0440418,-0.0030423815,-0.03472303,-0.08423117,0.012180565,0.025634011,0.05442438,-0.0671556,0.049955055,-0.035862934,0.034859307,0.029066427,0.045969445,-0.05236767,-0.039784614,-0.056030706,0.020526074,-0.010312395,-0.037098877,0.07640285,-0.04470537,-0.02317804,-0.043025922,-0.037595235,-0.0072695008,-0.0034747072,-0.033268683,0.008123273,0.11027196,0.05673691,0.108067,0.114094466,0.03329311,0.045403197,0.07672747,0.05520177,0.02297362,-0.007911351,-0.1088312,-0.0020111636,-0.0013058013,0.046626247,-0.046226688,-0.098919295,0.009314767,0.0728261,-0.05117721,-0.07920676,0.00054006255,-0.03896999,0.031792875,-0.006942778,-0.0069273897,-0.005494099,0.08668551,0.069013715,0.05763027,0.09926731,0.103991516,-0.018444145,0.0035917722,0.101902165,0.112593435,0.14380066,0.096311435,0.023792448,0.009353975,-0.047685057,-0.119252175,-0.053078312,0.054742426,-0.023653995,-0.04286657,0.013724708,0.025909886,-0.06574812,0.054795623,0.0006496787,0.033840306,0.10997712,0.025125176,0.0013807303,0.13264096,0.08201822,0.025253717,0.05501029,0.01371208,0.10617325,0.16469099,0.11053402,0.09007157,0.0008657658,0.075876586,-0.097653195,0.13914223,-0.0006390303,-0.02939197,0.006257772,0.030249262,0.022018889,-0.0927699,0.029062355,0.021412557,-0.0006043763,-0.04691895,-0.021710541,0.082850605,-0.028062567,0.0054779146,-0.07205329,9.816102e-05,0.026885765,0.05192338,0.004558605,0.12500836,0.11060713,0.11853305,0.11462874,-0.0040095053,-0.011091082,-0.0020119809,-0.044674337,-0.012783659,0.014086198,-0.08534824,-0.028556602,0.024717279,-0.015832387,0.025587266,-0.030121548,-0.047895998,-0.039587464,-0.017941296,-0.025533572,-0.00404887,-0.043250915,0.061227422,-0.06557981,0.013946133,-0.065969214,-0.008777637,-0.045883343,0.016824601,0.104801014,0.05179324,0.08958115,0.03977306,-0.012898225,0.08064581,0.068020694,0.007924981,0.031099483,0.04499816,0.02060846,0.047119133,-0.029719597,-0.08215729,-0.070933,0.057960834,0.0038162458,0.021100203,0.08821782,-0.021755362,-0.040479403,0.021574302,0.024198651,-0.0145869125,-0.09087432,-0.08028804,-0.034104407,-0.118086085,-0.025029493,-0.021796271,-0.056078322,0.05059486,0.12944087,0.01248429,-0.0014747357,0.04738281,-0.039778903,0.019934976,0.043449346,0.034298994,-0.009668051,-0.022723217,0.03062898,-0.0051538106,-0.021508712,-0.0280637,0.036205057,-0.032410137,0.004076288,-0.0034549006,-0.04103646,-0.057337224,-0.12208871,-0.06542701,-0.065660916,-0.08840054,-0.09708859,-0.14816885,-0.094777696,0.0040691984,0.031121634,-0.04774747,0.04801908,0.10349768,-0.0093896445,0.052214775,0.0016081282,0.015569739,0.047603957,-0.0068980437,-0.06748781,0.010359789,0.031023704,0.055062443,-0.053478997,0.0061062644,0.038511895,0.012132597,-0.015763959,-0.01021845,0.036581032,-0.08797411,-0.06406945,-0.09878258,-0.064417265,-0.07477972,-0.033045206,-0.098671585,0.02380612,0.033174485,-0.027783485,0.081145525,-0.002721581,-0.036379278,-0.07724978,0.12473736,0.047365006,0.0060376264,0.042272035,0.0009255381,-0.005504214,0.0037248342,0.01693875,-0.055795696,0.009888994,0.049760442,-0.008050776,0.0076523847,0.026566423,-0.07882762,-0.0070645967,-0.047830872,-0.03757577,-0.05237742,-0.00963515,0.045834437,-0.0030525548,-0.047326006,-0.024802133,-0.017741129,0.020288257,0.10159331,-0.035856556,0.045681596,0.038021322,0.07417749,0.011895559,-0.029696023,-0.022675132,-0.021241454,0.011850879,-0.02135529,0.011097611,0.07804546,0.07369329,0.014138874,-0.024281485,0.07243352,-0.07487991,-0.04210534,0.103015155,-0.015931005,0.045098584,0.06662221,0.079110205,-0.090738796,-0.028125998,0.04655528,0.014530675,-0.0028583515,0.061943017,-0.028735299,-0.010573394,0.008413115,0.034541607,0.021399852,0.033280857,-0.050923984,0.021983689,-0.031226931,-9.273223e-05,0.07873448,0.009839394,-0.06493734,-0.023479147,0.04048619,0.08942938,-0.036138747,-0.034401886,0.031570252,-0.04384188,0.00013445078,0.0809608,-0.020332074,0.013007658,-0.03438858,0.021580245,0.040958732,-0.0004747587,0.030476311,0.033709615,-0.028090782,0.11483733,0.03776815,0.10900138,-0.0012484294,-0.0060067796,0.024365477,-0.05032169,0.08661924,0.03300204,-0.014471083,-0.059234224,0.04522862,-0.044916008,0.004118539,0.014986525,-0.013661432,0.04648718,0.009937049,-0.05480534,0.0727898,0.077895544,0.025499282,0.024448544,0.06669295,0.07932356,-0.075914666,-0.081306204,-0.0342432,-0.026636373,0.06745415,-0.030953182,-0.037033327,0.06868367,0.03751196,-0.005048978,-0.014805797,0.010944191,-0.053302903,0.0150702065,0.02468627,0.03574076,-0.0664409,0.056282345,0.0012555104,0.00551511,-0.07841101,0.0084479125,0.0027234831,0.014072038,-0.061307374,-0.045168508,-0.01849527,0.07343973,-0.004532982,-0.06355305,-0.0041685756,0.007693542,0.070437394,-0.02525137,0.051787984,0.109784536,0.028889518,0.019588064,0.07509612,-0.058482934,0.06278626,0.009355226,-0.013197293,-0.019286565,-0.08785334,-0.044446025,-0.006702308,-0.04019565,-0.017884836,0.07209795,-0.013467501,0.050666176,0.06106254,0.045315392,6.5271954e-05,-0.07810218,-0.070521206,-0.020714087,0.081898235,0.04660409,-0.009934414,-0.005041098
,0.014674213,0.004807782,0.082851365,0.029138844,0.04005404,0.0300367,0.029195206,-0.04161072,-0.10096798,0.045783117,-0.0155086145,-0.02137148,0.10772718,0.0636287,-0.03992928,0.13231926,-0.0830685,0.016152766,-0.043042693,0.04415134,-0.020796897,-0.0033101465,-0.004135776,0.00011643299,0.09297894,0.0071302503,-0.07221192,-0.01816008,-0.027824985,0.061656095,0.0071765217,-0.0069565694,0.049726382,-0.036987156,0.044834293,0.06691965,-0.131408,0.063122526,0.05025067,-0.0053164414,-0.030268136,-0.10606894,-0.02189922,0.031901706,-0.020203548,-0.059079755,-0.04855533,-0.07254841,0.11532112,0.03918934,0.04900727,0.018228596,-0.024813214,-0.021969156,0.014163874,-0.0430795,-0.056723557,0.03657526,0.061267927,-0.02713686,0.04585686,0.014326684,0.09458295,-0.04397919,0.0415557,0.117287755,0.059569113,-0.022908187,-0.0003957649,0.021550294,-0.041487515,-0.10914403,-0.020370051,0.12144462,0.009839586,0.10130236,-0.036000505,-0.0066828732,-0.0390177,0.020504834,0.028486108,0.017084194,-0.048095733,-0.04721192,-0.03859598,-0.073434025,-0.00942429,0.014275558,-0.063517295,0.06070867,0.055016764,0.09686543,0.0108470945,-0.113775104,-0.009866427,-0.015696606,0.027674763,-0.09792045,-0.055598203,-0.0366837,-0.05299715,-0.09859832,-0.053751998,-0.04073882,-0.039840315,-0.0027459268,-0.09178743,0.012971663,-0.0071444167,-0.039815072,0.070204906,0.009152601,0.020663472,0.06421345,-0.049238,-0.024602447,-0.09551979,-0.06853444,0.08398314,-0.07389679,-0.027659556,0.0016297973,-0.04449493,-0.06784647,-0.068264134,0.08516075,0.01752117,0.015435973,-0.044848736,-0.03086816,-0.037333056,-0.02119278,0.0895766,-0.016449397,0.07795834,-0.0379094,0.018230364,0.013770825,0.006900465,-0.003991829,0.036621887,0.018310603,-0.01454736,0.061843876,0.020228874,0.011681506,-0.08884576,-0.050258465,0.04175051,-0.02088354,-0.010994662,-0.046005968,-0.08375967,0.042909868,0.024662353,0.09125712,0.004604455,-0.051072452,-0.04444432,-0.022914968,-0.014060953,-0.046267927,-0.03763908,-0.063005105,-0.008774502,-0.045786314,0.08633665,-0.031334043,0.056660008,-0.009414209,-0.0048566153,0.083503194,0.036344558,-0.017750533,0.004334708,-0.050005857,-0.027442466,0.124087915,-0.005249333,-0.096179016,0.053483535,0.00078155287,0.12691723,-0.006852145,0.08262265,0.09029878,0.03250564,0.09668947,0.04706681,-0.031967737,-0.008033982,0.036674794,0.07827558,-0.048248302,0.15760122,-0.026725743,0.024719536,-0.106300674,0.0041002724,0.038204987,-0.012153457,0.077329345,0.009131243,0.0052700313,-0.014794394,0.025976693,0.04021078,0.016453773,0.0076523595,0.09892658,-0.014054981,0.054932926,0.056200366,-0.041854836,0.011391222,-0.018418472,-0.028536523,-0.035903905,-0.0021018516,0.009076391,-0.034712214,-0.00859302,0.071783274,0.04500923,-0.03305353,0.008585779,0.05068231,-0.053287238,0.03067451,0.011363594,0.027050765,-0.02029173,0.1035068,0.0459187,0.011692242,-0.015084141,0.061458968,0.0061599957,-0.004810599,0.09489108,0.12840796,0.023600494,-0.006498112,0.010293009,0.064073406,-0.056385316,-0.014051056,0.03998418,-0.09662895,-0.07804372,0.106851995,-0.05532174,-0.06133814,0.0057926234,-0.041113496,0.04305059,0.001490067,0.067763954,0.019308323,0.0062408284,0.035856456,-0.04685728,0.04935483,0.034432404,0.044751044,0.0504158,-0.02906576,-0.0060916147,0.054904804,0.059706863,-0.028415112,0.061064146,0.041361682,-0.06826143,-0.057683084,-0.025050381,-0.045622353,0.01658294,0.049034607,0.011799182,-0.0069619473,0.04610352,0.0023163266,-0.073434465,-0.12724832,0.13265054,0.07562833,-0.0050660176,0.11671173,0.08147649,-0.06443456,0.028694138,-0.09515904,0.040545877,-0.10889311,-0.039234832,0.030492635,0.109419756,0.010598843,-0.0103195915,0.0049668984,0.006350176,0.014520768,-0.10412315,-0.036236063,-0.040167086,0.003505814,0.037260078,0.009186847,-0.09561928,-0.024964055,-0.001657818,-0.020461608,0.05257912,0.025236478,0.057941202,0.02844049,0.0067067877,0.007481495,0.03996016,0.037356544,-0.20946088,-0.11652834,0.055759735,0.07511457,0.15000638,0.100919604,-0.021948408,-0.0722938,-0.053412244,-0.051749777,-0.074345306,0.07113926,-0.07918954,0.01684764,0.036251448,-0.04319478,-0.014493816,0.021684015,-0.0023133203,-0.076882794,-0.08359786,0.06388179,0.10650948,0.031610303,-0.044039566,0.04609547,0.026344597,-0.07071636,-0.052551594,-0.16090034,-0.013546071,0.081381895,0.08075417,0.064904384,-0.054972127,-0.10106752,-0.088951364,-0.045946155,0.039718375,-0.008127895,-0.021676073,-0.048779387,-0.044213645,0.014855439,-0.04613829,0.00069925183,-0.0017207112,-0.1003315,0.0016958186,-0.060895104,-0.04596176,-0.046904925,-0.01977099,-0.029592205,-0.05573742,-0.15738009,-0.09502121,-0.15362896,-0.063922495,0.12763263,0.08989111,0.11109482,-0.10092443,-0.15167539,-0.076376274,-0.04916598,0.04073173,-0.040984966,-0.0083956495,0.006933233,0.0036626272,0.13762663,-0.05064684,0.050073776,-0.041490585,-0.023456981,-0.02712013,-0.119252354,-0.07988044,-0.09281399,-0.08083125,-0.04792466,-0.12522614,-0.11000595,-0.13151433,-0.12403922,0.113903664,0.02045927,0.07373214,-0.02533756,0.08860103,-0.05860168,-0.020185824,-0.0524022,-0.07707428,-0.0017474252,-0.029316563,-0.00529651,-0.012195383,0.012942966,0.10384284,-0.04120367,-0.08701931,-0.08796284,-0.010507907,0.0028448985,-0.043519635,-0.099513486,-0.035321504,-0.064243145,0.0022952384,-0.017634261,-0.035073336,-0.01625798,0.014575281,0.0635968,-0.07309905,-0.017108224,-0.09256689,-0.05652901,0.074752055,-0.08902846,0.00011640991,-0.022810025,0.032518968,-0.003231737,-0.0016007071,-0.02121845,0.06680505,0.03254478,-0.033660844,0.038266346,0.04645376,0.024729004,-0.13588616,-0.12811795,-0.118591756,-0.099628314,0.017486963,0.014038459,0.009118039,0.014513566,0.006862355,-0.025775015,0.0054024025,-0.026182827,0.04379087,-0.014061945,0.03470618,0.018131513,0.085364185,0.029598573,0.122019514,-0.047719933,0.003979426,-0.016815463,0.014981943,-0.07683612,0.01298828,0.031363513,0.0021757865,-0.065784335,-0.0743259,-0.08827112,-0.11038164,-0.014972065,0.06239096,-0.05699354,0.029390972,-0.056830183,-0.1008449,-0.023560872,0.020130206,0.006164253,-0.0003790502,0.04632804,-0.15980594,-0.069911234,0.020970555,0.06427407,0.11136405,-0.010130956,0.045670018,-0.012188705,-0.008568507,-0.034352724,-0.01903997,-0.10969925,0.0143643385,-0.11909025,-0.14494924,-0.09300711,-0.023148632,0.1203899,0.08526903,0.07009208,0.040733013,0.004670573,-0.06960036,-0.082002446,-0.07777738,0.049201425,-0.07658874,-0.039877,-0.12421889,-0.09659234,-0.008711739,-0.051434543,-0.043504074,0.013392038,-0.005390294,0.014119462,0.10325055,-0.035905574,-0.029734984,0.014575747,0.00863451,-0.014898805,-0.020793822,0.027649222,0.013809165,0.11110302,0.16365066,0.16952018,-0.01648656,-0.05808942,0.039809413,-0.06663514,-0.09876175,-0.06923924,-0.03334221,-0.0713127,-0.11674776,-0.0014431542,-0.017449087,0.070779964,-0.0114584295,-0.022222834,-0.03882783,-0.04278078,-0.064385526,0.06192301,0.000501437,-0.07780937,-0.040012464,-0.052408107,0.0031496412,0.032362014,0.0026089093,0.08564879,0.11281239,0.051112287,-0.0091203125,0.10731588,0.053039093,0.102680214,-0.06717074,0.019194715,-0.12570986,0.015067785,0.009485875,-0.015070915,-0.07432942,-0.014824895,0.005166748,-0.038111914,-0.014851303,0.041605547,-0.08305967,-0.1130784,-0.034700546,-0.065009765,0.04385906,-0.056084126,-0.07689363,0.02607809,-0.023292622,-0.05077577,0.15197112,0.027413158,0.11182719,-0.015428366,-0.021651806,0.11044644,0.0058332058,0.032404125,0.016165508,0.04319829,-0.046438467,0.012495361,-0.018626563,-0.018934114,0.10210104,-0.09952362,-0.021748468,0.0278691,0.06261645,-0.03900977,-0.034924787,-0.041804124,-0.0002127344,-0.02048722,0.061728414,-0.025885038,0.108241335,-0.007993528,-0.016397495,-0.026678165,0.0024024604,-0.03516586,0.009656778,-0.02903672,-0.0083924625,0.114762194,0.036268324,-0.028137976,0.035881262,0.08959921,0.032904986,0.029966652,-0.041727476,-0.10402883,0.018470021,0.037152994,0.029349951,0.012545136,0.008638319,-0.027088434,-0.04014731,0.03222145,-0.029997922,-0.055296585,0.13208243,-0.059038524,0.0062114582,0.059299164,0.07522492,0.090486616,0.06456968,-0.049404826,0.043859195,0.0050176857,0.018038202,0.05930726,0.006086367,0.04527059,-0.026505161,-0.05692207,0.10445917,0.06826188,0.03215362,0.0035112156,-0.041322436,-0.05971762,-0.0009029732,0.015233779,0.018807197,-0.008746714,0.066285074,-0.010057975,-0.08402036,-0.025993604,0.0045953733,0.033735387,0.06327915,0.0068961936,0.059340566,-0.078970574,0.04534014,0.05151292,0.033610344,-0.046919934,-0.018154208,0.04363244,-0.043402456,0.056520645,-0.101135395,-0.15278558,0.0023324806,-0.02097458,-0.014469617,0.027966067,0.025288522,0.036131244,0.07516335,0.034492686,0.05443797,0.0032532646,-0.010541727,-0.024127236,-0.005454665,-0.060369417,-0.036210746,-0.0060247937,0.05708289,0.03741682,0.012651314,-0.039994814,0.035421573,0.007985772,-0.0035095292,0.070617266,-0.023092687,-0.0079431785,-0.06093251,0.11157046,0.023909071,-0.06625414,0.0038557611,0.10370367,-0.0069375336,0.05761402,-0.046061125,-0.03177277,-0.00119299,0.05519944,-0.04098569,0.028935038,0.038815398,0.09706288,0.090255916,0.052076947,-0.052104756,0.030016381,0.053900238,0.07235596,0.10234882,-0.033810396,-0.01763857,0.09362985,-0.025789164,0.04552156,-0.0001941292,0.0073090484,-0.1271101,-0.02490333,-0.018178113,0.0038622357,-0.061847344,-0.08490667,0.03780411,0.12913941,0.049267314,-0.058105085,-0.0048766006,0.066332184,0.08150393,-0.006216344,0.09839222,-0.08409069,-0.05534174,-0.0044845846,-0.008629701,0.017926818,0.013964569,0.067809954,0.017909773,-0.06700377,0.051456474,0.02753832,0.033398796,0.07155167,-0.036755934
