//Model path = model_dir/MNIST/dnn_MNIST_100-100_0.0_0000/checkpoint_120.tar
//Classification accuracy = 97.88999938964844%

levels = 3;

n = [784, 100, 100, 10];

W = [
0.00069364515,-0.08277967,-0.062068723,-0.030893533,-0.010727764,-0.023930388,0.0019019068,-0.042688508,-0.010812072,-0.031748824,0.0068560736,0.030183349,0.0071247895,-0.04633171,-0.0024936218,0.061768256,0.08368221,-0.023196267,-0.042462725,-0.028750576,0.04836227,0.012257684,0.024338415,-0.01706523,0.046446297,-0.014008267,0.04757719,0.00064656365,-0.056146286,0.050054815,-0.007910378,0.056291204,-0.02346055,-0.0114015,-0.08587786,-0.002290386,0.10330739,-0.05898122,-0.041211843,-0.03053029,0.049661886,-0.047538146,-0.09643163,0.0066877375,0.017360121,0.0053751348,-0.03385677,-0.026028823,-0.03118239,-0.005118532,0.05775607,-0.0017639004,-0.041771248,0.0609723,-0.08397541,0.02572955,-0.022455623,0.13920969,0.096700594,0.07919667,-0.09491451,-0.05232026,0.042417746,-0.05260553,0.022932753,-0.04048678,0.0045254636,0.0749127,-0.032531537,-0.01864464,-0.021689728,0.03193106,-0.035154436,-0.009738505,0.048112415,-0.0064337514,-0.012569865,0.061365962,-0.08369459,0.054978717,0.041274983,0.04495282,-0.021245146,0.0085223755,0.04890615,0.029413657,-0.036273412,-0.003164685,-0.05252484,0.080051005,-0.041251507,-0.030976813,-0.015855875,0.019404983,-0.007376481,0.042278744,0.067590624,0.053724542,0.06512783,0.0097304955,0.0096062645,-0.009383088,-0.017407347,0.07071482,-0.022048827,0.07194939,-0.014075428,0.0049343775,-0.06047122,-0.01743544,-0.0064135916,-0.0038017542,0.05417004,-0.018321037,0.055838745,0.081581704,-0.069590494,0.046277955,0.12707351,0.112108946,0.011452484,0.030607862,0.06412644,0.114260904,0.15035616,0.017925126,0.03534987,-0.0641684,-0.011195536,-0.06719405,-0.032262627,-0.10010523,-0.026364295,-0.0117722945,0.033083133,-0.01890989,-0.023488255,-0.059463948,0.06210107,9.5411764e-05,0.03660604,-0.106361136,0.04363184,0.022030251,0.10879782,-0.0071398453,0.14437193,0.099222906,0.03182834,-0.043652337,0.0014108109,-0.043301933,0.09118482,-0.09622326,-0.063310005,-0.02152361,-0.078566,-0.06984186,-0.06418048,-0.034821328,-0.20180456,0.007859421,-0.07157232,0.01832031,0.027291449,-0.02973132,-0.0073603913,-0.025464809,0.08481283,-0.066956714,0.0487034,-0.07762609,0.08329946,-0.001737819,0.11771417,0.09252824,-0.022718534,0.09914562,0.056577954,-0.082922705,-0.05919601,-0.095835276,-0.009004154,-0.023748364,0.11201328,0.13911377,-0.062129304,-0.00029019668,-0.09382013,-0.12329593,-0.17202908,-0.07743806,-0.027907375,-0.045026712,0.06422465,-0.01215787,0.082567625,0.12920001,-0.032291993,-0.040293545,0.0028369601,0.036806807,0.008778639,0.024659308,-0.05471524,-0.002874969,0.044833194,-0.09392084,0.08588984,0.049701028,-0.047782984,0.04801178,-0.037259065,-0.039497264,-0.0016490781,0.048449546,0.056342483,-0.08772648,-0.09128312,-0.10064438,-0.052326206,-0.07137326,-0.028705016,-0.022904426,-0.04105633,0.019663608,0.022011407,0.061861467,0.057596844,-0.04533399,0.019408638,0.07151653,0.1454185,-0.052193414,0.10425033,-0.08477883,0.022403384,0.089231156,0.041861877,0.07790745,0.012611161,-0.0025905047,0.105695866,0.1004205,-0.12820312,-0.04244943,0.03573613,-0.14703323,-0.09004226,-0.04724881,0.08135563,-0.0694536,0.05072324,0.025244031,0.034003492,-0.0251627,0.058037143,-0.030466894,0.07695664,0.03605382,0.08097476,0.05598212,-0.0002151825,0.049696967,-0.047090463,0.075338386,0.2457575,0.10153324,0.09959132,0.17833272,0.02166759,0.07245406,0.12010511,-0.024568338,-0.013210119,-0.13189293,-0.051070455,-0.017850207,-0.061573293,0.005101561,-0.00916595,0.03906415,-0.0036464413,0.065286174,0.015952764,-0.025484053,0.04282062,0.010004006,0.029933609,0.044864606,1.8574469e-06,0.060190815,-0.14472966,0.12989108,0.09494829,0.1159621,0.13831715,-0.016832672,-0.026842497,0.06437283,-0.012737953,0.00038385383,0.035334025,-0.0714576,-0.07430859,0.09079241,0.008163181,-0.056386262,0.022771941,-0.05212014,0.054010134,0.0520897,0.08750004,0.020533549,-0.025670681,-0.024134003,0.037885927,-0.05816377,0.04639498,0.05949258,0.06769883,0.14834818,0.2080932,0.046844676,0.024640875,0.077561006,0.13515274,0.10112364,0.001976539,0.013891487,0.023297757,-0.06989961,0.041181426,-0.041301496,-0.075974934,0.05252003,-0.014668647,-0.03590527,0.04350354,0.062159967,0.060299385,-0.009889847,-0.057420544,-0.021654049,0.04882456,0.017330583,-0.022838723,-0.030452503,-0.11203197,0.0036558497,0.081499405,0.2923629,0.16704147,0.11073638,0.08414273,0.045323487,-0.12714767,-0.07566186,-0.101472825,-0.07857537,0.019878626,0.020035876,0.08763769,-0.030602414,-0.057952985,-0.026441969,0.06790743,0.10821041,0.0963188,0.04151609,-0.024180047,0.029116157,-0.09300243,-0.062615074,-0.040816586,-0.032819375,-0.10249703,-0.04445024,0.23434365,0.13680726,0.1607547,0.11035503,-0.07692053,-0.0027350017,-0.05367588,-0.018371103,-0.089566074,-0.09732928,-0.025956616,-0.01731737,0.03222307,0.03796612,-0.08070285,0.01165136,-0.001709588,0.03331556,0.12928407,-0.027760128,0.031731404,-0.077746645,-0.05073371,-0.0405734,-0.00013013596,-0.03412852,-0.11157766,0.0031511025,0.07605568,0.010524055,-0.013516493,-0.032831136,0.069462426,-0.057499915,0.0453191,-0.0067416173,0.03408436,-0.016584842,-0.020569455,-0.06773763,-0.023441263,0.007223603,0.0046514813,-0.0012628397,-0.09763671,-0.031456705,-0.008572834,-0.078985736,-0.10821078,-0.15041366,0.056089737,0.06091447,0.0066464553,-0.007365319,-0.13563153,0.05596168,-0.007899892,0.049618214,0.13267092,0.11956075,-0.025006436,0.071193166,0.0052682315,-0.014531367,-0.017464988,-0.023385754,-0.16419011,-0.0067165424,-0.0040175575,-0.058571193,0.08031875,0.07151281,-0.011996048,0.020378208,3.1062016e-05,0.032207116,0.057333194,0.028374106,-0.021794718,0.08617835,0.06925833,0.00012975953,-0.06119029,0.11142319,0.06936749,0.07030402,0.10819477,0.12352075,0.016126702,-0.068676345,-0.054654706,-0.05152739,-0.07165934,-0.098023884,-0.029443176,-0.0019835772,-0.06473257,0.03133543,-0.024331266,0.015480227,-0.0007253196,0.0031754633,0.032698624,0.05821271,-0.019880002,0.017952116,-0.049592856,-0.053324115,-0.021851413,0.0043966267,0.019346016,0.09785465,0.027935758,0.05513478,-0.0031436845,-0.037502427,-0.043083522,0.005813094,-0.0072362632,0.029253613,-0.06940917,-0.086561255,0.0102587575,-0.02042395,0.035241716,0.07489687,-0.026908161,0.03606696,-0.080634005,-0.079901844,-0.087623,-0.05953191,-0.059028022,-0.018589117,-0.08365544,-0.10065347,-0.110605225,-0.123987146,-0.10962885,0.048854653,-0.09890928,-0.035651743,0.025409276,0.078793496,0.07022464,0.04487106,0.015131754,-0.08162926,-0.00015733954,0.03519957,-0.045960438,-0.0658561,0.07925783,0.028984785,0.02786094,0.07921886,0.08735821,-0.089022495,-0.09791734,-0.08270503,0.0038229248,0.102367505,-0.09253972,-0.13009733,-0.14171134,-0.19937822,-0.06533006,-0.040320728,-0.07867278,-0.0742973,-0.027108826,-0.02559438,0.0025880157,0.107784,0.031349108,-0.0822466,0.062869914,0.07217982,-0.05577157,0.054721586,0.059816003,-0.0023805224,0.021972714,0.04185233,-0.04836277,-0.028972195,0.00557441,-0.057993375,-0.11768731,-0.008699442,-0.07786454,-0.08809948,-0.06494244,-0.13099623,-0.03637169,-0.12017298,0.0041391016,-0.0029925008,-0.050123997,0.086431265,-0.17889479,7.562102e-05,0.015405038,0.02233817,-0.018210521,-0.07050332,-0.11213124,0.022157205,0.021855757,-0.0029170103,-0.08439452,-0.0038514405,0.0065572346,-0.053558175,-0.037386153,-0.101212524,-0.053484626,-0.121157676,-0.015698602,-0.085387476,-0.01785198,-0.10443287,-0.022036793,-0.010526341,0.16601701,0.021659806,0.023240797,0.057911623,-0.023058882,-0.03537299,0.0059227333,-0.01598923,-0.009639206,-0.07544513,0.059118517,0.014251995,-0.0337107,0.039190676,0.01619222,-0.0021994538,-0.05548925,-0.02735569,0.029421829,0.036329165,0.08470694,-0.0013159211,-0.037180472,-0.0866465,0.021206886,-0.024906607,0.00996283,-0.027279772,0.08753705,0.038840413,-0.09245487,0.000980928,-0.0001905484,0.02137312,0.019078257,0.026754424,0.068568975,-0.04508143,0.05532471,-0.03317374,-0.038143173,0.025791718,0.036557835,0.009346903,0.034556855,-0.025173772,0.024339193,0.037936356,0.043837693,0.11230443,-0.060739372,-0.038518675,-0.051377628,0.0034544456,-0.05512551,0.01243982,-0.014834437,-0.015086883,-0.06864072,-0.05116172,-0.013014618,0.021901669,0.012995894,-0.023573974,0.006291328,-0.011426456,0.0008544654,0.07226813,-0.068180636,0.02399326,0.0762749,-0.05448677,-0.007949932,0.011994509,0.02469917,0.07230327,0.04407937,0.03255109,-0.03381195,-0.058875132,0.045392837,-0.06325347,0.052593354,-0.027318124,-0.10125968,-0.011038835,-0.049544938,-0.015321803,-0.1295116,0.002153075,0.06751871,0.04378932,-0.004936006,0.024285644,-0.06707016,0.05824928,0.010245838,0.096210495,-0.042345576,0.033448186,-0.021134127,-0.031457853,-0.06575089,-0.0017831204,0.021646991,0.057767414,0.1716944,0.033417746,0.039910894,0.09284518,0.029038886,-0.010296383,0.100249745,-0.0901587,0.008501848,-0.069983155,-0.017282678,0.13186264,-0.021836191,0.033340786,-0.043399397,-0.059062015,0.05335969,-0.021805808,-0.0570843,0.035388045,0.05161794,0.015982106,-0.0086153485,-0.03185567,-0.040193688,0.0076722177,0.04038313,0.02638694,0.04659325,0.042252775,0.15488426,0.0741918,0.08545871,0.14607552,0.08969749,0.12864484,0.09059662,0.03870323,0.056545492,0.07922991,0.11528539,0.024462271,-0.017262995,0.027052114,0.013753453,-0.0151008675,-0.028508877,-0.045255393,-0.037354648,-0.01080173,0.043717444,-0.0206622,0.022800671,0.051352322,0.07602381,-0.016778056,0.013583166,-0.046443075,-0.056107644,0.06929948,0.040576406,0.0064133494,-0.0352071,0.06171528,-0.015359654,0.02326257,-0.030531975,-0.01982316,0.1161586,-0.0060035265,0.00015126908,0.010511007,0.13726166,-0.051181722,0.10727991,0.005694015
,-0.0038676274,-0.0020493786,-0.040214945,0.024902958,0.025402315,0.08005674,-0.005803241,0.036508836,-0.036064245,0.008890775,0.08542746,-0.072233245,0.05280245,0.023502525,0.032443605,-0.055949017,0.06643707,0.007242032,0.05014235,-0.091379516,0.0879491,0.043773845,0.11543854,0.08689907,-0.1023975,-0.019806297,0.014537145,0.021581303,-0.07186085,0.056602266,0.030488387,-0.07594243,-0.083145544,-0.043053806,-0.061775025,0.06283444,-0.025811726,-0.028424034,0.004083583,-0.031143013,0.12850109,-0.0058551165,-0.012095947,0.04994423,-0.04576931,-0.053504884,0.09016109,0.0062912926,0.046787072,0.03407336,-0.005249083,0.12536772,0.006607403,-0.05857661,-0.016359948,0.08554275,0.044605564,-0.06230185,-0.04996364,0.065459974,0.050069846,0.010495393,-0.117808364,0.032924358,-0.028933745,-0.00859577,-0.060396735,0.06537696,-0.019146,0.002239873,-0.0058335476,0.019356163,0.042835016,0.04623996,0.14471625,-0.063953154,-0.0096093025,0.050731737,-0.014622536,-0.08392091,0.056042593,-0.0021815994,-0.02699414,-0.0024167802,0.010107821,-0.027074566,-0.13025625,-0.01668884,0.01791503,0.08883659,-0.06446132,-0.03013116,0.058800958,-0.04912838,0.008745123,-0.011473583,-0.063248456,0.045173015,0.122742295,0.103313245,0.09167143,-0.07734033,-0.054235455,-0.048156735,0.0481752,-0.017394686,0.059641913,0.044234674,-0.042813316,-0.07082434,-0.0070864726,-0.044336203,0.04027096,-0.064770125,0.055273924,0.075346276,-0.057539664,0.008178942,0.01888826,0.08131586,0.078794114,0.040236916,-0.0016902148,0.02926627,-0.038991477,0.028236184,0.13183366,0.04051789,-0.08248029,-0.00017389435,-0.12645927,-0.08752121,0.003011517,-0.004501812,-0.0033635835,0.09868104,0.009697941,-0.06816746,-0.024742385,-0.059163995,0.00033787332,-0.10564765,0.035295267,0.06916536,0.120274305,-0.055363152,0.02226582,-0.03119009,0.033785563,-0.09111352,0.029107576,-0.015226486,0.046531927,-0.039885767,0.020313146,-0.03380089,-0.15894817,0.054584235,-0.048752382,0.004283259,0.017258642,-0.046664633,-0.0621426,0.011462424,0.03423072,0.082069665,0.002794593,0.05495382,-0.008356109,0.045073014,-0.024807924,0.0758106,-0.028305976,0.032449245,-0.048326116,0.0341154,0.025361245,0.03442852,-0.12399963,-0.061053157,-0.0097199585,-0.002774881,0.015502747,-0.032571692,-0.044139136,0.090657376,-0.022133678,0.06805439,-0.012483223,-0.033520564,-0.073524304,0.02654607,0.04402549,-0.06728854,0.05151096,0.011630009,-0.06810234,0.015558909,-0.057982594,0.001258249,-0.025384108,0.04123154,0.025476296,0.044809114,0.022838404,-0.030991955,0.09495128,0.06742626,0.025059944,0.05620945,-0.020814924,-0.019517938,0.0094730435,-0.11080336,-0.03274824,0.04772674,0.04764713,-0.0665555,-0.07633501,-0.044162594,-0.0124048125,-0.037641555,0.036891803,0.03015577,-0.019665396,-0.07780956,0.021241846,-0.012713892,0.040564127,0.06739462,0.057781488,0.14137006,-0.036196977,-0.043375857,-0.105070956,-0.07181185,-0.005777911,-0.099975266,-0.09414475,-0.056774985,-0.06559852,-0.027408427,-0.03599719,-0.086835004,0.011101643,-0.041012723,-0.014060563,-0.032334637,0.068600826,0.041103207,-0.06126204,-0.02375383,0.022135688,-0.060639493,0.050386373,0.013369589,-0.04667798,-0.019914202,0.037485063,0.0426713,0.070209295,0.12900995,-0.0011067658,-0.054009542,-0.04084602,0.015373492,-0.03374491,-0.021134486,-0.024356073,-0.035988994,-0.14633344,-0.08630259,0.07832355,-0.0007280605,0.102505215,-0.011901879,0.008206211,-0.013786876,-0.00018782521,0.028218025,0.017657254,-0.0032631417,0.055718143,-0.06413677,0.025352407,-0.02066434,-0.15382078,0.1173702,0.122398265,-0.03736591,0.07843129,0.040122926,-0.08188466,0.0066090496,-0.08174479,-0.021145545,0.028733188,-0.05350567,-0.06516773,-0.053368974,-0.04370497,0.059087764,-0.06976965,-0.005841379,-0.034813747,-0.0022735437,0.057017606,0.03713516,-0.11991417,0.02446131,-0.023593605,0.0075647626,0.065532215,0.08922738,-0.031239636,0.037388597,0.02426771,0.06521184,0.03052261,0.045165706,-0.003168966,-0.03396784,-0.068733744,0.031724807,0.02813415,-0.10334572,-0.05721876,0.024034474,0.012743415,-0.042354494,-0.031328037,0.10777023,-0.014033117,-0.0033677565,0.036136672,-0.012453961,0.11531725,-0.07156346,-0.040901493,0.029408423,0.09521051,-0.023786083,-0.024279257,0.033665862,-0.022325512,-0.0027670334,0.015528672,0.059405208,-0.05401758,-0.10698194,-0.1260347,0.010622395,-0.023305831,-0.09584019,0.006002249,0.034825496,-0.019189052,-0.06340323,0.012502547,0.032770008,0.04439343,-0.03592684,0.03805251,0.05846484,0.07420868,0.038259435,0.0041939174,0.027991349,-0.015203917,0.08753499,0.13806951,0.054661497,-0.04203923,-0.012855741,0.017114805,-0.00804103,-0.099046305,-0.1055975,0.0039704847,0.06393734,0.10882136,-0.061493065,0.039344545,0.053363975,0.06503174,0.026388733,0.025989706,-0.017099146,-0.08533466,-0.087689415,0.098410994,0.027695108,0.080435924,0.014940316,-0.017577488,-0.018735625,-0.033768523,0.028294012,0.074371316,0.12983027,0.03145039,-0.112519436,-0.041493684,-0.012740676,-0.0027196729,-0.0012635781,0.099069975,0.057329185,0.012865435,0.10268847,0.17096463,0.111051336,-0.0017215108,-0.029268803,-0.015561037,-0.09419903,-0.09446724,0.026101667,0.037517846,-0.048975557,0.03100378,-0.0119290715,0.08386959,0.12099381,0.022744635,-0.0077223317,0.025907919,0.071789145,0.044662107,-0.12140525,-0.108672604,-0.092239924,-0.055971686,0.060345337,0.2030877,0.028432142,0.055721413,0.07103929,0.015899237,-0.03477599,0.017466176,-0.010091713,0.044980697,-0.07474351,-0.06723212,0.04641109,-0.040913746,-0.038709577,-0.032431733,-0.07248255,0.07012711,-0.005580319,-0.038430974,-0.10965505,0.06709263,-0.013143123,-0.0017878008,-0.06981985,-0.1067141,-0.024114402,-0.12132639,0.036442615,0.05271289,0.0145712765,0.110375844,-0.03849616,0.0980889,0.033362515,-0.07854576,0.15209094,0.016169472,0.023398915,0.04360121,0.0892308,-0.019238943,-0.100866385,-0.025111658,0.015387678,0.02718847,-0.052570213,-0.029754037,-0.04285919,-0.01548895,-0.039344918,0.013066739,0.029689755,-0.008995669,-0.055949327,-0.2008386,0.03328587,0.06834944,0.12674865,0.074987695,0.024988573,-0.0076903463,0.032854393,-0.014871577,0.009955234,0.07421531,0.013668305,0.08098178,0.005007331,0.005435623,-0.09542455,-0.026694864,0.046345487,0.08116776,-0.033071917,-0.020843722,-0.036458265,-0.048333626,-0.03604927,-0.007980788,-0.023864862,-0.13362019,-0.120507695,-0.077996306,0.09284737,0.07043212,0.063276574,0.11047866,0.16736744,0.04478566,0.0072629894,0.037343938,0.0106518855,0.08034194,-0.0020887265,0.074040934,-0.007025589,-0.09615511,0.04983205,0.08002164,-0.011448719,0.04740252,-0.082089886,-0.066578,-0.008414639,0.0980972,-0.015641361,0.030076778,0.026112868,-0.124661215,-0.100267455,-0.024823233,0.1481617,0.094454475,0.09562359,0.16183615,0.15927139,-0.018144997,0.060633786,0.17350692,-0.018495332,0.009491223,-0.053514782,0.042684615,0.0010698207,0.050973043,0.049114913,0.011262489,0.058325008,-0.08352458,0.010373298,-0.004074622,0.0393321,0.08478559,0.04798504,0.015757037,0.011739627,-0.008027287,-0.07116407,-0.018678473,0.09651612,0.19040197,0.11265555,0.097644106,0.12542297,0.079386465,-0.09390933,-0.080381,0.020228948,0.01945553,0.04188085,-0.06703684,0.079837285,-0.013470982,-0.040477872,0.06260959,-0.022924583,-0.035531163,-0.049929086,0.0150923915,0.008214851,0.03725696,-0.03935521,0.1197857,-0.13676728,-0.123677716,0.011322067,0.054461148,0.053943124,0.13517597,0.047162794,0.07293554,0.005813746,-0.045369416,-0.10623563,0.030385267,0.10087157,-0.006868059,-0.053561416,-0.0020196105,-0.0016595513,-0.028221376,0.016271614,-0.096858405,0.029010706,-0.00023301075,0.021584079,0.038690653,0.039326344,0.010171589,0.023257619,-0.06479764,-0.14267492,-0.123511,-0.16460226,-0.085790314,-0.15940963,-0.09607289,-0.0035311386,-0.04937993,0.038053893,-0.02336468,0.021784069,-0.010936296,0.10004104,-0.027048808,0.030335145,-0.015475671,0.10695569,-0.017600464,0.011069895,0.010575732,-0.001033519,0.096604,-0.03429509,0.08474715,-0.0116796605,-0.094737664,-0.13566199,-0.04260145,-0.06311788,-0.13576512,-0.09030717,-0.11630386,-0.034525894,-0.10114239,-0.032949142,0.098746404,-0.03943488,-0.018043816,0.043066006,0.020126466,-0.058507502,0.08502183,0.034786116,-0.0062544355,0.0066345455,-0.048853986,0.05630651,-0.04362621,-0.045282654,0.005357389,0.034896534,0.019640718,-0.040042344,0.017483074,0.037124757,-0.014464434,-0.0064059184,-0.09045817,-0.07648636,-0.03886224,0.018238833,-0.017451312,0.10404471,0.05182097,0.04101218,-0.02459974,-0.004333579,-0.07854517,0.0058127143,-0.014100501,-0.041567672,-0.012543934,-0.015753368,-0.075080395,0.08335091,0.017381106,-0.097127244,-0.03731029,-0.091614686,-0.01175712,0.035300974,0.0055246977,-0.013824148,0.013063806,-0.04163553,0.01920708,0.0088403355,0.017458584,-0.041956987,0.08779813,0.0062859724,0.08086778,-0.008031073,-0.0036971157,-0.04526545,-0.13870656,0.03844506,-0.07568211,-0.05641228,0.026786564,-0.027434634,0.015362838,0.09806087,-0.05683827,-0.009696031,-0.06512861,-0.03196469,-0.011338195,-0.0055552074,-0.009684837,-0.11424683,0.0022323988,-0.0066505587,0.012686823,0.0029009734,0.00414679,0.04165959,-0.054445077,-0.025762856,0.023988426,0.021057075,0.029290317,-0.037257474,0.04516472,0.028566692,0.020451788,0.002324711,0.041363355,-0.03996584,0.02457474,0.024734328,0.009279112,0.07729409,0.033231508,0.09477018,-0.04236688,-0.009434548,0.049961086,-0.009547013,0.046215754,0.013994763,0.03321859,-0.10345825,0.06706742,-0.014892102,-0.08017481,-0.066852905,-0.023454059,-0.00025454545,0.058383685,0.09086342,0.06614352,-0.017105715,-0.020119403,0.04245128,-0.052281972,-0.0002853176,0.025774403,-0.019795671
,-0.012680241,0.016019097,0.10372456,0.0045895716,0.040046815,0.0037917232,-0.05973733,-0.05245947,-0.07153301,-0.07663162,-0.009051081,0.029346796,0.022775711,-0.09558324,-0.07516969,0.04589155,0.010428038,0.040376168,0.07805224,-0.12075306,-0.07758608,0.026376463,0.032160804,-0.018652063,-0.074933864,0.012503267,0.06770286,0.05654727,-0.024640214,-0.057044297,-0.00905838,0.0300743,-0.12647508,-0.0022921134,0.054671157,0.037974793,0.054695725,-0.016994856,0.071206816,-0.06826069,-0.076239444,-0.0006983242,0.0396753,0.042464446,-0.009671358,-0.03548253,-0.032305054,-0.0043696878,0.0014526515,0.059733383,0.0068772295,-0.08520219,0.12026094,0.01857951,0.03170729,-0.011028545,-0.07810113,0.15165511,0.054181635,0.004675253,0.037627507,0.055460457,-0.07145019,-0.033829793,0.024706282,-0.045373958,-0.005350025,0.028971134,0.0053322827,-0.13164486,-0.006576066,0.0034773243,0.013085813,-0.06174964,0.032671135,-0.043455284,-0.03884672,0.006632905,-0.008215604,0.028815836,0.0074955933,-0.03355925,-0.013819402,0.03815713,-0.0059110573,-0.047123026,-0.026216367,0.004257518,-0.027417315,0.04837724,-0.027657561,-0.037443493,-0.06385737,-0.0362753,-0.09835147,-0.13373199,-0.01461497,-0.018434249,-0.1001155,-0.06877018,0.0052403267,0.023720896,-0.024757098,-0.031408705,0.138479,-0.03266306,-0.022777326,-0.014537571,0.026525829,0.0046254336,-0.030269304,-0.020016948,-0.121829346,-0.025204148,0.073418215,0.044924486,-0.051656537,0.082176484,0.011784479,0.081029326,-0.06429122,-0.06644508,-0.007905079,-0.06694535,-0.16451932,0.040627856,-0.10429764,0.03867975,-0.03175925,0.014541435,0.008576625,-0.07773882,0.13620085,0.06241312,0.04129071,0.08691085,0.004851452,-0.02507782,0.00065050594,-0.017610557,0.035179835,-0.055854525,-0.00024921302,0.06370763,0.04129266,-0.009119349,-0.05421723,-0.03600489,-0.031950813,-0.24967633,-0.02061776,-0.094790526,-0.02864205,-0.06374876,0.078908496,0.024516061,-7.957505e-05,0.03247251,0.011290398,0.025285533,0.07532369,-0.10396123,0.023753902,0.08807403,0.08818084,0.027612645,-0.017344784,0.0022214458,-0.058352657,0.00517603,0.1134951,0.030883482,0.047889598,-0.05556026,-0.029675549,-0.10883535,-0.06189368,-0.065409355,-0.099887274,-0.08449728,-0.09412547,0.029177243,0.038328204,-0.078875884,0.04739535,0.08472439,-0.04330918,0.10571725,0.11433977,-0.06904891,-0.015559604,0.05147495,0.06227511,0.09016468,0.03171161,0.0057988707,-0.009545434,0.005431592,0.00014585363,-0.06268648,-0.030162558,0.041118927,0.04794439,-0.06304581,-0.12336181,-0.050115358,-0.05139311,-0.13336423,-0.064831086,-0.051836118,0.07038864,0.04277516,-0.02401971,0.018331409,-0.13605572,-0.004512257,0.046119608,0.01928628,0.07307013,0.12664357,0.0027194403,0.054185916,0.019208318,0.004528266,0.03089065,0.013852986,0.06559593,0.042731676,0.013535359,0.090636045,-0.054037422,-0.04112303,-0.12610328,-0.14013657,-0.07557267,-0.09457169,-0.08309011,-0.017169433,0.07584241,0.21263213,-0.02138475,-0.0269557,-0.026387451,-0.0029733183,0.024198681,0.14343154,0.07181666,0.037493672,0.054895155,0.029404499,0.032081567,0.0689571,-0.034007795,-0.05333825,-0.094712235,-0.013644215,-0.08266625,-0.09916721,-0.009499268,0.055286225,-0.10775422,-0.0051728925,-0.060498483,-0.061467916,-0.19796398,-0.0021527421,0.07485007,-0.15542765,0.023119135,0.043072104,0.0953357,-0.016737979,0.066000804,0.05197835,-0.02781965,0.076472364,0.09374225,0.12378967,0.010630219,0.046223596,-0.00049881666,-0.014930756,-0.035007384,-0.019755593,-0.038131002,-0.046524506,-0.0030027223,-0.10836902,-0.03539876,0.0032850588,-0.07078532,-0.061511222,0.112762116,0.048410352,0.08329538,0.06413002,0.0124579,-0.07372091,0.025667587,-0.0151574435,-0.05885734,-0.07784705,0.10184669,-0.1439802,-0.11169117,0.05662885,0.008146443,-0.008023946,-0.033027392,0.07261138,0.019356426,0.033516213,-0.074312925,-0.10451794,0.02772514,-0.068181776,-0.0638085,-0.13032725,-0.162798,-0.18041953,-0.02001683,0.110258065,0.12572369,-0.0060434686,-0.030955382,-0.050107114,-0.06799904,-0.103808805,-0.19995621,-0.15803109,-0.07119927,-0.071535744,-0.015160661,-0.12862684,-0.0635263,0.007622303,0.029486919,0.05705089,-0.049832597,0.06564848,0.049510717,0.02110983,0.024861962,-0.006190059,-0.07027024,-0.048037812,-0.112732,-0.060784515,0.02631561,0.1251635,0.13362697,-0.0019707568,-0.10100413,-0.05741555,-0.08737135,-0.040232196,-0.15594666,-0.14073975,-0.09014073,-0.13777713,-0.033606883,-0.05055692,-0.007869078,0.013443384,0.029037945,-0.001871974,-0.050587256,0.008128043,-0.104151346,-0.043003883,0.010001952,-0.096299745,-0.056057535,-0.088980064,0.083561406,0.07511649,0.09696837,0.07503754,0.0730575,0.0022335867,-0.07867123,0.039632827,0.02419402,-0.07862913,0.0042314325,-0.019401468,-0.056545123,-0.13760062,-0.082238756,-0.036551483,-0.023628708,-0.047501855,-0.019213038,-0.07739589,-0.0056732856,-0.12345506,-0.06258089,0.029172959,-0.053119004,-0.059504032,-0.0104730725,0.018816004,0.03448568,-0.00032723005,0.055810273,0.11050699,0.022473618,-0.09761618,0.0074786944,-0.033756513,-0.14121175,-0.00777998,0.006315445,-0.040514283,-0.15890977,-0.09161905,-0.047338445,-0.047665752,-0.021170951,0.0024450477,-0.08630191,-0.007451896,0.015174493,0.13590275,0.024839604,0.15421319,-0.060372964,-0.15468231,-0.056662932,-0.048901573,-0.10631669,-0.075195976,0.09826907,-0.11699079,-0.0060619675,-0.08345077,-0.04831752,0.09545696,0.0585047,0.03986157,0.08809385,-0.014929924,-0.124340154,0.0048402874,-0.087378494,-0.058077004,0.030676054,0.034839876,-0.013324086,0.06528042,0.052997284,-0.027781,0.03259775,-0.062354054,-0.09206927,-0.057478037,-0.061637685,-0.1426222,0.005010423,-0.08024252,-0.00958425,0.03168479,0.014516426,0.014373273,0.027147975,0.06085482,-0.013218333,0.030299233,0.04524154,-0.11225718,-0.06929027,-0.06237665,0.04396095,-0.04184623,0.06842392,0.06470523,0.06697416,0.05791056,0.030859461,0.056183606,0.05577323,0.016650453,-0.07615372,0.02522344,-0.09140831,-0.0039459215,0.039874006,-0.085149646,-0.098877944,0.052109875,-0.058227684,0.15389074,0.13762814,0.11800679,0.0058459216,0.041255552,-0.06594841,-0.07357478,-0.10145626,-0.06969052,-0.037268236,-0.070747465,-0.029700855,0.012290429,-0.05173659,0.03273614,0.054483593,0.09700574,0.049442716,0.07640387,0.14004368,0.05268718,0.067025356,-0.012570149,-0.06725666,0.053947825,-0.048388742,0.08582235,0.15669438,0.1389709,0.17893577,0.13808122,0.06955726,-0.050314426,-0.17473,-0.16112024,-0.019414999,-0.085872,-0.07458722,-0.024561316,0.051468123,0.14153363,-0.02831161,-0.033213936,-0.115962915,0.11626957,0.03110804,0.15155965,0.12018147,0.050389335,0.10166792,-0.028604629,-0.0031675862,0.039246827,0.053505167,0.022845242,0.18781678,0.048751734,0.004005725,0.06812625,0.07351762,-0.23694973,-0.11004039,-0.22026464,-0.10978592,0.026114473,-0.019956427,0.04438172,-0.12761694,0.029599957,-0.00429409,0.049348492,-0.12100942,0.05371697,0.0761869,0.098239586,0.036562283,0.08338631,0.09890767,0.16647422,0.09600813,0.08863356,0.002324152,0.11077045,-0.059986502,0.027017638,-0.06725523,0.09588117,-0.12361325,-0.12124124,-0.11145499,-0.24045736,-0.070457436,-0.05803686,-0.04193469,-0.02301059,-0.025656221,-0.0015966702,-0.09698246,0.09492603,-0.05501797,-0.055703364,-0.12862128,0.0012929942,0.0968393,0.11201693,0.12545006,0.11982379,0.11875568,0.10198951,0.1303211,0.08125136,-0.017395368,-0.049829952,-0.111820735,-0.07541098,-0.13716105,-0.1858412,-0.025847357,-0.039562892,-0.07669498,0.04722497,-0.006007135,0.04352931,0.033796918,0.06101536,-0.08299377,-0.0715681,-0.0074433777,0.006767988,-0.04794796,-0.027147194,-0.056844573,-0.09821249,0.07598417,0.09177416,0.16593207,0.16390479,0.08378124,0.0015432547,0.113560274,0.029971063,-0.08112339,-0.17811482,-0.23390304,-0.14245696,-0.1284315,-0.021518452,0.053984046,-0.023884712,0.008282442,0.10953537,-0.0026186109,0.088828325,-0.042309314,-0.007916007,0.006856268,0.10971964,-0.05034898,-0.08997826,-0.002201808,-0.085636444,-0.015132212,0.0487484,0.010173251,0.046912443,0.07692193,-0.06320097,0.024870627,-0.030870777,-0.17542538,-0.12224651,-0.18244746,-0.0708155,-0.09866002,0.0063924175,-0.05256345,0.0012976857,0.009571857,0.08477026,-0.076357715,-0.06143288,0.016577339,0.05041281,0.060714383,0.07534612,0.04254388,-0.07230589,0.060665194,-0.1496384,-0.05493228,0.002125039,-0.07902006,-0.062123645,-0.038213965,-0.06592633,-0.06346728,-0.08803385,-0.10631155,-0.07373592,-0.005285543,-0.034904808,0.05246041,0.01784256,0.015259736,0.013930288,-0.0852097,-0.005547098,0.082387835,-0.011892191,-0.036562253,0.0647383,-0.03144689,-0.055275682,-0.058222983,0.021643398,0.001414779,-0.06256105,-0.023938656,-0.05955309,-0.11490647,-0.056046773,-0.18580629,-0.004248757,-0.1970332,-0.061903592,-0.06709261,-0.010567371,-0.014750161,0.017855873,0.011450942,-0.030738503,0.038427826,-0.07655162,-0.0038190277,0.04245519,0.04747509,0.017995564,-0.058730822,0.048349913,-0.07459026,-0.052071586,0.08048623,0.048358914,0.025081096,0.0055758352,-0.03173884,-0.108667046,-0.06018686,-0.010190079,-0.021543479,-0.015762106,-0.05850962,-0.02003396,0.0012944135,0.024418527,0.12065836,-0.07471008,-0.025856594,-0.023376618,0.06492213,0.10592385,0.054048184,0.046527136,-0.071263954,-0.007503971,0.051838197,-0.03493119,0.023204418,-0.102710664,0.06783479,0.045831952,-0.070179276,-0.012156767,0.031156901,-0.049410764,-0.044962384,-4.808512e-05,-0.023266753,-0.011944943,0.00043525544,-0.005029784,-0.10572737,0.029842155,0.02279874,0.060934246,0.024849819,0.025984995,0.01338662,0.09622712,-0.014141363,0.048671737,0.004667073,-0.02865026
,0.038625296,-0.055719376,-0.058450587,-0.07997034,0.050692707,-0.04493836,0.076650634,-0.08474805,0.014054518,-0.052678905,-0.05088899,0.007039931,0.024555786,-0.00045818856,-0.030580103,-0.110362634,0.019038996,-0.015440353,0.012317798,0.0051172785,-0.0021639,0.03768322,0.03061702,-0.026596291,0.019661168,0.064589806,0.009338811,0.06421866,-0.008934501,0.015881302,-0.047373973,0.06512223,0.0312807,0.008673127,0.108697206,0.08068845,0.05734593,-0.016268123,0.07693342,-0.08051679,0.0120559195,-0.021936586,0.050442163,0.031471524,-0.025815818,0.12105256,0.055396218,-0.060898688,-0.029159568,-0.008693074,0.04863467,-0.10989581,0.033230677,-0.058616336,-0.031509176,-0.01767296,0.03202023,0.02030691,-0.014022758,0.06636822,0.024920892,-0.017466256,0.024821652,0.02225839,0.0020954479,-0.013477277,0.0147734955,0.051273003,0.072904244,-0.006878196,0.017803742,0.009684053,-0.056020375,0.0400403,-0.010721797,0.009748878,0.071569875,-0.026962306,-0.037954915,0.034187175,-0.019799272,0.013482317,0.033262424,0.038591634,-0.010538065,0.030083539,-0.026987448,0.06654602,0.097148366,-0.092117615,-0.048329446,0.041093986,-0.029038984,0.03277223,-0.011004258,-0.005422181,-0.0643122,-0.014807118,0.0030750104,-0.06616236,0.07822682,0.006565562,-0.014874668,-0.01998614,0.03359824,-0.054774582,-0.06316465,-0.07922628,-0.067712605,-0.016775124,0.027359106,-0.018046526,-0.012979288,0.04157363,0.038483687,-0.017823357,0.073784046,-0.0152919395,0.09135141,0.0044688676,-0.105324104,4.0403334e-05,-0.008155847,-0.011161696,-0.008334785,0.17915371,0.04743903,-0.03667911,-0.025770757,-0.051525757,0.012695797,0.0029680042,0.1136997,-0.04342623,-0.04287974,0.0033240023,0.06760755,-0.030203512,0.086685404,0.036210053,2.0501708e-05,-0.08143897,-0.008750731,0.015773138,0.03750027,0.008259419,-0.016230162,-0.09992108,-0.070589185,-0.0054171947,-0.0037423854,0.051328775,-0.008493233,0.005011774,-0.0317218,0.033732444,0.0013489107,0.008520452,-0.023360517,-0.02210527,0.061228,-0.034670386,0.007246012,-0.06323187,-0.062893935,-0.031366866,-0.015457906,-0.05231691,-0.021741407,-0.02852193,0.011065677,0.051865082,-0.01289037,-0.074769266,0.076968536,-0.04449868,-0.030479679,-0.013365071,-0.067850806,0.053066876,-0.027233474,-0.025787385,-0.10286504,-0.02165608,-0.013040934,-0.012834815,-0.039597824,-0.026807358,-0.039017923,-0.01886117,-0.032929733,0.01689446,0.039490238,-0.057181943,0.031697318,0.023552112,-0.018927008,0.048777275,-0.13557954,0.008416849,0.024056897,-0.0024885733,-0.035186317,-0.07024414,0.0020637636,-0.036450732,-0.013473596,-0.012929445,0.029186636,-0.0020584804,0.013662283,-0.12894185,-0.06130462,-0.0123103885,-0.029249215,-0.029249514,-0.015575795,-0.09432074,0.021363962,0.07907458,-0.09996439,0.13163026,0.016675264,-0.008151853,0.06180115,0.035258524,0.07631264,-0.03296116,0.019565994,0.07907024,-0.07794742,-0.009419423,0.037169445,0.03708281,0.031608634,-0.01947054,0.1011815,0.07203287,-0.027606003,-0.1363192,0.03005605,0.04622301,0.06524592,-0.04254446,-0.037140172,-0.0046104267,-0.06320654,-0.020351836,-0.063822314,0.039735787,-0.107706316,0.0386302,-0.061694875,0.02326663,-0.043369226,0.0007993734,-0.014602,0.03479373,0.024843164,-0.037155814,0.047526646,-0.035248745,-0.09844856,-0.07474908,-0.07901233,0.030130291,0.058160163,-0.09484564,-0.020770403,-0.022472665,0.07904613,0.023103472,0.075418346,0.02899796,-0.02826789,0.021209339,0.07879347,-0.0531081,0.041738342,-0.02390257,-0.04251558,-0.075908765,-0.01605403,-0.009030033,-0.04032348,0.026370252,0.06320985,0.11632589,-0.012901482,0.007947312,-0.02282312,-0.05346713,0.0065110605,-0.04946504,-0.029061923,-0.020127628,-0.07818714,0.012509481,-0.095272556,0.029363135,0.057431858,-0.011821406,-0.017679237,-0.0152245965,-0.04693839,0.051531937,0.03248027,-0.022307528,0.07029277,0.06219338,0.015278227,0.02992082,0.07306719,0.15771024,0.018570637,-0.11332073,-0.03744471,-0.106586464,-0.1084668,-0.026340744,0.011283012,-0.020187942,0.029492315,-0.055163283,0.027999774,-0.032436337,-0.03939607,0.02183187,-0.0479741,0.054700047,-0.072530024,0.002371517,0.0045796195,-0.023024473,-0.080583,-0.0142749315,0.024352679,0.11017955,-0.055885628,-0.018107716,-0.022621611,-0.013599303,-0.03913803,-0.03193467,-0.031742148,0.09282836,-0.023610955,0.074707076,0.031776205,-0.032044064,-0.050663356,0.04586784,-0.039547775,0.016247824,0.022816516,0.08303686,-0.038709577,0.07034113,0.05213936,-0.01902775,-0.00129422,0.09075754,-0.034737736,-0.0533545,0.057271406,0.022778416,-0.0060183182,-0.07004749,0.047470156,-0.058163717,0.06670022,-0.12956217,0.013072726,-0.050163362,0.0046208543,0.015335742,0.052984413,-0.08838039,0.04608325,-0.078623116,-0.0079710875,0.009443714,0.025796132,-0.01550372,0.00014324111,-0.014897764,-0.04526159,-0.009568051,0.05427703,0.048340045,0.022199092,-0.060793836,0.013892661,-0.093743764,-0.024097582,0.024506029,-0.01607401,0.055166174,0.0253031,-0.02773476,0.0567709,-0.087165155,0.009299433,-0.0765844,0.006949751,-0.02132687,-0.034549963,-0.07836475,0.061058365,-0.022178989,-0.060311325,0.03379918,-0.049438205,-0.038079567,0.09088969,0.03252968,0.07370157,0.049480364,0.0032146494,0.069418214,-0.02839932,-0.047249597,-0.0017997749,-0.047601614,0.06229976,0.018870253,0.014765275,-0.02220673,-0.01976333,-0.09707864,0.0052058436,-0.022278253,-0.039884627,0.015273693,0.02571121,-0.055161625,-0.0069173723,-0.05193575,0.055933177,-0.06507106,-0.019009344,0.08363783,0.016684052,0.024693754,-0.13122894,0.018446604,0.020248676,0.10973571,-0.09138966,-0.0055709556,0.037608743,-0.08763071,-0.07278703,-0.016760854,0.07039933,-0.0067657223,-0.009605857,-0.040410932,-0.034048423,-0.11795158,0.07299697,0.031843845,-0.094034806,0.010859066,-0.074091315,-0.046720315,0.022011846,-0.02275027,-0.046917412,-0.083682664,-0.02660098,0.01784471,-0.01035282,0.020327812,0.012579522,-0.004965467,0.064393505,-0.02560305,-0.04262779,-0.0264207,-0.027508311,0.0032941736,-0.024748903,-0.008610339,-0.005525239,0.061902475,-0.053212296,0.029795997,-0.077028334,0.03941489,-0.027773516,-0.006684578,0.008825783,0.01193923,0.0056525073,-0.025591688,-0.01682369,0.06491405,-0.054021683,0.012947127,-0.016823921,-0.017550664,-0.016961759,0.077571705,0.016270217,0.031896677,-0.019196445,-0.021381179,0.025088575,-0.050196875,-0.02428651,0.06472167,0.11656529,-0.0029883645,-0.008010993,0.0067925947,-0.011655369,0.04031899,-0.078619696,-0.043127652,-0.06556902,-0.051935878,0.00050451566,-0.123138234,0.08361595,0.08306821,-0.019183628,-0.014439656,-0.039585784,-0.02840546,-0.002832476,0.14152251,0.0032362458,-0.058033016,-0.04483332,-0.012393297,-0.12771168,0.041249502,-0.12585808,0.06868912,-0.0015057853,-0.0018651795,-0.0047387914,0.009768721,-0.056951128,-0.0038262487,0.06829322,-0.055051934,0.11344509,0.07208704,-0.022450017,0.053992603,-0.0007678348,-0.053982154,0.047145598,0.010249537,0.08199395,0.022163073,-0.07734818,0.10509176,0.060206003,-0.059158895,0.039997205,0.028456809,0.005958321,0.08765825,-0.015107054,0.05024942,0.055360727,0.0960089,-0.0070836297,-0.018088574,-0.050905835,-0.042381305,0.0008207698,0.10302945,-0.123964146,0.030204043,-0.103430234,-0.07878097,-0.046380915,-0.025250865,-0.028388003,0.018565858,0.014946588,-0.05156932,-0.033330146,-0.070426755,0.024358317,0.037979566,0.06737701,-0.0024613873,0.029188465,-0.028271584,-0.034887057,-0.0062154927,-0.060783643,-0.043506976,0.070227206,0.08493615,-0.05353517,0.021302022,-0.100045905,0.01609879,-0.055946507,-0.006125951,-0.0076972544,-0.044179544,-0.0960506,-0.048180964,-0.0076852227,0.04452277,-0.042430647,-0.09788336,0.013345309,0.057546776,0.08772629,-0.00014655167,0.05263651,-0.08614653,-0.035472848,-0.033737216,0.046685442,0.0059111216,0.07687638,0.026787072,0.0064940937,0.009185069,0.05502446,-0.004867742,0.08399027,0.025492186,0.023421213,-0.011814662,0.013719442,0.09690064,-0.046709664,0.0037270214,0.0548444,0.06296623,-0.024671841,-0.013088237,0.02020763,0.030549536,-0.02919269,-0.052027017,-0.058964446,-0.05690025,0.041891012,0.028063001,-0.011917648,-0.03016496,-0.012623579,0.053974625,-0.07813769,-0.047005598,0.025653569,-0.07921806,-0.034442388,0.021978715,-0.025707595,-0.026947826,-0.08814493,-0.045474924,-0.08353957,-0.08050167,0.06958476,0.084944464,0.05198764,-0.12434851,-0.032407194,0.028752843,-0.07536039,0.024433432,0.07512613,0.036264483,0.011019542,0.037450217,0.09361202,0.06214363,-0.03753916,-0.01145586,0.09219744,-0.06255809,0.06116069,-0.08026359,-0.03884726,-0.108755454,0.10576315,0.0891156,-0.016837087,0.02384657,0.040764138,0.08289507,0.07155113,0.040333997,-0.0028509914,-0.044503253,-0.08094281,0.04411732,-0.06824291,-0.021096988,-0.013115624,-0.010933985,-0.045123864,0.053255845,0.07290274,0.035748262,0.09798839,-0.06894621,0.0101177255,0.036193438,-0.09830564,0.0027161671,-0.0024550275,0.028571457,0.004999457,0.04488137,-0.045041714,-0.061864413,0.019304328,-0.009822185,0.009984811,0.058979068,-0.04183427,-0.0007999786,-0.06312404,0.019272273,0.07061845,0.022069098,0.07322636,-0.021578945,-0.048728913,0.064082995,0.13060488,0.024630094,0.083134934,0.059568956,-0.012580391,-0.07580046,0.018727412,0.010627946,0.010959151,-0.0016537647,-0.025508257,0.025215995,0.0812295,0.033022035,0.06006884,-0.037816882,-0.07045106,0.0082870815,0.07101756,-0.03912119,-0.021348946,-0.015811404,0.0063958364,0.03180291,0.08599207,-0.03251504,-0.03971661,0.021175934,0.013184844,0.029150767,0.049485054,0.026544785,0.058540482,-0.0036181388,0.08412286,0.071923815,-0.042667106,0.061019365,0.031452373,-0.0025956745,-0.027539035,-0.10336579,0.07886237,-0.009378408,0.117167704,-0.09503112,0.058516048,0.08434055,0.037423506,-0.05274751
,0.066523656,-0.0039371173,0.023391373,-0.037718803,-0.03299268,-0.03732049,-0.03038491,0.036603358,0.045300882,-0.03291367,0.006399178,-0.041558348,0.117979,-0.005663529,-0.025883397,0.010458093,-0.027200004,0.030214086,0.010052599,0.019120995,0.107721634,0.030981956,0.051012523,-0.03367269,-0.024712387,-0.031546943,-0.014564677,-0.08292688,0.0034107673,-0.12960681,0.022345666,-0.03183927,0.016803743,0.019284917,0.08165199,0.09791331,-0.10986366,-0.011673948,0.027998623,0.008165996,0.013750777,-0.11061888,0.017553488,0.11554651,-0.057850257,0.0331623,0.023486381,-0.039035946,0.0075037195,0.009511464,0.038600653,0.04223946,-0.090266794,-0.058528654,-0.046810795,-0.013656523,-0.01429476,0.04740249,-0.00065034477,0.05914837,-0.027459212,-0.019808078,0.009627822,-0.072621316,0.097745515,0.011667887,0.004212376,-0.017741457,-0.015784513,0.00039161538,0.016772112,-0.072684355,-0.019191628,0.014170232,-0.016232338,0.10553747,-0.05936838,0.030122401,0.033841148,-0.10834567,0.05462779,0.0017891742,-0.048537757,0.0327204,-0.0007802662,-0.10060967,-0.01247399,0.082807556,0.008343194,-0.040450662,0.014627822,0.049715098,0.04117218,0.05364827,-0.068968095,-0.016039887,-0.07220415,-0.029610734,-0.072792046,-0.043342393,-0.08228879,-0.05865429,-0.008205191,-0.016512003,-0.016530817,-0.040089913,-0.023046808,-0.0035686754,0.059669077,0.040563624,-0.042011213,0.021280408,-0.036172878,-0.0015594895,-0.01855349,0.06897218,0.052418936,0.108120374,-0.062912814,-0.03934901,-0.032279063,-0.07253328,0.021196013,-0.008384593,-0.13857648,-0.14008747,-0.18605326,-0.11583221,-0.08362123,-0.116968215,-0.020423308,0.0015532224,0.03287035,-0.023036405,0.058619637,-0.05104421,0.028394712,0.020752244,0.011294777,-0.11952493,-0.0015901112,-0.026679493,0.09296416,0.0072772433,-0.039537895,0.019641917,0.11616954,0.06914709,0.06972874,0.10174456,-0.040774982,-0.076065354,-0.054796107,-0.039457817,-0.0022323097,-0.016009267,0.09406641,-0.009704625,-0.05070706,0.031997558,0.0432773,-0.04193366,0.0903624,-0.015057772,-0.026581068,-0.057425845,-0.044062536,0.061881997,0.010226719,0.0108986655,0.037067518,0.020936353,0.101818606,0.07552449,-0.0062925923,0.06852594,-0.024538077,0.055172455,0.20996664,-0.009348837,0.0709043,0.107500955,0.07426263,0.15368849,0.09384849,0.028371172,0.0029465705,0.06719317,0.111462414,0.04332537,0.049336165,0.051918942,0.03170931,-0.041770466,0.040428396,0.05287819,0.037388377,0.017771177,0.029133627,0.08463608,-0.008321543,-0.05284529,0.05976531,0.04271657,0.049274456,0.20104681,0.15838477,0.2111437,0.11173667,0.096906826,0.1505461,0.07754099,0.10085459,0.025107997,-0.06467091,0.039869387,0.016493695,0.09385618,0.08633391,-0.011128759,-0.047964845,0.017925711,-0.11509819,-0.010046951,-0.046773687,0.02360503,0.10096365,0.033008993,-0.046439063,-0.058762316,0.0050179507,0.10872683,0.10906626,-0.014533005,0.20468642,0.2701099,0.19862735,0.18144272,0.22144087,0.19548993,0.117659226,0.042125795,-0.021169296,0.044518925,0.0532426,0.01026683,0.09193335,0.05377329,-0.060348798,0.008412852,-0.012989949,-0.024134882,-0.03829146,-0.0033975202,0.031876843,-0.03779741,0.044788606,-0.014812504,0.002495005,0.030387765,0.13013303,0.12684222,0.17884533,-0.0034799636,0.049885195,0.055249553,0.14296249,0.06389846,-0.003490375,0.04566735,-0.041020446,0.0004789284,-0.005004078,-0.060471985,0.06853547,-0.030199636,0.056235485,-0.102882706,0.046629865,0.17387395,0.13031927,-0.035535812,-0.00574186,-0.05829286,0.06439288,-0.017277159,0.011388407,-0.067297325,0.08089184,0.0983541,-0.0053166677,-0.082304895,-0.24842809,-0.10957048,-0.13758774,-0.05730199,0.07411881,-0.0415622,0.047681674,-0.07075803,-0.0103806555,-0.10361732,0.008847205,-0.018983956,0.0024795472,0.053114887,-0.0046689673,0.03427816,-0.004651763,0.03343149,0.006389341,0.079310305,-0.0113697015,0.0066765486,-0.04569566,-3.076978e-06,0.06848716,-0.08095406,-0.1772793,-0.25238198,-0.29430845,-0.28198242,-0.21286233,-0.07541241,0.06015437,-0.00682723,0.0129881445,-0.07038892,-0.07472467,-0.16613899,-0.024744634,-0.042307347,0.035060402,0.12274879,0.027023884,-0.07924539,0.03884427,-0.0199149,-0.12895381,0.023615872,-0.13129854,-0.032352813,-0.13870469,-0.021478826,-0.13830502,-0.16710967,-0.215042,-0.15003055,-0.24104592,-0.08287104,-0.12900503,0.07856799,0.0024980118,0.002596692,0.027282808,-0.057481274,-0.021264335,-0.010710311,0.059923276,-0.05305949,-0.0049353223,-0.047525752,0.088295735,0.03866776,0.060777646,-0.032493792,-0.009616188,-0.00070757716,-0.056583878,-0.19054551,-0.03908301,-0.14989983,-0.15398054,-0.18797745,-0.18924095,-0.027687121,-0.15573883,0.029909773,-0.016264359,-0.020941386,-0.050026402,-0.0980751,0.04418138,-0.0711495,0.0055161454,0.054782394,-0.048785992,-0.17115986,0.037789043,-0.0352166,-0.041737795,-0.01985523,-0.03986213,-0.012502155,-0.06509804,0.10251218,-0.021795005,-0.1532619,-0.058440115,-0.092504635,-0.053677984,-0.054046284,0.029361747,0.091872096,0.043707315,0.13729937,0.08582936,-0.010783363,-0.045023885,0.051888123,-0.01192664,0.044479452,-0.0003880588,0.013637157,-0.08149879,0.039910816,0.045723766,-0.007021638,0.018430324,-0.05276457,0.08241968,0.022887155,0.07025907,-0.07130116,-0.07354195,-0.06618279,-0.074066825,-0.025952341,0.04360245,-0.033612404,0.06260363,0.16074617,0.040376887,0.15338564,0.009870115,0.0032469844,-0.11203353,0.16044548,0.00082028087,-0.11726094,-0.06704393,-0.03570266,-0.012240264,0.03966895,-0.05711992,0.008248063,-0.01919593,-0.060370907,-0.04701416,0.02685483,0.019860841,-0.034200847,-0.047671217,0.0367073,0.032571174,0.011529691,0.04698475,-0.05118522,0.07079057,0.025845671,0.08418043,0.14727673,-0.05858242,-0.0101959435,-0.011979083,0.08587136,0.09862466,-0.011404044,-0.005913063,-0.00019471583,-0.0681951,-0.067255214,-0.05169452,-0.048972808,-0.009972045,0.08678367,-0.06330568,-0.001779012,-0.049065135,-0.027121052,-0.024831349,-0.037004147,-0.0032280136,0.08620511,0.052411415,0.122131824,-0.041410808,-0.024644831,0.04639237,0.14614163,0.065853,0.12810043,0.08286645,0.011392556,-0.044190306,0.09751106,-0.0261244,-0.055870105,-0.06475365,-0.01686218,0.048124503,0.012986777,-0.014594299,-0.021086704,-0.020192297,0.02612126,-0.037236836,0.0578921,0.040145762,0.071492516,-0.03889668,0.02546885,-0.013267499,-0.018700222,0.008315992,0.0058783707,0.056473404,0.07872491,-0.077112556,-0.05019795,0.07500904,0.12811154,0.0006485949,-0.012867124,0.03236656,-0.03439079,-0.111536324,-0.050759707,-0.015233613,0.02757808,-0.0023840214,-0.070776865,0.02056055,-0.08563896,0.02147264,0.03473007,-0.0064046094,-0.0015875438,0.086689204,-0.056386948,-0.051029425,-0.046286914,-0.06676181,-0.03919499,-0.14676462,-0.09098111,0.024937265,0.06490498,-0.063013546,0.029674016,-0.05998724,-0.0015556207,-0.047956057,-0.1532984,-0.10142289,-0.07686361,-0.09627809,0.008625625,-0.06762187,0.0154286,0.044595,-0.014920834,0.06540508,-0.004567625,0.0036452615,-0.020704947,-0.045275316,0.014001182,0.030493325,-0.0036143055,-0.009348161,-0.08412983,-0.16169837,-0.12561952,0.054353528,0.059913795,-0.046515893,-0.08138952,0.008764182,0.0065896227,-0.037441492,-0.10094476,-0.17926916,-0.046356153,-0.045068383,-0.018566357,-0.046167403,0.021094209,-0.05495663,-0.09027988,0.011140927,-0.08220847,-0.019336596,0.11673953,-0.03126164,0.025495786,-0.048269667,-0.16109626,0.08359924,-0.02321264,0.04591242,-0.0943967,0.104055226,0.100712374,0.07697499,-0.07508839,-0.033773366,-0.073716834,-0.032602843,-0.037625294,0.04095634,-0.03317987,-0.02886368,-0.029293822,-0.05388579,0.004352223,-0.021018064,0.06563559,0.017688813,-0.06691424,-0.035724428,0.0073136943,0.0018205417,0.017728968,-0.07050838,-0.10290097,-0.09852264,-0.058628406,0.005141552,-0.121309325,-0.0417608,0.05544971,0.07775201,0.01411839,0.012704779,0.056986127,-0.116777934,-0.107869454,-0.04251079,-0.041078903,-0.040238645,-0.00014533299,0.015950762,0.07078099,-0.040132686,0.052329056,0.06861231,0.06379128,-0.05894062,0.058286346,0.052065264,0.016547007,-0.095889926,-0.14646322,-0.00035824798,0.06912627,-0.11450207,-0.020565026,-0.12526785,0.010112008,0.06399808,-0.044913128,-0.088797,-0.034796443,0.009106741,-0.07969664,-0.014529642,0.04250888,-0.039711706,-0.020529533,0.010643893,0.02705991,0.042848513,0.028437749,-0.047489088,0.01981121,0.006015405,0.023880176,0.0068644546,-0.05178647,-0.046623863,0.038558595,-0.0020145958,-0.13678318,-0.030689962,-0.05738004,-0.026311185,0.0047863442,-0.08143826,-0.061682604,-0.074388385,-0.06174834,0.09236854,-0.054505777,-0.00463543,0.025159838,-0.008551135,-0.029652467,0.026586387,0.058956433,0.016280364,-0.057033386,0.03157875,0.025123678,0.09174122,-0.095336236,-0.07488565,-0.11634974,0.013652733,0.045879614,0.10694578,-0.028377878,0.1274818,-0.10573074,-0.17470363,-0.025789738,0.014910561,-0.0031423804,0.07816803,0.0029243866,-0.053300586,-0.03724923,-0.055696104,0.039853364,-0.02339032,0.06556056,0.06275238,-0.088812284,-0.052132905,-0.053553585,-0.07612082,0.0531426,0.0037441207,-0.093437605,-0.05235141,-0.025627611,0.0139516555,0.038590122,-0.00074716995,0.058165003,0.02518643,-0.011098025,0.07901149,0.0497692,-0.014952089,-0.008479548,0.101033874,-0.028184531,0.022037888,0.05699774,-0.0076566353,-0.06273587,0.030431904,-0.112619646,0.06307287,-0.044006307,-0.071363404,0.004830232,0.023760078,-0.1071735,0.018121218,-0.058943983,0.029415369,-0.04331877,0.039799653,-0.020673731,0.060698725,0.017175283,-0.0033128143,-0.06588554,-0.09001065,0.06811888,-0.11981987,0.043116495,0.025577111,-0.0682808,-0.009020969,-0.05955779,0.040761147,-0.019912064,-0.026323598,-0.09090879,0.050715633,0.105768226
,0.018710116,0.11670745,-0.06567779,-0.046362292,-0.023439888,-0.009212906,0.02350765,-0.087668695,0.06002149,-0.043265678,-0.00881582,0.031767882,0.0155712925,0.035368018,0.020834452,-0.080378875,0.10660259,0.002230754,0.030793035,0.0064548138,-0.061877903,-0.004120395,0.028826458,-0.07011369,0.101785325,-0.00077014253,-0.010310501,-0.010127634,0.021281121,0.01852856,0.017826704,-0.007140817,0.045995347,-0.051887654,-0.041966457,-0.028134635,-0.025596447,-0.046780143,0.041749734,0.012503158,-0.041460957,-0.002502098,0.043555778,-0.035980184,-0.030805174,-0.030805582,-0.030957948,0.04487682,0.0033143759,0.057848558,0.04950796,-0.055527654,-0.014152872,-0.040148716,0.0746005,0.015757665,0.049086686,-0.027905323,0.000963729,-0.05777154,-0.07578961,0.01539982,-0.014430221,0.07998416,-0.10283943,-0.012406652,0.01197743,-0.064281754,-0.11718171,0.00980691,-0.03891433,-0.017338973,0.07908393,0.064332865,-0.026884913,0.062082063,-0.06767889,-0.043672696,-0.009565347,0.12856051,-0.08470939,-0.0801421,0.07031991,0.014917371,-0.071853094,-0.01572034,0.05502665,-0.033803735,0.049854886,0.042750828,0.013584964,-0.0355608,-0.073454246,-0.007701102,-0.088761434,0.014334388,-0.07067731,-0.06438958,-0.068656005,-0.041091785,-0.036082763,0.029182201,0.016713152,-0.07967114,-0.02758396,0.049054354,-0.097881325,0.014300662,0.03287845,0.019482095,0.0010681492,-0.0048617204,0.024570527,0.03295643,-0.052844588,0.009071501,0.0927676,0.063221574,0.0583785,0.027965574,-0.054611027,-0.032988045,0.05627257,-0.04854954,-0.05569208,-0.017577104,-0.004042753,0.020845957,-0.016166974,0.06009423,-0.07813963,-0.11861121,-0.0077790846,-0.11207927,0.03180318,-0.07053409,-0.07375263,-0.027295457,-0.069708005,0.021172099,0.009786416,0.080362104,0.05964477,-0.023849268,0.024088841,0.024008017,0.123436555,0.034023788,0.05531752,0.17583291,-0.04455262,0.053558163,-0.14612898,-0.024366468,-0.015985444,0.03781354,-0.029762937,-0.06403589,-0.06304062,-0.0074449517,0.07381101,-0.061260927,-0.055217866,0.0016601479,-0.12201827,-0.03898534,-0.029455297,-0.02644738,0.099433035,-0.02331582,0.041362036,-0.0049746004,0.1112872,-0.10703168,-0.0373364,0.037374232,0.037635747,0.025622891,-0.057849888,-0.09123767,0.01177376,0.06974675,0.064504825,0.052486558,0.09576482,0.15858136,0.07166721,-0.0028680642,-0.01399032,0.0146837095,-0.0029386987,0.050631214,-0.08266376,-0.08749777,-0.0039050444,-0.04060473,-0.007877586,0.02081106,0.045101065,0.008701185,0.014243102,0.059028037,-0.07921296,-0.050401792,0.012697174,0.022777906,0.063582085,-0.009641621,-0.071501896,-0.033737957,-0.051423647,-0.051418226,0.08574931,0.13365896,0.08651902,0.029983576,-0.014694802,0.024322936,0.03173936,0.014116784,0.008797613,0.01120502,-0.064517625,0.027690358,-0.04908025,0.032061003,0.027582653,-0.08681474,-0.09880996,-0.00014624972,0.0627027,0.067396626,0.13513055,0.003067579,-0.11150594,-0.041881204,-0.054788552,-0.11317066,-0.03287137,-0.05045018,0.07626142,0.0608124,0.029647293,0.067664854,0.09839174,-0.1003273,0.010495092,0.012313155,-0.0051321844,-0.015486312,0.15505369,-0.09437871,0.1279395,0.027458446,-0.055301487,-0.0194169,-0.04638871,0.006539499,-0.04788633,0.011569764,0.0155801205,-0.0061135525,-0.07299176,-0.07708607,-0.17440116,-0.058068797,-0.020822335,0.057920482,0.080661304,-0.032509524,-0.019810779,0.076789185,0.037121907,-0.05324652,0.06199263,0.09110931,0.1117233,-0.03139381,0.0584299,-0.0067425203,0.08573906,0.055647053,0.009073241,0.004172214,-0.05500073,-0.00850806,-0.05477482,0.042554464,0.002613226,0.10803289,-0.04459946,-0.04032413,-0.12163105,0.045176905,0.06174507,0.124038,0.008381507,0.015569887,0.048395082,0.09796963,0.070105866,0.10255923,0.01284557,0.019432383,-0.01588266,0.110400565,-0.06919356,0.0033600717,0.019969543,0.0039335056,0.04146641,-0.050032184,-0.06912694,-0.057549305,-0.08934899,-0.076529115,0.048876885,-0.015942235,-0.07360248,-0.099928625,-0.11821955,-0.047479115,-0.040243644,-0.013924031,0.018141402,-0.038921706,-0.17013794,-0.17684577,-0.04748235,0.0024710177,0.056418236,-0.024701498,-0.004542757,0.023632573,-0.04399566,0.015625102,0.01924164,-0.006121644,0.0923861,-0.0032658584,-0.062854335,0.040245418,-0.064367525,-0.02236091,0.017567055,-0.053947832,-0.045961615,-0.006399568,-0.0432256,-0.06503469,0.05076061,0.11264764,0.046696525,-0.02724947,-0.09925277,-0.111217976,-0.13955922,-0.10161578,-0.07952447,0.04365948,-0.079210415,-0.022276929,0.003457583,0.02202976,-0.011333494,-0.04253809,0.011189043,0.006670797,0.08284472,-0.01076571,0.04680029,-0.005038659,-0.017066605,0.026409093,0.00920156,-0.038842805,-0.07376494,-0.010411319,0.04862106,0.029695323,-0.015170005,-0.062838994,-0.14786462,-0.07257997,-0.08144505,-0.09422589,-0.051640745,0.03800312,-0.035860132,0.032751698,0.046865396,-0.049123332,-0.049574144,-0.03837979,0.04790911,-0.06969753,0.0076779327,0.06289381,-0.11286205,-0.0590033,0.0012574283,-0.017168798,-0.02136201,-0.02394993,-0.010779986,-0.035252426,0.17640734,0.155773,0.08063242,-0.04388746,-0.020308344,-0.022877274,-0.06522484,-0.04268717,-0.009519759,0.0024838992,0.0011365266,0.024175929,0.045417573,0.00034806694,0.027387645,-0.04326934,-0.026761577,-0.072396,-0.021144241,-0.082462825,-0.0356356,-0.106037386,-0.047832746,0.046928998,0.08334779,0.05783229,0.019200567,0.02841105,0.099443644,0.2460374,0.003660094,-0.03780575,-0.08034172,-0.12332399,-0.048918094,-0.03731594,-0.06938365,0.07981981,-0.0026086639,-0.06972207,-0.051584195,-0.02240692,0.01581856,-0.02551908,0.023611108,-0.112345435,-0.032086108,-0.013275279,-0.063438006,-0.061463065,-0.06284159,-0.019094769,0.07218111,-0.06947837,-0.059220675,0.025934134,0.08046861,0.16282241,0.089103825,-0.16035901,-0.13693744,-0.12077245,-0.07094389,0.061982863,0.15859897,-0.16102053,-0.038723465,0.071366,0.013254466,0.027401933,0.061140813,0.052892547,-0.03817155,-0.04281627,-0.020381501,0.0007517897,0.05555203,0.061126817,0.07020318,0.09318196,0.060684036,0.048791055,0.08799131,0.019568138,0.12999967,0.1325924,-0.052384086,-0.18150826,-0.12889528,-0.08557931,0.10161074,0.019842822,-0.044880126,0.06792198,0.07187417,0.017531106,-0.00840455,0.022976216,0.038832344,0.0143146245,0.05158963,0.011683101,0.009871169,0.01890269,0.06382114,-0.01500159,0.03390856,0.041786864,0.043479204,0.057559658,0.0060143485,0.165051,-0.012677109,-0.10109579,-0.10296983,-0.15740992,-0.05009088,-0.068869404,0.022622911,0.05563718,0.07395142,0.10245897,0.0073866784,0.015851319,0.08221935,0.08145408,-0.026294868,-0.14116047,-0.044522118,0.109807335,0.03181201,-0.09149569,-0.046698056,0.017838443,-0.054842707,0.1343002,0.033060398,-0.039950542,0.18880191,0.12814933,-0.008038137,-0.122572236,-0.024850262,-0.0014406797,0.006905752,-0.040974826,0.023751857,0.029201806,-0.029964603,0.028519671,-0.0006269275,0.07456612,0.007939018,0.015415712,-0.011172545,0.014114423,0.06939165,-0.07239456,0.06855609,0.019978616,0.071323305,0.028818911,0.06826994,-0.042916663,-0.01252243,0.055304497,0.2174036,0.014482023,-0.12546791,-0.042528145,-0.028092561,-0.04447816,-0.07607955,-0.0015148168,0.061700713,-0.043635577,-0.035354335,-0.04743227,0.02492966,0.01598214,-0.026210776,0.07309246,0.05472052,-0.01969083,-0.042691015,-0.09249046,-0.1553879,-0.020176375,-0.014443112,0.06124956,0.08732038,0.099195205,0.05757166,0.019764023,0.054536942,0.005829371,-0.034490693,-0.17772767,-0.00732301,-0.031997398,-0.011383812,-0.076113634,-0.12077086,0.08999203,-0.028929424,-0.064143874,0.04709305,0.0049226964,-0.022938723,-0.14480798,-0.0022861399,0.054118134,0.0458095,0.053745847,-0.061604958,-0.023979183,0.06070243,0.041229147,0.035661906,0.062852696,0.04874882,0.031908516,0.043188225,-0.02368935,-0.028099444,0.03707858,-0.044914473,0.060478296,0.0015234525,-0.08633762,-0.048564952,0.0037629134,-0.0043918625,0.06854487,-0.060097594,-0.019790065,-0.009474144,0.05171381,0.06979056,-0.14556926,0.025896676,-0.027014516,5.8335743e-05,-0.015130141,0.07383328,0.05546462,0.041344587,0.017412389,0.007243479,-0.044213623,0.0070113307,-0.09722911,-0.19672397,-0.008079274,-0.07749045,-0.093054794,-0.083984755,-0.06638075,-0.06326534,-0.0006365225,0.055103846,0.012601346,0.0052622277,0.07407765,-0.060636666,-0.028496439,0.054699536,-0.08532454,0.08429702,-0.043743156,0.011574272,0.047708012,-0.011108063,-0.019421056,-0.0536975,-0.058015622,0.05181855,0.12095275,-0.10107831,0.019416073,-0.07896481,-0.08019991,-0.034527108,-0.1348493,-0.078672044,-0.058868773,-0.08956646,-0.06362294,0.077617735,-0.006133007,-0.029991494,-0.042210195,-0.119456165,-0.05284641,-0.028727205,0.059603795,-0.0414678,0.014883561,-0.029237926,0.029326057,0.00075119355,0.05285594,0.09209863,0.052821625,-0.0033215403,0.022670649,0.016922982,-0.09091246,-0.042434823,0.0036866674,-0.08009917,0.0035965312,0.029752394,-0.07430855,-0.07277805,0.04344149,-0.037776038,-0.080608465,0.0047326577,0.12185267,0.042838737,-0.00025316738,-0.055461057,-0.042707287,-0.09003665,-0.034776434,0.00431329,-0.108670965,-0.021040311,-0.09030664,0.024138337,-0.003857795,0.0013132137,0.048216615,-0.03945557,-0.010384704,0.040925786,-0.086243264,0.032233175,-0.017007245,-0.067611024,0.12713373,0.03305077,0.048495185,-0.05702731,-0.04390607,0.011162088,-0.039724868,-0.02597345,-0.008750304,0.04742621,0.078157306,-0.026543025,-0.067135006,0.026469184,0.09617848,-0.07851973,-0.015537012,-0.030504886,-0.03721779,0.0061217784,0.013882209,0.07898408,0.045313247,0.021743275,-0.038339663,0.13596275,-0.10253778,0.008002684,0.08001612,0.0071070977,-0.049421515,0.048356254,0.025023505,-0.0161758,-0.023597073,-0.0016183148,-0.0062005194
,0.039244764,0.068751924,2.1519306e-06,-0.0135571435,0.02971769,-0.06063821,-0.09550665,-0.011411847,0.045067523,-0.031166539,0.02160242,-0.019333972,0.059780367,-0.048602093,0.018918578,-0.0290934,-0.015619196,0.07734665,0.020958044,-0.06292907,0.035002753,-0.021130053,-0.049130946,-0.049706396,0.013218529,0.017672116,0.05852412,-0.023341944,0.010648956,-0.060062166,-0.003130461,0.010071849,0.08848672,0.005698917,0.046482567,0.041401647,-0.037694324,-0.039913274,-0.032302056,0.055680435,-0.017353717,-0.0085790865,-0.06466898,-0.01922008,-0.02226093,-0.06836761,0.040535185,0.037632145,-0.03536513,0.038105115,-0.03304577,-0.046059567,-0.039938487,-0.0032009818,-0.03745992,0.008765585,0.08394817,0.057414938,-0.08236873,-0.015767343,-0.006649292,-0.014624966,-0.019051071,-0.046332054,0.08723467,-0.02802769,-0.03172125,0.0023590475,0.03269777,0.06352948,-0.05094904,0.047748443,-0.021511314,-0.010597806,0.029587787,0.06204471,0.052054204,0.02498232,0.014593065,0.0102583375,-0.02133945,-0.051429957,-0.069446504,0.021988904,-0.036027826,-0.028492253,0.06767331,-0.027623905,0.034284778,-0.1307519,-0.00638525,0.020215934,0.030098423,0.00900355,-0.020574776,-0.12313963,-0.1440102,0.022510158,-0.031040179,0.057605702,-0.03190648,0.066754244,-0.04636302,0.018328235,0.03918036,0.10101319,-0.0040825373,0.03218127,-0.0009445602,-0.05437318,-0.017406618,0.015017744,-0.03334582,0.07023304,0.029613143,0.00956364,-0.053174645,-0.062866464,0.05720033,-0.07761293,-0.068410486,-0.093372375,-0.023811586,-0.005435937,-0.059662625,0.10112986,0.018907217,0.047089368,0.0764798,0.080799565,0.097243,-0.028902242,0.0064738854,-0.024023598,0.07654447,-0.05754694,0.0909556,-0.04244974,0.113308884,0.055023186,-0.032135565,0.095027365,-0.039969753,-0.040109124,0.026097922,-0.089208215,-0.053215284,-0.061800636,-0.011567528,-0.13412885,-0.02293053,0.0698302,-0.00034178473,0.054561686,-0.017955927,0.016914936,-0.0268643,0.07561432,0.015212271,0.012585775,0.014815275,-0.018312939,0.0011386364,-0.09148568,0.010417185,0.08407782,0.010643293,-0.048505686,0.0058271433,0.05560257,0.039284974,0.013664229,-0.04364045,-0.10856513,-0.040099874,-0.087796345,-0.027576301,-0.105177775,0.022007683,0.120573185,0.009155943,0.06390331,0.058549374,0.11532803,0.15867276,0.05257578,0.10305988,0.037847236,0.024868757,-0.08336147,-0.050215736,-0.116425246,-0.0072300364,-0.10423428,0.033620194,-0.002095103,0.012417926,0.08382053,0.048563898,-0.057504468,-0.072017916,-0.15359057,-0.03127798,-0.1408277,-0.060409635,-0.046463612,0.006734899,-0.012800039,-0.0006986953,0.13040702,-0.07572397,0.0858805,0.040756993,-0.023127982,0.0071063987,0.02698738,-0.13784508,0.040949672,0.022104448,0.09617163,-0.042959377,0.031785026,0.061651196,-0.02365835,0.050722357,-0.035711873,-0.029618502,0.0010302843,-0.06363689,-0.109398335,-0.031189997,-0.023856709,0.067380674,-0.033674452,0.0016618709,0.08526606,0.17235453,0.12147787,0.012124229,-0.060489964,0.059353203,0.044608176,0.08669039,0.017761389,0.0428598,0.032692976,0.025197716,0.07000181,0.06091739,0.010441541,0.04168236,0.099562325,0.071240254,0.0303731,0.012188158,-0.08791917,0.062350426,-0.047993906,0.06398329,-0.009523717,-0.067227684,-0.05162892,0.026758978,0.07390446,0.010129795,0.08148257,-0.0066990824,-0.062945716,0.020638317,0.01781971,-0.0010266113,0.106641226,0.017556034,0.005089459,0.010514915,0.10207007,0.043234795,0.03539377,0.0029369632,-0.07971744,0.104165286,-0.05706508,0.019161755,-0.018817332,-0.06853644,0.0017340629,-0.038433902,0.02546762,-0.040029757,0.07398613,-0.04985182,0.009658323,0.023698794,0.011102346,0.1412712,-0.033887237,0.058910098,0.044274215,-0.040438212,-0.076084845,-0.046432216,0.12100826,0.12102775,0.062561154,0.0893421,0.042482454,-0.023530478,0.049134634,-0.031942904,-0.06930802,-0.10747817,-0.009896735,0.049961794,-0.04315156,0.14928587,0.13867669,0.04001006,-0.033380814,0.0478657,0.07531182,0.09962428,0.016207978,0.05643348,0.024651852,0.06376761,-0.021937115,0.0061933775,0.04159053,0.04484504,0.08417937,0.15509152,0.13308492,0.12533902,0.11519606,0.0038754859,0.009314915,-0.05568913,0.022044444,0.021766631,-0.012074539,0.05568497,0.00904243,0.009669524,0.16971663,0.024565578,-0.0540067,-0.071605764,0.0679134,-0.011118326,0.10304851,0.1046948,0.05251301,-0.08342298,-0.007450302,-0.08718595,-0.045270223,0.00829389,0.020271266,0.041773185,0.07246021,0.004958588,-0.03508903,0.027534466,0.037171155,-0.07787817,-0.033448502,-0.020247838,-0.027105441,0.035963777,-0.080274306,0.044241305,0.09900232,0.05348401,0.05463486,0.08236289,0.051877514,0.15057442,0.1296976,0.115924634,0.079470664,0.056105252,-0.01962438,-0.036211457,-0.015018083,0.031167971,-0.07101777,-0.063167185,0.06159241,-0.027570305,0.04387897,0.07299022,0.03777801,-0.08015077,0.020548115,-0.02502159,0.0064064963,-0.01941078,-0.07266253,0.057318382,0.04294487,-0.10406312,-0.026807977,0.16453981,0.080017574,0.11925366,0.07561252,0.11418737,-0.011847542,0.021191642,0.048061095,0.01984269,-0.11076225,0.010171579,-0.073261924,0.025827946,-0.06618223,0.018765993,-0.047755565,-0.060331263,-0.06940169,-0.0031603216,-0.055095725,0.04184563,-0.08723693,-0.05210925,0.031125437,0.08942162,-0.058644496,-0.026161958,-0.017039703,0.12060586,0.08697803,0.09312544,0.0002312552,-0.053531703,0.04556621,-0.054997567,-0.0043877275,0.013853235,-0.09619819,-0.0323481,0.019221567,-0.1521019,0.011934434,-0.016767588,0.039929688,-0.0072910106,0.02972954,0.012809304,0.04693148,0.021304552,-0.10969803,0.08285935,-0.0039102267,0.0040533748,-0.004091894,-0.043945316,-0.0038294853,0.05902402,0.09480426,0.15617204,-0.009135507,0.016488051,-0.043584403,-0.021597937,-0.06780954,-0.060648676,-0.09720274,-0.09617242,-0.022734435,-0.08721986,-0.07203322,-0.05396234,-0.056006826,0.075534835,0.092965715,-0.03407085,0.08450084,-0.030719118,-0.112030774,-0.017031936,-0.016004853,-0.040870328,-0.1150816,0.08169733,-0.05754172,0.01553164,0.06823349,0.019659834,-0.059409525,-0.018687632,0.061539605,0.012647285,-0.082383245,-0.100421,-0.05522809,-0.06118285,-0.11740452,-0.15792733,0.030569257,-0.04143415,0.03932774,0.031883426,-0.071916245,0.05421452,0.039423753,-0.08762955,-0.021662831,-0.013960058,0.07075134,0.11558012,0.047413707,0.07416727,-0.026868025,0.16789673,0.196846,-0.0042838072,-0.12145062,-0.010079272,-0.054342363,-0.09227679,-0.05986056,-0.16886537,-0.03266125,0.02264284,-0.054600418,-0.102943175,-0.1726802,0.046947066,-0.061741423,0.014650047,-0.0691737,-0.02256301,0.00017999964,-0.099769264,-0.022054527,0.016804675,0.02251346,0.08650704,0.01377076,0.05777358,0.06946517,0.08860915,0.022517243,0.047828786,-0.011777497,-0.110771865,0.007405888,0.06422022,0.11448881,-0.051527575,0.057998672,-0.11920211,0.010522002,0.035848357,-0.0499542,-0.030237388,-0.0064084027,-0.014088678,-0.057758264,-0.035907783,-0.0875506,-0.02121593,-0.083724156,0.0064813164,0.010625658,0.025887262,-0.07892577,-0.013390394,0.10198865,0.17842706,0.08986289,-0.043106366,-0.13400573,-0.072738305,-0.05411201,-0.054454714,-0.088631056,-0.04834191,-0.0017744377,-0.025807358,0.070246495,-0.045365054,-0.08940644,0.004424115,-0.034326624,0.015931519,-0.01734082,0.069599725,-0.040186502,0.050599203,-0.0071295025,0.08823352,0.010647511,0.12320833,0.09151636,-0.02221494,0.19926555,0.00390194,0.07884224,0.012556704,-0.049159586,-0.039648123,0.07068958,-0.1570875,-0.021100413,-0.02774548,-0.10538252,-0.06455774,-0.12631783,-0.002699052,0.026603976,0.0619645,0.06300217,0.047495082,0.08205301,0.050538022,0.029264402,0.016566297,0.0105536785,-0.020511221,-0.028130863,0.07261135,-0.0047184797,0.002138243,0.11987288,0.03961407,0.05267669,0.02081909,-0.06357053,-0.0468525,-0.06807777,-0.068055466,-0.04830199,-0.07199478,0.0019910443,-0.13748054,-0.03738724,0.015838468,-0.0093739,0.07618719,0.08067668,0.035842024,-0.0030719845,0.025404591,0.04548179,-0.019485103,0.010983203,-0.00065071427,0.0022789268,0.094161116,-0.0068369466,0.0963702,0.10342132,0.1031963,-0.036496915,-0.027619408,-0.058268305,-0.08682423,-0.06101573,0.01908863,0.071150824,-0.043551292,0.07689425,-0.02038696,0.0129948715,0.09246223,0.12059902,0.02265951,-0.034113083,-0.004881104,-0.012743387,-0.07818252,-0.0005732939,0.05786654,-0.08595081,-0.008126286,-0.027874658,-0.08383523,-0.04818752,0.050853413,-0.027443668,0.016383031,0.0182831,-0.06507881,-0.013877852,-0.061639808,-0.046060205,-0.04258014,-0.06487162,0.04844433,0.12140653,0.15514123,0.015046755,0.0019371726,-0.039347123,0.10562492,0.07659654,-0.024471678,0.05029952,-0.0008929461,-0.054188192,0.045221515,0.024939388,-0.05962855,-0.014492239,0.03678391,-0.03733391,-0.004077744,0.04577325,-0.027316814,0.056574773,-0.021256544,0.013155932,0.056887835,0.0619899,0.12743409,0.2069466,0.07577666,-0.017895598,0.096644975,0.0089656785,-0.0420072,-0.008050434,0.048346784,0.055602442,-0.055834375,0.10673909,0.04125844,0.032939795,-0.009971539,0.03656485,-0.075765364,0.005894509,-0.058692373,-0.05102972,-0.10626896,0.043562885,0.0049197604,0.063266814,-0.045372833,0.023817545,-0.01702439,0.08286811,0.043346774,0.09491799,0.054974843,-0.0649049,-0.0435266,-0.020437293,0.019207496,-0.021655953,-0.018269112,-0.004540208,0.016408365,0.068968296,0.06856255,-0.02927954,-0.08330759,0.05257641,-0.020110639,-0.0075451913,-0.00048340455,0.030832566,-0.032265563,0.0335953,-0.04471832,0.025136834,0.003664206,0.056320176,0.016660526,-0.045022864,-0.06305525,0.004959894,-0.054647334,0.010766645,-0.06393729,-0.07090731,0.08467003,0.021583637,-0.061277635,0.016035473,0.029058771,0.11731656
,-0.094184324,-0.01380651,-0.0540378,0.0023770537,-0.09677412,0.01818879,0.028009772,0.017040247,-0.05767615,-0.032829594,-0.044639707,-0.021389673,-0.011352993,0.0055322857,-0.008474519,0.0801222,0.029485099,0.013891541,-0.03130861,0.030835766,0.017632548,0.013982375,-0.03641139,-0.012119018,-0.0044029965,-0.018477496,0.09688612,-0.049468845,0.09828423,-0.04193598,0.055732287,-0.15187092,-0.10743203,-0.005803206,0.053293828,0.11877011,0.0681645,0.07912419,-0.0084292665,0.04039403,-0.06418317,-0.10147181,-0.036700945,-0.017850433,0.06525737,0.016962312,0.022146504,-0.004557657,-0.031140963,0.09346297,0.049796235,-0.015310931,-0.008155007,0.0015235217,0.017392306,-0.037919324,-0.060160268,-0.0719956,0.049259387,-0.08207633,-0.030579746,-0.016056428,0.03482515,-0.0054079457,-0.009067044,-0.05971392,0.0256327,0.0064854776,0.035933647,0.047948137,-0.011917132,0.062300313,0.03500195,-0.010166775,-0.031110726,-0.0022041984,-0.055199336,-0.013252584,-0.069697194,0.008274809,-0.0010170208,0.004991555,-0.104971975,-0.051726695,0.021383075,-0.084092624,-0.028366296,0.06158887,0.007407697,-0.030617952,0.0134249795,0.097784914,0.01886388,0.007901255,-0.038612258,-0.064110555,-0.0044813007,0.025513643,-0.06177459,0.0094959885,-0.15081728,0.07419019,0.012513076,-0.01003565,-0.022254493,0.045037095,-0.018478619,0.09103231,0.00085942884,-0.044417083,-0.10931535,-0.008465251,0.0188271,-0.0608294,0.04455064,-0.0081883045,-0.07187543,-0.028567199,0.16593683,0.06771771,-0.024588501,-0.05348317,0.05225395,-0.0678363,0.071298964,-0.06940119,-0.14638723,-0.12172388,0.011761163,-0.010717318,0.037286453,0.025808506,0.0020071326,0.04324947,0.0168197,0.05184009,0.018106872,-0.026129147,0.049461924,-0.04583665,-0.05251206,-0.11248029,0.013080512,0.029301383,-0.054746795,0.064962156,0.08153839,0.14407836,0.0686667,0.1431287,0.039940152,-0.011596626,-0.043646377,-0.10795935,-0.15882689,-0.16041033,-0.012912744,-0.09702936,-0.01476411,-0.043475807,0.016672632,0.007749248,0.041382633,-0.05329473,0.06565006,0.07890248,0.07837767,0.03148459,-0.07773168,-0.092827104,-0.01304965,0.08739987,-0.061897542,0.020928571,0.0075915633,0.0455458,0.05467346,0.19319096,0.0005500442,0.09862986,0.08356135,0.0016633755,-0.11243806,0.0139748715,-0.07058747,-0.08959538,-0.12488328,0.03119648,0.038169425,0.08662513,-0.02492611,0.03305581,-0.03495213,0.007324717,-0.049902223,0.02228352,-0.084540375,-0.068575285,0.073710866,0.0032833929,0.032315124,0.037851192,0.0643215,-0.023374278,-0.007991221,-0.020905355,0.023757363,0.05415622,0.13034695,-0.011975312,-0.056964323,-0.08218176,-0.11276899,-0.0511302,-0.08583707,0.11552999,-0.049375482,0.0795185,0.021700235,0.061491325,0.04211084,0.014610236,0.14244138,0.0454393,-0.008445582,0.07155957,0.1163896,0.007013682,-0.006926907,-0.014445737,-0.056472935,-0.059808202,0.014042088,-0.011830825,-0.022919605,0.10247894,0.09569777,0.06382272,-0.042575955,-0.12929963,-0.19456725,-0.15618211,0.09504483,0.008727334,0.12791412,0.19856067,0.028264962,-0.04297698,0.037191346,-0.067118585,-0.076623045,0.03642391,0.022544561,0.07351439,-0.06360315,0.010458979,0.07472987,0.11958714,0.022286562,0.037314467,0.024312064,-0.05218476,0.025467454,0.08421782,0.07118119,0.073412165,-0.00731041,-0.21033531,-0.053213492,0.0396669,0.01957498,0.09055676,0.11658257,0.14970723,0.096599646,-0.038910117,0.021162836,-0.105253346,-0.07803186,0.029727198,0.00015060126,0.05058884,0.025155025,0.03600739,0.09679216,0.06908737,-0.01522748,0.019496191,0.026629424,0.07366885,-0.0003910602,0.11671671,0.02522526,-0.02781049,-0.24739914,-0.26860714,-0.22723664,0.1641431,0.13299783,0.2157519,0.1440194,0.18292145,0.059645455,-0.034240995,0.033291787,-0.093328856,-0.035086397,-0.03562346,-0.0035691443,-0.027571984,-0.017987816,0.07960641,0.06384142,0.0374316,0.08346734,0.10651082,0.119440205,0.21019985,0.040288087,-0.081835985,-0.2103008,-0.17051838,-0.2275089,-0.11468695,0.006606402,0.15351139,0.0669607,0.04739744,0.16015632,0.08549454,0.06814001,0.036926247,-0.11236359,0.04546455,-0.10427798,-0.012305708,0.085233375,0.0043194806,0.035412733,0.0034860026,0.10743324,0.09652018,0.04267898,-0.05236586,0.12595795,-0.15445943,-0.09858072,-0.15826449,-0.047004078,-0.15946454,-0.012216682,0.14154118,0.1310509,0.19959915,0.092476115,0.01960225,0.066419944,0.084892794,0.116474375,0.0006294232,-0.0480646,-0.09368528,0.02551553,-0.049494136,0.022380844,0.10083,0.06168486,-0.021283247,0.12058985,0.08296575,0.15254354,0.018098006,-0.01155257,-0.0094893165,-0.19112179,-0.078675844,-0.23694904,-0.017035035,0.0048983726,0.063213386,0.0035344572,0.05914781,-0.07040507,0.0037060038,0.0778264,0.08715853,0.07365505,-0.008454781,-0.03241308,0.048089627,-0.02745047,-0.076086454,-0.039981112,-0.03202374,-0.011542865,-0.05475698,-0.019672856,0.062154707,0.07313794,0.028520394,0.019764325,0.06338351,-0.038795162,-0.03195028,-0.06400869,0.05869571,0.033890203,0.1121659,0.09926336,0.14712255,0.05134089,0.095989294,0.038860854,-0.041784905,0.055601485,0.029977025,-0.0040612645,-0.05054597,-0.02642793,-0.018900376,0.058748037,-0.018466042,-0.033180308,0.029831126,-0.092617914,0.014610666,-0.036488723,0.053460166,0.008940013,-0.044182,-0.14190009,-0.035228524,-0.16575763,0.041475985,0.111166835,0.12690532,0.0072515574,0.1408772,0.120207936,0.07718149,0.15424106,-0.061986037,0.11455178,-0.036080565,-0.03825381,-0.07151673,-0.020688236,-0.01730998,0.03980166,0.06481266,0.035330642,0.073223576,-0.049419504,0.086252004,0.09997532,0.06230025,-0.019611921,-0.07810895,-0.1491861,-0.090901114,-0.023595877,0.009888672,0.16616225,0.1505269,0.02078356,-0.0119517315,0.11925036,0.056762148,0.11800859,0.024425384,-0.044233173,-0.052062396,0.07883535,0.033254925,-0.042235862,-0.026514541,0.037741687,-0.015221265,0.0858982,0.013546921,0.018929409,0.051455636,-0.035150304,0.028291028,-0.088052355,-0.1533784,-0.0677848,-0.033333436,-0.010095292,0.002757055,-0.050562274,0.106340915,-0.100593284,0.062249787,-0.03274197,-0.09456753,-0.047821194,-0.10782155,-0.009915572,-0.07210913,0.038973793,-0.04810036,-0.0679609,0.09633191,-0.018579911,-0.02064736,0.06677472,0.012111684,-0.0004471245,-0.028508252,-0.20449272,-0.07311308,0.10709043,-0.08200667,-0.11905697,0.0003470993,-0.017298412,-0.0006353003,0.021703213,0.06315093,0.060548622,0.03472462,0.052484274,-0.0042676744,-0.07795416,-0.05919496,-0.06457452,-0.0051632454,-0.02287394,-0.042214695,-0.02021577,-0.08161937,0.047595724,0.03919894,0.05235589,0.042750027,-0.042680632,0.062141467,0.112627216,0.20160663,0.04663123,0.067095995,-0.062005416,-0.037665896,-0.04310634,0.0352863,-0.035543397,0.058055785,0.098241486,0.14338946,0.01559637,-0.06528231,0.0087380335,-0.010437828,0.08758247,-0.13270622,0.013691284,-0.05006627,-0.03218144,-0.03718666,-0.077092975,0.044438645,0.035526507,0.09728757,0.09646066,-0.07546286,0.0040225047,0.05234772,-0.01170097,-0.00999732,-0.014723198,-0.0679568,-0.065550886,-0.12942234,0.11492281,-0.097427405,0.03254946,0.041887555,-0.056916323,-0.029182184,-0.03877683,-0.10549072,-0.16990714,-0.06888237,-0.04512252,-0.004617414,0.02304834,0.040074944,-0.020156527,0.0130960625,-0.055376053,0.010202745,-0.05889765,0.0035092,-0.0012957524,0.06292867,-0.1074756,-0.057864707,0.089940265,-0.059770446,-0.054103427,-0.09127075,-0.10017647,-0.09090662,0.14624378,0.071737036,0.01746363,0.095243454,-0.0059369905,-0.107591465,-0.060265906,-0.058184013,-0.003144285,0.025208864,0.03310664,-0.015479197,0.058612555,0.03036951,-0.059956077,0.00024028744,-0.051563703,0.052622184,0.06829783,-0.0521767,0.05275625,0.02490737,0.06557818,-0.018059028,0.026753344,0.04780976,-0.08904458,0.00990472,-0.032423485,0.040513214,0.08037099,0.041056316,-0.03188773,-0.11899733,-0.04135032,-0.040957402,-0.08602311,0.022808168,0.036284048,-0.09770592,0.051065717,-0.0045514167,-0.056829464,0.07020631,-0.032414816,0.01127307,0.09670702,0.11523652,-0.07593781,-0.02845717,-0.041911438,-0.1349529,-0.04022605,0.028856197,-0.09842411,-0.01953158,-0.10898493,0.010557926,-0.0037927772,-0.019627374,-0.089862175,-0.021318931,-0.06342531,-2.864433e-05,-0.027508397,0.15140353,-0.021715704,0.02485703,-0.13524428,-0.079284765,0.1006971,-0.021272989,0.13759081,-0.026323419,0.07965023,0.023046413,0.025772529,-0.056064796,0.011429351,0.023382151,-0.090715475,-0.1563366,-0.09652582,-0.022465302,-0.05330321,-0.06964248,0.012042515,-0.014240963,0.009460256,0.0047303904,-0.14561482,-0.017028436,0.06056708,-0.030894829,0.05604091,0.08657459,0.018228406,-0.04575189,0.040747654,0.010581996,0.03690648,0.01085228,0.0073468545,0.0041312147,-0.0066521172,0.13284415,-0.018840026,0.0069913515,0.0013839174,0.03274233,0.008462014,-0.010429341,0.014609111,-0.0002873299,-0.037701502,0.023708465,-0.07026075,-0.024289113,-0.07402239,-0.11159379,-0.052430153,0.074058466,-0.015254489,0.043285836,-0.048346203,0.114270255,-0.03320505,-0.014148489,-0.024374198,-0.079352856,0.020687047,0.025275366,-0.009119252,-0.042457864,-0.016901473,-0.061297122,-0.031064408,-0.05004749,-0.02370695,-0.012278356,-0.08072374,0.0135512985,-0.035779726,0.06191972,-0.093768954,0.07748404,0.050697386,-0.030356212,-0.045980718,-0.024752475,-0.062511615,-0.002517736,-0.027502598,-0.06096814,0.053747352,-0.0077071865,-0.058139868,-0.07504369,-0.013829882,0.012114333,-0.027093446,0.011044711,-0.04734173,-0.048466947,-0.046114706,-0.093485065,0.048837245,-0.0072244066,0.09952077,0.11503476,-0.009263748,0.0013220374,0.00095282146,-0.042116538,0.016197126,-0.004136888,0.031641982,-0.0035566757,0.02400024,-0.021348253
,-0.027384225,0.007895257,0.018752446,-0.056625724,0.028469654,-0.034105334,-0.17003894,0.017584858,-0.067464486,0.03428463,0.06409746,-0.008745204,0.0111346245,-0.07271037,-0.02216568,0.019849436,0.06451478,-0.007233696,-0.05460834,-0.086075775,0.06926541,-0.015157567,0.028128382,-0.028596224,-0.10334373,-0.078185506,-0.07979427,-0.06044209,0.055090055,-0.019091973,0.091899075,0.05325618,-0.10602372,-0.028751165,-0.019297555,0.0886617,-0.024697334,-0.01415734,-0.041736804,-0.015532297,-0.01062726,-0.017704004,0.07072213,-0.09011753,-0.14742802,0.12137061,7.765298e-05,-0.04033604,0.03244167,-0.062100954,-0.0011546821,-0.003943845,-0.031261593,0.03350814,0.098113,0.055990282,-0.041071832,0.09056193,-0.025849104,0.06489103,-0.08178941,0.018141858,0.044640824,0.043044236,-0.031769425,-0.018824028,-0.0045757205,-0.030124776,0.010375455,-0.009593602,0.13294709,-0.012786745,0.006311628,-0.0046502897,0.05664407,0.042989954,-0.08431395,-0.1103759,-0.015572928,0.010457448,-0.006830818,0.0041381354,0.07753637,-0.041064125,0.030549003,-0.069489,-0.089350745,0.035491593,-0.026809612,0.009294135,0.0269695,0.011708232,0.034603074,0.07561935,0.031470045,0.11486833,0.11998037,0.13479847,-0.00353806,0.033806387,-0.015815059,0.04046565,0.011691103,0.017891029,-0.006997782,0.009794167,0.059619967,0.03891067,0.0038534687,0.070864275,0.07689523,0.021451915,-0.06116317,-0.005006309,-0.05823572,0.03366179,-0.025204744,-0.041271653,0.045655888,0.026141245,0.07267928,0.09724701,0.10664379,0.17887089,0.037415218,1.5110118e-05,0.036175888,-0.0037058648,-0.024640908,-0.14160086,-0.036103256,-0.058540374,-0.04338075,-0.012497407,-0.024156958,-0.02881463,-0.012640489,0.019264018,0.04052851,-0.048205525,-0.024275951,-0.090230145,-0.052449618,-0.004398054,0.08415206,-0.047689456,0.042916108,0.049567625,0.0151932575,0.0887135,0.11711077,-0.028245956,0.047652453,-0.09968648,-0.013576528,-0.14315005,-0.052280053,-0.033706278,-0.10039224,0.039617185,-0.14803731,-0.023886656,0.035599917,0.017942615,-0.007881735,0.029715821,0.057854198,0.00016540394,-0.12298169,-0.010393408,0.015428533,-0.022391373,0.01803661,-0.07285157,0.05444339,-0.015565906,0.09812135,0.1083373,0.18362473,0.07504577,0.11362701,-0.061044905,-0.046626434,-0.08082467,-0.1091781,-0.09441668,-0.06116931,-0.061314624,-0.016960159,-0.036785524,0.04001444,0.022097621,0.055894587,-0.034889497,0.0636303,0.04702309,0.0050498145,-0.038136657,0.03459131,0.004009291,-0.08711812,-0.032159258,-0.024640583,-0.013227743,0.09425096,0.106334694,0.11050258,-0.019909723,-0.09567343,-0.09430581,-0.03490477,-0.0159658,-0.045872506,-0.010164563,-0.04409677,0.09080348,0.043509595,-0.00072737003,0.0012122353,0.038202938,-0.0669784,-0.025058964,-0.05859683,-0.04570586,0.013526196,0.09504494,0.021715172,-0.049900014,-0.035712697,0.063288726,0.06340917,-0.015876427,0.13797736,0.20532687,0.06829556,-0.16896679,-0.12855142,-0.054842055,0.08917297,0.08537354,0.007605821,0.05654811,-0.033127047,-0.06260836,0.008270669,-0.02612735,-0.09513422,-0.016665893,-0.070553064,0.040309463,0.0046456377,0.044435322,0.07887803,0.011318462,0.0019726537,0.08152505,0.0037431987,-0.014303982,0.087352596,0.09498445,0.16809118,0.08860637,-0.020932635,-0.16000733,-0.24855815,-0.09123529,0.0468828,0.073492534,0.08584255,0.08930965,-0.01963783,0.0683915,-0.0566651,0.033629566,-0.08741362,-0.014139937,-0.14141634,-0.056406733,0.013994341,0.00023218656,-0.063982286,-0.051705074,-0.057097718,-0.0015949435,0.050544184,0.04158957,-0.024448939,0.061974034,0.21289341,0.298118,0.087953985,-0.22210595,-0.25970528,-0.12234917,0.00019597585,-0.039119657,0.017756486,0.006183123,-0.017044514,0.16809829,0.0017506508,-0.051443633,-0.06332173,-0.0073923445,-0.020775653,-0.00035102165,-0.025567401,-0.038233243,0.06678314,-0.0068340306,0.010148153,-0.07378293,0.053338874,-0.008768346,0.06602926,-0.00089467684,0.20128314,0.25541103,0.04016294,-0.11281905,-0.07775428,-0.086949795,0.06802155,-0.012608032,-0.025414757,0.060274437,0.0070696496,0.20828468,-0.058926817,0.01395095,0.019054206,0.0034623875,0.023822691,-0.022891873,-0.03604019,0.031117233,0.015607278,-0.017262585,-0.018795807,-0.021322366,-0.09485818,-0.02053683,0.008171501,0.107125126,0.08357499,0.08951127,0.07490744,-0.04663174,-0.03346831,-0.072012596,-0.10212991,-0.03879541,-0.105842285,-0.0022396883,0.033448223,0.056712706,-0.07856147,0.06736683,0.15775979,0.013047566,0.096708745,-0.09536966,0.015316629,-0.036907047,-0.084634975,0.014529889,-0.07607346,0.025907008,-0.002254291,0.07309926,0.08628698,0.07367578,0.057089817,0.14945064,0.13040808,0.03242702,-0.041630846,-0.1384462,-0.011480704,0.043630663,-0.09699322,-0.03177106,-0.047589965,0.07630255,-0.05623098,0.07704467,0.06391974,0.046142343,0.010520678,-0.021694422,-0.030483456,-0.014393223,0.009845943,-0.008642569,0.057513412,-0.03346942,0.09155942,0.03734094,0.08347224,-0.06665358,0.07668051,0.0630831,0.12419345,0.056095086,0.13800813,-0.031996284,-0.07679635,-0.06940326,0.07087203,0.03829188,0.06970014,-0.07389948,-0.052346665,0.045071606,0.13570899,0.021019073,-0.055827446,-0.043209154,-0.028710166,0.0030628522,-0.04939114,-0.034385804,-0.09507025,0.11397245,0.05959823,0.006816594,0.057047114,0.008233045,-0.03561397,0.026337055,0.107955396,0.071155936,0.13097657,0.0007099677,-0.052046817,-0.10853641,-0.028609388,-0.026651919,-0.009832296,0.061226044,0.008794667,-0.046465218,0.06203138,-0.007622552,-0.0289063,0.011432193,0.096995674,-0.033415228,-0.016124772,-0.0028920877,-0.09792717,0.1406233,0.036487125,-0.06948596,-0.071465306,-0.06713216,-0.0033879369,-0.09407493,-0.046846405,0.016255502,0.025426943,-0.044044863,-0.068217196,-0.10686118,-0.036228567,-0.07265917,-0.01569521,-0.032946575,-0.017556386,-0.09949378,-0.0062615876,0.019084897,-0.07644733,0.05631593,0.09231426,-0.015589133,0.045118626,-0.0025830586,-0.014213774,0.0020762924,-0.0048783435,-0.06575947,-0.034886688,-0.13023396,-0.047058687,-0.025636822,0.008029925,-0.00071901345,-0.02506943,0.044972315,-0.10157162,-0.17315905,-0.017739516,-0.0951743,-0.025970172,-0.05919478,0.028271956,-0.026999038,-0.036819708,-0.043726526,-0.050068576,-0.00021509902,-0.06257927,0.008770437,-0.06849875,0.07624481,-0.01817325,0.00017625293,0.011463694,-0.04609809,-0.05880566,-0.13282776,-0.08042404,-0.055684872,0.036581643,-0.07910528,0.03688259,0.0014459465,-0.010620621,0.03048741,-0.033549726,-0.08704401,-0.012935149,-0.051564902,0.08800463,-0.010795338,-0.14242828,-0.017630644,0.033840146,-0.06523765,0.07085795,-0.05827365,0.14311932,0.0052167545,-0.06506242,0.020503446,0.09194472,-0.050650407,-0.022895815,-0.008469975,0.017654262,0.051465392,-0.121785544,-0.041258276,0.034287654,-0.032992482,-0.006847196,0.021745982,-0.12462134,-0.10763925,0.061198603,0.057179697,-0.057503555,0.040368803,0.030379672,0.054618333,-0.03930958,0.060430933,-0.06596551,-0.019023519,-0.044914298,-0.013248284,-0.122548476,0.13075447,0.07997941,-0.065420665,-0.07544971,-0.033073958,-0.02582567,-0.09921514,0.06565464,-0.004968221,0.09082472,0.043832593,0.16671732,0.0945206,0.047443923,-0.017269054,0.06612631,0.08762197,-0.0642437,-0.028458877,-0.044812717,0.037648927,-0.06913244,0.012044641,0.01581144,0.06562636,0.013552925,0.03164913,0.020921363,-0.047219478,-0.115510225,-0.011495512,-0.005125085,-0.104631595,0.028984413,0.077930175,0.045591157,0.02321912,-0.117397234,0.03348585,0.09980477,0.11879402,-0.014964494,0.022223849,-0.008702074,0.06479532,0.01308622,-0.08874298,0.03992959,-0.037660558,0.009588518,0.00844285,-0.10116748,-0.06377619,-0.04435953,-0.024376884,-0.008403225,-0.095882714,-0.08323221,-0.024679514,-0.004386681,0.0058585145,-0.009389219,0.07079295,0.10285107,0.0020528063,-0.06367303,-0.039911993,0.017255701,0.08755449,0.044605896,0.0030065961,0.007998646,0.052529212,0.06493467,0.013523602,-0.018657133,-0.019855307,-0.052417707,-0.06754464,0.052524034,0.0016054768,-0.06490104,-0.048574224,0.026695577,0.009457794,-0.01110542,-0.02103337,-0.032900527,-0.009363581,-0.05934744,-0.013382464,0.0011180993,0.012816168,0.041063037,0.017168814,0.010414553,-0.00019641404,0.06510847,0.12984245,0.014313861,0.058512244,0.024880541,0.06596859,0.020914903,0.023464764,0.008723816,0.02528285,0.03611528,0.010267161,-0.08416321,-0.021796742,0.057306778,-0.06782692,-0.04085653,0.10580526,0.039289728,-0.1010033,-0.027892908,0.019050874,0.038476527,0.06327228,0.07535579,0.09861869,-0.08198282,-0.008567136,-0.026645524,-0.026433196,0.038440775,0.06414631,0.08781371,0.022113929,0.069804855,0.011497444,-0.03121062,-0.041027512,-0.04038689,0.029634677,-0.037982013,0.055465493,-0.021794934,0.03168936,-0.13745534,0.002130501,-0.0445511,-0.09077661,-0.03694003,-0.0067660757,-0.00023052514,-0.09495896,0.08270027,-0.09314428,0.039658226,0.038460243,-0.038359027,-0.015489063,0.00018672424,-0.043625772,-0.045929644,-0.047886208,-0.08501706,-0.0391146,-0.087360255,0.077006176,0.046775494,-0.0127273835,-0.033188436,-0.104049996,-0.01488204,-0.0028599123,0.10018421,0.038449913,-0.05385385,-0.032646447,-0.0068534985,0.059200276,-0.049845967,0.08669258,-0.01563028,0.09660505,0.06258226,-0.02540259,-0.0304072,0.028450873,0.0004623283,0.050402835,0.075958475,-0.012536887,0.0116298525,0.029231336,0.012958603,0.08258944,0.12153223,0.046383057,-0.0059995526,-0.043075576,-0.06294276,0.04102379,-0.034556802,0.02282711,-0.00755893,-0.057565924,-0.0040714643,0.06356171,0.034290504,-0.027544048,-0.067820646,0.040796947,-0.013477496,-0.09212768,-0.023285657,-0.043785248,-0.0017834582,-0.07689029,-0.016059952,-0.025272366,-0.004920111,-0.08137081,-0.028622106,-0.04726951,0.013143717,-0.009270194
,0.016358977,-0.09342867,0.027877599,-0.032286968,-0.058219995,-0.010278069,-0.04550087,-0.0044755605,0.019751428,0.015457612,0.022892835,-0.023446055,-0.034665763,0.0061260336,-0.008095234,-0.10465589,-0.06368693,0.048157025,-2.6753132e-05,-0.049228497,-0.07729791,-0.027375495,0.0039672796,-0.027952531,0.091285355,-0.054435983,-0.019083614,0.12601002,0.044860605,0.041709725,0.031071903,0.054598093,-0.0018412485,-0.041456733,-0.0008927752,-0.018809343,-0.055980615,-0.000110705136,-0.10000951,-0.05455536,-0.07192656,0.020277474,0.01886795,-0.048290785,0.08151517,0.01864672,0.063828036,-0.022342356,-0.047859173,0.009565274,0.0011209045,0.047165044,0.10368238,-0.04450871,0.014950528,-0.001603267,-0.011876285,-0.019567424,0.057054438,-0.060216486,0.006954031,0.053098965,-0.07601483,-0.03220689,-0.12554371,0.04712163,0.08709999,0.039710354,-0.028459229,0.08769256,-0.05751336,-0.037844606,-0.00905371,-0.061204374,-0.0028740566,0.0658224,-0.0010799605,0.053030364,0.009065676,0.0130838435,0.06446449,-0.004758082,0.07444161,-0.026720867,-0.044436987,0.0115312105,-0.04981763,-0.08308978,0.035890207,-0.022548744,-0.0018498957,-0.07355538,0.039625753,-0.028932488,0.0153781315,0.03507218,0.06507131,-0.033109557,-0.042814456,-0.017483532,-0.0014319007,0.08377129,0.026304862,0.004691153,-0.06988927,-0.0037215878,-0.17310604,0.086051635,-0.038205143,-0.04168174,0.08792658,0.020088809,0.05279822,0.018129945,-0.0076344865,-0.020017747,-0.0007691162,0.011371483,0.007231274,-0.028758457,-0.048515934,0.08622112,-0.06655153,0.026295992,0.101822905,0.07172114,0.1442219,-0.012464948,-0.014167034,0.030438503,-0.024900094,-0.049574453,-0.0038292764,0.02117625,0.0031628183,0.02881768,0.022839544,-0.04703977,0.03664472,0.04322004,0.026648832,-0.0034176446,-0.044862326,0.05161491,-0.06582856,0.07368919,0.0958901,-0.002064535,0.12667398,0.27115244,0.15362746,0.10570035,-0.027831957,-0.084295966,0.01868536,-0.016339688,0.05873045,0.04131142,0.0036768448,-0.032567434,-0.06012232,-0.11979182,0.02269717,0.038284253,0.028503893,0.0045688218,-0.080423824,0.004386799,-0.026102895,-0.004695222,-0.04868656,-0.018405953,0.05960304,0.099165194,0.07046401,0.13051564,0.22489145,0.19258359,0.10744089,-0.011622127,-0.09847797,-0.09150415,-0.15489757,-0.032511555,0.09223223,0.060091857,0.011907441,-0.026323462,0.028077316,-0.03342822,0.054660875,-0.057949062,0.012121754,-0.029429264,-0.02442575,-0.08493111,-0.019782556,0.04332562,0.0694434,0.0071293996,-0.07046301,0.07712356,0.02291305,0.19027175,0.17406824,0.081691064,0.14532231,-0.061598238,-0.22912459,-0.14329556,-0.117640115,0.022044072,0.10068635,-0.03930173,0.031566773,0.028112344,0.021459077,0.10411488,0.15875034,-0.011045901,-0.008722436,0.03830416,0.03965766,0.013820853,-0.025285799,0.1197935,-0.093417674,0.03519718,0.021634663,0.07763583,0.06502191,0.10386974,0.12129851,0.178417,0.13486375,-0.026433839,-0.1026354,-0.19153929,-0.043738,0.094314754,0.07196014,0.046887435,0.024130505,-0.08111717,0.011687786,0.012255947,0.033889245,-0.05349895,0.0013321514,-0.037527714,-0.080676496,-0.10268537,0.07043738,-0.05008714,-0.06351184,0.051705185,0.08709801,0.06115496,0.06786558,0.11626631,0.053814135,0.11614532,0.24976929,-0.020315703,-0.15992704,-0.2008797,-0.21995322,-0.0377196,-0.06869142,-0.044378433,0.015765049,-0.023452906,-0.005038697,-0.042624068,-0.08688514,-0.022182126,-0.065762885,-0.00541785,0.11310353,-0.042979397,0.033824928,-0.117349006,0.117611535,0.10436915,-0.014117251,0.07333596,0.07791861,0.064960405,0.06393457,0.19333878,0.02952296,-0.05603908,-0.052293126,-0.14038281,-0.05636159,0.004644078,0.15132345,-0.112946644,-0.08957866,0.035406474,-0.061574344,0.080881126,0.0716367,-0.0018901563,0.0064910753,0.035354957,0.0129523,-0.102353096,-0.03345145,0.034268823,0.07041352,-0.14856382,0.015353445,0.10686743,0.09177813,0.039460674,0.08230107,0.04425255,0.041582394,-0.042651877,-0.053056587,-0.11035117,0.02835235,0.06684077,0.1678544,0.16530497,0.030719025,0.10877055,-0.109134786,0.063212276,-0.019225009,-0.060093448,-0.0778651,0.07139404,-0.027886715,0.029973526,0.06459341,0.037217382,-0.060335174,0.03693179,-0.011067755,0.043104187,-0.050378863,0.040953312,0.088873535,0.014467844,-0.008339785,-0.12626292,-0.16917007,-0.11051606,-0.114166625,0.06015134,0.096811704,-0.056717906,0.0029239887,-0.13007073,-0.06856423,0.035386503,-0.06999563,-0.03199751,-0.01730323,-0.01718672,0.01975595,0.049849402,-0.030965488,-0.00046625364,0.02492755,0.02738854,0.031413868,0.040196136,0.082645275,0.04309185,0.15008636,0.028520536,0.0647265,-0.035055894,-0.12456768,-0.0038820251,-0.13141213,-0.006643544,-0.030717308,0.010001232,0.062230542,0.016650701,-0.011576702,0.02200399,0.09987309,0.106045716,-0.082289584,0.016210744,-0.016284825,-0.0051061376,0.017535482,0.010990423,0.12081558,0.007882562,0.038085543,0.14183816,0.108846575,0.05542808,-0.06905265,0.003591569,-0.080175586,0.056206297,-0.113960385,-0.07464206,-0.0022311346,-0.0527894,0.08140712,0.105636686,0.042387106,0.04985888,-0.05714944,0.020648852,0.06360803,0.113698214,-0.08834175,0.02007874,0.063500606,0.052990653,0.03838198,-0.00033741657,-0.110308155,0.028108615,-0.012100842,-0.031810172,-0.014015302,0.0979453,-0.04545177,0.17297117,0.12426436,0.13454157,0.042885493,-0.10093691,-0.0732313,-0.07676403,0.0024515286,0.048428502,0.05050807,0.038312703,-0.06307367,0.041451883,0.014356092,0.029461874,0.009765643,0.049392357,-0.07132085,-0.14630267,-0.035271768,-0.028563678,0.009467459,0.044203263,-0.00032601753,-0.0022646652,0.03264459,0.009893918,0.077122144,0.094712645,0.019338325,-0.029538566,0.021511232,-0.081908494,0.030869666,0.08858655,0.08931638,0.013415997,0.047992747,0.13992582,0.03635085,0.019734133,-0.049215395,-0.020845896,0.0026471713,0.012463728,-0.01708315,0.11020785,0.06723805,-0.0100880535,-0.04235572,-0.005782815,0.057462577,0.00081520755,0.04247016,0.020005599,-0.0049592657,0.07103155,-0.063717164,0.067788936,-0.06135686,-0.17233895,-0.050227713,0.07262374,0.16260928,-0.014478438,-0.073095836,0.008622154,-0.0060236733,0.040586617,-0.0027561085,-0.036583364,0.010962087,0.034324944,0.0011821155,0.047434025,0.04516191,0.05647964,0.051284075,-0.08870872,0.048567683,0.02416215,0.03146423,-0.1383806,0.045836102,0.050954662,0.0043726717,-0.10406354,-0.15680051,-0.11029823,0.078727975,0.12875494,-0.0018908096,0.01006525,0.01707478,-0.12110842,-0.046936404,-0.027172968,0.03821626,-0.0465708,-0.0068396963,-0.019744061,-0.08370675,0.050594628,0.034314647,0.06561077,-0.0988313,-0.029709695,-0.009796485,0.09750743,0.044106573,-0.042706307,0.08359408,0.07210144,-0.09709767,-0.1892217,-0.22812806,-0.04454288,0.15317015,0.09197725,-0.09691205,-0.014074483,-0.0066450345,-0.11476,-0.018446444,0.07229766,0.017327825,0.0015846803,0.018576,0.050852466,-0.029480506,-0.009764547,0.02499016,0.01574632,-0.0038247772,0.006082584,0.06012621,0.008393505,-0.035314564,-0.06741366,-0.010979341,-0.087036826,-0.014346176,-0.10977619,-0.07154493,-0.0076681287,0.10351268,0.018287914,-0.027692528,0.023870075,-0.058737222,-0.066718236,-0.04486409,-0.02636432,-0.027634999,-0.0451693,0.07045798,-0.029938633,-0.013000807,0.033322338,-0.08477645,-0.056219734,-0.034543864,-0.012171013,-0.058669288,0.025135716,-0.008383835,0.004999426,-0.0031334332,-0.06576463,-0.076504566,-0.09810595,-0.07903964,0.02369186,0.17649259,0.10469464,0.039212298,0.035127345,-0.076855816,-0.016178384,-0.013619087,-0.020412834,-0.084446855,0.022573683,0.034605023,0.0050482447,-0.002919339,0.037834957,0.0537392,0.007572379,0.025279954,-0.012317225,-0.07851733,0.005292276,-0.003165625,0.03946948,0.037425783,-0.00935041,-0.104860105,-0.04381957,-0.034491815,0.06347831,0.06352421,0.052412402,0.06661235,-0.0018921844,-0.0565646,-0.018731367,0.0446958,0.09091675,-0.033852007,-0.031888485,0.11077747,-0.06182886,-0.025023555,-0.057710018,0.012114863,0.0987273,-0.049132224,-0.01897687,0.092838734,0.009770615,-0.009376981,-0.09191363,0.005507102,0.053180914,-0.036221527,-0.17720538,-0.06979219,0.04542291,0.0665709,0.0499469,0.022386614,-0.016345486,-0.01660054,0.0008487895,-0.10468981,-0.050665237,-0.00787251,-0.055645168,-0.0648647,0.12350401,-0.066824466,0.013643311,0.03762795,-0.061705124,0.058650773,0.055649493,0.0120595135,0.025713235,0.05242829,-0.060513686,-0.06918688,0.022855472,-0.05629842,-0.08539083,-0.056187324,0.0067978087,-0.03379747,-0.12878947,-0.016491052,0.039085735,-0.09622208,0.021453502,0.015457115,0.005165006,0.02777574,0.0005609818,-0.0029658526,0.0018196428,0.010669006,0.028486762,-0.028122997,-0.07164258,0.09631092,-0.02905495,0.012325885,-0.031599544,-0.011052597,0.04265509,-0.033053104,-0.07424762,-0.12759884,-0.06127593,-0.012494008,-0.0710625,0.07346996,0.02145685,0.116883524,0.07521234,0.02741021,-0.017566418,0.045865584,-0.004806472,0.012823077,0.008089261,0.05486306,0.009289802,0.009313685,0.06734675,-0.053165533,0.006399871,0.021143662,0.0653997,0.1039403,0.006672226,0.0036599548,0.010870586,-0.039288677,0.0068308525,0.031291213,-0.035140444,0.061638605,0.05483672,0.021674437,0.053757597,-0.0613845,-0.0108406525,0.07062072,0.011326612,0.056275584,0.0047015813,-0.016477233,0.036802515,0.013847047,0.0016149895,-0.015921526,-0.027576992,0.090700254,0.0077706017,0.085297845,-0.0036956484,-0.031700708,-0.07548035,-0.008911206,0.019991565,0.0024571894,0.077274896,-0.016765757,0.10696698,-0.0056515997,0.04494404,0.04803201,0.031599943,0.03710891,0.044332333,0.004890354,-0.05600496,0.07653254,-0.05185208,0.08037888,0.010781357,0.007282542,-0.087563604,-0.021341912,0.02844783
